{"net.0.weight": [[-0.3462088704109192, -0.13068461418151855, -0.011869140900671482, -0.04984476789832115, -0.06837677955627441, 0.0912095308303833, -0.06674666702747345, 0.08191394805908203, -0.20846925675868988, 0.10926938056945801, 0.03637665510177612, 0.08119801431894302, 0.021287191659212112, 0.11448078602552414, -0.05293845757842064, 0.12598004937171936, 0.07104247063398361, -0.06542956084012985, -0.08582507073879242, -0.10737838596105576], [0.16220863163471222, 0.29934537410736084, 0.1898065060377121, 0.04857692867517471, -0.010529465042054653, 0.05710465833544731, 0.010717161931097507, -0.026638641953468323, -0.06090890243649483, 0.05776912719011307, 0.012307532131671906, 0.0375615693628788, 0.06529002636671066, -0.10023833811283112, -0.09832648187875748, -0.12235809117555618, 0.10336943715810776, 0.2666683495044708, 0.14286036789417267, 0.08098599314689636], [-0.19136632978916168, -0.2708621323108673, 0.030227791517972946, 0.13839390873908997, -0.220152348279953, -0.11998455226421356, -0.1689397096633911, 0.13676241040229797, -0.16636639833450317, -0.005301521625369787, 0.09999216347932816, 0.01414529699832201, 0.03617443889379501, 0.07077798992395401, -0.22509659826755524, 0.17463229596614838, 0.13602480292320251, 0.15424871444702148, 0.14534270763397217, 0.07062027603387833], [0.2827361822128296, -0.0370941124856472, 0.2585311532020569, 0.26857954263687134, -0.019225668162107468, 0.001482199179008603, 0.010547439567744732, -0.012109861709177494, -0.0358043909072876, -0.029574789106845856, -0.0023949628230184317, 0.02929818630218506, 0.019521305337548256, 0.0027928815688937902, -0.02182692103087902, -0.02238323912024498, 0.012901623733341694, -0.12817855179309845, -0.047271810472011566, -0.08257187902927399], [0.20335276424884796, -0.21612095832824707, 0.21239767968654633, 0.08560743927955627, -0.024639340117573738, -0.11347422003746033, -0.1257900446653366, 0.09014202654361725, 0.013282835483551025, -0.033119358122348785, 0.088467538356781, -0.01737504079937935, 0.002789754420518875, 0.010932468809187412, -0.06325904279947281, -0.046917881816625595, -0.11955239623785019, -0.1682969331741333, 0.22937583923339844, -0.13170306384563446], [-0.10150890052318573, -0.10154812037944794, 0.06700679659843445, -0.08892374485731125, -0.18833114206790924, 0.12657712399959564, -0.0376875139772892, -0.1767231673002243, -0.21817520260810852, -0.17909358441829681, 0.11446377635002136, 0.03214237466454506, 0.04961594566702843, -0.06028778478503227, 0.03532738238573074, -0.08296997100114822, 0.18783821165561676, -0.07750540226697922, 0.1784249097108841, -0.05301462486386299], [-0.05121985450387001, 0.18741899728775024, 0.15138356387615204, -0.009783250279724598, -0.11899039149284363, -0.04703422635793686, -0.09082645922899246, 0.046334873884916306, 0.1261274218559265, 0.007777375169098377, -0.02257336676120758, 0.1499062478542328, 0.0007692346698604524, 0.0005508807953447104, -0.009192612953484058, -0.053093601018190384, -0.25260403752326965, 0.2280167043209076, 0.09376382827758789, -0.07111125439405441], [-0.19705866277217865, -0.08773846924304962, -0.11104649305343628, -0.1390809714794159, 0.060397133231163025, 0.15611757338047028, 0.09534219652414322, -0.01951415464282036, -0.18247973918914795, 0.11977963149547577, 0.0385916531085968, 0.038952890783548355, 0.00030867039458826184, 0.10899265110492706, 0.0800308883190155, 0.1441938728094101, 0.0450083427131176, -0.17916201055049896, -0.013201274909079075, 0.20681604743003845], [-0.20431430637836456, -0.1615217924118042, -0.0835491195321083, -0.0928053930401802, 0.06410755962133408, 0.07909291982650757, 0.1228470429778099, 0.0540587417781353, -0.07084137201309204, -0.03200336918234825, -0.09386825561523438, -0.23183509707450867, 0.1894826591014862, 0.22201868891716003, -0.040316469967365265, 0.06941929459571838, -0.046345148235559464, -0.15754933655261993, 0.3052027225494385, -0.21874713897705078], [-0.2706451416015625, -0.15650588274002075, -0.09019175171852112, -0.11502020806074142, -0.020721755921840668, -0.09184592217206955, -0.02318856678903103, -0.050622306764125824, -0.03577600419521332, -0.06623339653015137, 0.05907570943236351, 0.030884819105267525, 0.0759643018245697, 0.048102084547281265, 0.01409265398979187, -0.028634581714868546, -0.08546166121959686, 0.11016232520341873, 0.07484878599643707, -0.03199673444032669], [-0.07196611911058426, 0.01277056336402893, 0.22820517420768738, -0.09739958494901657, -0.039442278444767, -0.046103209257125854, 0.021092867478728294, 0.03159534931182861, -0.03551653027534485, -0.02963639236986637, -0.06624562293291092, 0.0031971517018973827, -0.020941749215126038, 0.09916160255670547, 0.04056129232048988, 0.0011597194243222475, -0.2839083969593048, 0.10399165004491806, 0.17395660281181335, 0.15749354660511017], [0.11537996679544449, -0.003547984641045332, -0.030900103971362114, -0.15027745068073273, -0.02841327153146267, -0.019025368615984917, -0.05756973475217819, 0.002548500197008252, -0.06815064698457718, -0.054481714963912964, 0.0996381938457489, -0.03651659935712814, -0.011751269921660423, -0.07058630883693695, 0.06285957992076874, 0.0750359445810318, -0.22679729759693146, -0.1280786395072937, 0.09228842705488205, 0.08771930634975433], [-0.19429461658000946, 0.051359258592128754, -0.016272883862257004, -0.20629367232322693, 0.0552435927093029, 0.08328741043806076, 0.02304699830710888, -0.008042550645768642, -0.07475728541612625, 0.019906839355826378, -0.04004164785146713, 0.17642119526863098, 0.20758086442947388, 0.21428601443767548, 0.15227510035037994, 0.13005675375461578, 0.2180793136358261, 0.05423307046294212, 0.04038223251700401, -0.21306997537612915], [0.05928879976272583, 0.18570518493652344, 0.20597881078720093, 0.2982683479785919, -0.02250218577682972, -0.07927946001291275, -0.06409671157598495, -0.053336359560489655, 0.011427036486566067, -0.043286897242069244, -0.03433432802557945, -0.05829603224992752, -0.01406134944409132, -0.0398055836558342, -0.018356354907155037, -0.06151249259710312, 0.04091795161366463, -0.1376066356897354, -0.03880830854177475, -0.004558200016617775], [0.17903761565685272, 0.2913168668746948, 0.027790362015366554, 0.0892246812582016, 0.020626332610845566, -0.020755622535943985, 0.06934243440628052, 0.0053519271314144135, 0.032568324357271194, 0.0025231260806322098, 0.012073161080479622, -0.09669949859380722, -0.05582086741924286, -0.024774476885795593, 0.00816982053220272, 0.013560974039137363, -0.0858587995171547, -0.010096962563693523, -0.08019695430994034, 0.10820326209068298], [-0.26159924268722534, -0.20795577764511108, -0.09282523393630981, -0.027838006615638733, 0.06692706048488617, -0.11648058891296387, -0.1087009608745575, 0.027503954246640205, 0.045551273971796036, 0.03843608498573303, 0.03426805138587952, -0.012274829670786858, -0.023765001446008682, 0.004012679681181908, 0.10291580855846405, 0.09453833848237991, -0.027580508962273598, 0.01939941942691803, -0.06155341491103172, -0.09999459236860275], [0.2926575541496277, 0.11555768549442291, 0.15862224996089935, 0.1799066960811615, 0.045330874621868134, 0.006674071308225393, -0.016507724300026894, 0.02492661029100418, -0.006530058570206165, 0.0669531300663948, 0.0967336967587471, 0.09759078174829483, 0.017090188339352608, 0.025368468835949898, -0.023748619481921196, -0.04157260060310364, 0.047681648284196854, -0.011094176210463047, 0.09301795810461044, -0.06673027575016022], [0.25163036584854126, 0.23360949754714966, -0.020993921905755997, 0.13946343958377838, -0.1251288652420044, -0.058337241411209106, -0.13691534101963043, 0.08092009276151657, 0.10455640405416489, -0.041753221303224564, -0.07477082312107086, 0.014358066953718662, -0.004007106181234121, 0.08766064047813416, 0.06171148270368576, -0.053875211626291275, 0.14010685682296753, -0.11036881059408188, -0.03910195082426071, 0.05588303878903389], [-0.2380601018667221, 0.038876935839653015, 0.1233242005109787, -0.011867057532072067, 0.053988318890333176, 0.05774471163749695, -0.09606117010116577, -0.15595172345638275, -0.1095367968082428, -0.0552373081445694, 0.14316661655902863, -0.15513156354427338, -0.11875481903553009, 0.11732887476682663, -0.02391134947538376, -0.06418131291866302, 0.12166111171245575, -0.01368371769785881, -0.2191402018070221, -0.14273855090141296], [-0.00949898548424244, -0.055858176201581955, -0.23444367945194244, 0.2012147307395935, 0.14701218903064728, 0.013639727607369423, 0.019659027457237244, -0.2033846378326416, 0.11489279568195343, -0.09313821792602539, 0.12267527729272842, 0.06961403787136078, 0.053306419402360916, -0.06811754405498505, 0.0007660601404495537, -0.11915223300457001, -0.09398579597473145, 0.30575090646743774, -0.3088223338127136, -0.0030170120298862457], [-0.13611169159412384, -0.1843177229166031, -0.2530490458011627, 0.1366627961397171, -0.14072813093662262, 0.04685754328966141, -0.07843286544084549, 0.07999331504106522, 0.11129672080278397, 0.07676707953214645, -0.102419912815094, -0.030332690104842186, -0.15198108553886414, -0.03768901526927948, 0.025467660278081894, 0.05347224697470665, -0.14406229555606842, -0.1783025711774826, 0.19073574244976044, -0.08430235087871552], [0.18227599561214447, 0.16761113703250885, 0.24812211096286774, 0.10065914690494537, 0.09996932744979858, 0.09821756184101105, -0.044096339493989944, 0.04724841192364693, -0.07209616154432297, -0.07899823039770126, -0.016111556440591812, -0.026307404041290283, -0.10012539476156235, 0.02887670323252678, 0.0913219228386879, 0.10857757925987244, -0.004577669780701399, 0.2500004172325134, -0.1454157680273056, -0.11262159794569016], [-0.2573583722114563, -0.041574519127607346, -0.24814945459365845, 0.0664631575345993, -0.061116281896829605, -0.08770624548196793, -0.05511484295129776, -0.027548516169190407, 0.09709169715642929, 0.07620546221733093, -0.0012356338556855917, -0.015316988341510296, 0.040710508823394775, 0.05989864841103554, -0.04671197384595871, -0.08697538077831268, 0.11538175493478775, 0.13078725337982178, 0.13867846131324768, 0.2670135200023651], [0.0861976146697998, -0.27364152669906616, -0.1956729292869568, -0.20917025208473206, 0.04012032225728035, 0.03503841161727905, 0.06964253634214401, -0.021850090473890305, 0.005018922034651041, -0.09874791651964188, -0.01779615506529808, -0.19001862406730652, -0.05281367152929306, -0.04873622953891754, -0.0487678200006485, 0.04795398563146591, -0.015748942270874977, 0.19457826018333435, 0.15038299560546875, 0.06175912544131279], [0.3206571340560913, 0.2668341398239136, -0.14039582014083862, 0.24966080486774445, 0.10177025198936462, -0.08117343485355377, -0.053625982254743576, -0.022163385525345802, 0.021152425557374954, -0.0900130346417427, 0.03949940949678421, -0.020713897421956062, 0.062312353402376175, -0.11309343576431274, -0.056603241711854935, -0.10524967312812805, 0.008094457909464836, -0.01685003563761711, -0.10118336230516434, 0.11152719706296921], [-0.03542308881878853, -0.24000610411167145, -0.09305406361818314, 0.01895277388393879, -0.0812871903181076, 0.022361738607287407, -0.039370398968458176, -0.0202499832957983, -0.0794929563999176, 0.05161391571164131, 0.19811466336250305, 0.2575555145740509, 0.0629546046257019, -0.08111996948719025, -0.18469737470149994, -0.07736730575561523, -0.07425233721733093, -0.3239124119281769, 0.01772562600672245, -0.16553731262683868], [0.0951206162571907, -0.14451700448989868, -0.11869928240776062, -0.04656967520713806, 0.12426488846540451, 0.012461001984775066, -0.09955710917711258, -0.1909153312444687, -0.18344436585903168, 0.13055011630058289, -0.10780179500579834, 0.16488751769065857, -0.16051876544952393, 0.16315539181232452, 0.07305139303207397, -0.14945581555366516, -0.1770278960466385, -0.12630344927310944, 0.200006365776062, -0.12807542085647583], [-0.18895764648914337, 0.01988970674574375, -0.12640447914600372, -0.28148460388183594, 0.2111084759235382, -0.038356438279151917, 0.06146174669265747, 0.031670670956373215, 0.09993963688611984, -0.12178906798362732, 0.07544438540935516, -0.04134908691048622, -0.04714790731668472, -0.12965106964111328, -0.06166192516684532, 0.1829758584499359, -0.19628731906414032, -0.18685805797576904, 0.12461157888174057, 0.018864521756768227], [0.14022864401340485, 0.08194313198328018, -0.04541825130581856, 0.15566189587116241, -0.09732089936733246, -0.15421754121780396, -0.057730041444301605, -0.18837541341781616, 0.06170639395713806, -0.16541250050067902, 0.07538839429616928, -0.10332777351140976, 0.09954990446567535, 0.07557669281959534, 0.04185720160603523, 0.08813159167766571, -0.1996297836303711, -0.043109118938446045, 0.14246563613414764, 0.24709345400333405], [-0.08068680018186569, -0.017557291314005852, -0.27111196517944336, -0.10453809797763824, 0.14894671738147736, -0.10052334517240524, -0.049136657267808914, 0.1003948301076889, 0.19534742832183838, 0.10838577896356583, -0.09445100277662277, -0.13147690892219543, 0.06918573379516602, -0.15406566858291626, 0.185050368309021, -0.07058411836624146, 0.05205840989947319, -0.2056056559085846, 0.1421392858028412, 0.2139582484960556], [0.26353681087493896, 0.23292715847492218, 0.0361313670873642, 0.10989353060722351, 0.007171779405325651, -5.3330251830630004e-05, -0.10544062405824661, -0.15974879264831543, -0.1302585005760193, -0.11121764034032822, 0.026707276701927185, 0.06383795291185379, 0.10948152840137482, 0.07192444056272507, 0.05784131586551666, 0.07312879711389542, 0.19892214238643646, -0.08776462078094482, 0.06200388818979263, 0.06542371213436127], [-0.23317912220954895, -0.21154487133026123, -0.14181867241859436, -0.08109099417924881, 0.009508947841823101, -0.10162874311208725, 0.03430260345339775, 0.01868227683007717, -0.19207458198070526, 0.00668821856379509, 0.24387073516845703, -0.05024058371782303, -0.1849394589662552, 0.2407161146402359, 0.22140450775623322, -0.1902671754360199, 0.10521311312913895, -0.2410595715045929, 0.11762534826993942, -0.1346314549446106], [0.19699659943580627, 0.18859981000423431, 0.20503994822502136, 0.22759507596492767, -0.03364865109324455, -0.06144554540514946, -0.029424874112010002, -0.11192018538713455, -0.08992403745651245, -0.10690551996231079, -0.023634526878595352, -0.009583011269569397, 0.07164392620325089, 0.057233184576034546, 0.04394955560564995, 0.011099686846137047, -0.12039893120527267, -0.11773929744958878, -0.13075272738933563, -0.12901093065738678], [-0.0016551163280382752, 0.24070192873477936, -0.033837977796792984, -0.09110824018716812, 0.13662385940551758, 0.030679361894726753, -0.0018010649364441633, 0.0824877917766571, 0.020576773211359978, -0.1537093222141266, -0.004088645800948143, -0.020486462861299515, 0.04398151487112045, 0.02229776233434677, 0.1697738766670227, 0.0503634437918663, -0.09490347653627396, -0.11174160242080688, -0.02977493591606617, 0.17100846767425537], [-0.06122424453496933, -0.17345646023750305, 0.1465575098991394, -0.19993183016777039, -0.08800780028104782, 0.06073183938860893, 0.0002997488190885633, -0.018012985587120056, 0.09459621459245682, -0.035399727523326874, 0.05269462242722511, -0.040029432624578476, 0.08127140253782272, 0.09612849354743958, -0.09215587377548218, 0.03323196619749069, 0.19300392270088196, -0.1779491901397705, -0.2527138590812683, -0.10807597637176514], [-0.3303811550140381, -0.14561378955841064, -0.16923938691616058, 0.12018744647502899, 0.042281292378902435, 0.05119873583316803, 0.06459012627601624, 0.0746290385723114, -0.05257752910256386, 0.08717042952775955, -0.02773284912109375, -0.05657752603292465, -0.09152311831712723, -0.1126188412308693, -0.08419512212276459, -0.07256805151700974, 0.018498370423913002, -0.0012448973720893264, -0.10035401582717896, -0.05375843495130539], [0.030826954171061516, -0.0431051142513752, -0.23711897432804108, -0.025380082428455353, 0.09751233458518982, 0.17012371122837067, -0.0848098173737526, 0.027252454310655594, -0.05753466114401817, 0.00723724439740181, -0.025074835866689682, 0.08778175711631775, -0.11066357046365738, -0.06350190192461014, -0.011506115086376667, 0.05352061241865158, 0.11953023076057434, 0.08770418167114258, -0.21551600098609924, 0.37469717860221863], [0.12338554859161377, -0.2596808969974518, 0.021332917734980583, -0.16320385038852692, -0.10625738650560379, -0.08860491961240768, -0.012281185947358608, -0.046809207648038864, -0.04054262116551399, -0.08904613554477692, 0.08657905459403992, -0.11687617003917694, 0.0011475293431431055, 0.12407802045345306, 0.1507677286863327, -0.07221901416778564, 0.08462075144052505, -0.3195933401584625, 0.2997228801250458, 0.2197297066450119], [-0.22711817920207977, -0.210849329829216, 0.1562768518924713, -0.09708510339260101, 0.13202394545078278, 0.13865339756011963, -0.06298601627349854, -0.1792437881231308, 0.0712302178144455, 0.08942533284425735, -0.09513872116804123, -0.07009166479110718, -0.10586393624544144, -0.06127697229385376, -0.07587327063083649, 0.15827125310897827, -0.11959276348352432, -0.18989165127277374, -0.044913068413734436, -0.005192042328417301], [0.34707027673721313, 0.23259922862052917, -0.030761923640966415, 0.12717276811599731, -0.07914533466100693, 0.0011297713499516249, 0.056614406406879425, 0.09590329974889755, 0.014636083506047726, 0.035173021256923676, -0.09082923829555511, -0.08942046016454697, -0.09528136253356934, -0.03198184445500374, -0.11304952204227448, -0.06647709012031555, -0.08798898756504059, -0.06822756677865982, 0.05917740985751152, 0.0561160109937191], [-0.28930023312568665, -0.06196475028991699, -0.20132380723953247, 0.09387523680925369, -0.12643319368362427, -0.08917582780122757, -0.02241583727300167, -0.07186532765626907, 0.1163540706038475, 0.08559810370206833, 0.1079801544547081, 0.17301853001117706, 0.193807914853096, -0.2187158614397049, 0.007263930048793554, -0.04633241519331932, 0.13653266429901123, 0.12247911840677261, 0.09325656294822693, 0.010466516017913818], [-0.14927278459072113, -0.024712631478905678, 0.22028622031211853, 0.1973591297864914, 0.07672291994094849, 0.00767106469720602, 0.03928082436323166, -0.05834561586380005, -0.05414101108908653, -0.006926406174898148, 0.08879727125167847, 0.048019297420978546, -0.030970418825745583, -0.11267703026533127, -0.057675041258335114, -0.1117573156952858, -0.12547269463539124, -0.15523307025432587, 0.09388157725334167, 0.1635209321975708], [0.05729798600077629, 0.2935709059238434, 0.23058244585990906, -0.07714180648326874, 0.029878126457333565, 0.03711133450269699, 0.04253873601555824, 0.03668622300028801, 0.037964627146720886, 0.01946335844695568, 0.024442138150334358, 0.04598984494805336, 0.05380353704094887, 0.041799064725637436, 0.04463663697242737, 0.04609774798154831, -0.0036017014645040035, -0.047883808612823486, 0.11022045463323593, -0.0007760247099213302], [-0.27011144161224365, 0.16317684948444366, 0.06524737924337387, -0.18595953285694122, 0.12507785856723785, 0.0626281276345253, 0.09766215831041336, 0.01429604459553957, 0.15107028186321259, 0.10219532996416092, -0.05393936485052109, 0.004195714835077524, -0.12319031357765198, -0.131228968501091, -0.20382250845432281, -0.058878835290670395, -0.20481202006340027, -0.1591355800628662, 0.05111575126647949, -0.009140430018305779], [0.19710120558738708, 0.31778576970100403, 0.07839357852935791, 0.2331175059080124, 0.011625041253864765, 0.027780460193753242, 0.013728138990700245, 0.0008830460137687624, -0.0040078540332615376, -0.01932092197239399, 0.004870626609772444, -0.018286652863025665, 0.0026649036444723606, 0.019382575526833534, 1.0377753824286629e-05, 0.008291776292026043, 0.07092325389385223, -0.13262921571731567, -0.08861169964075089, -0.03800392523407936], [0.09406537562608719, -0.28736257553100586, -0.04512425884604454, -0.22156167030334473, 0.2437676191329956, 0.04301927983760834, -0.2015525996685028, 0.054281432181596756, 0.11757347732782364, 0.033378783613443375, -0.09102268517017365, -0.05922684445977211, -0.056195687502622604, -0.06075644493103027, -0.07209031283855438, 0.22799362242221832, 0.01743120327591896, -0.15574130415916443, -0.0628933534026146, -0.14105811715126038], [-0.002181092742830515, -0.11222003400325775, -0.12864044308662415, -0.25331100821495056, -0.0554768368601799, -0.048193830996751785, -0.01978890784084797, -0.04157477617263794, -0.05137815326452255, -0.08060261607170105, -0.021097365766763687, 0.03243885561823845, 0.10455052554607391, -0.22549009323120117, 0.03382004797458649, -0.06910065561532974, 0.011406399309635162, -0.1142766922712326, -0.03302888572216034, -0.011875578202307224], [0.10018569976091385, 0.05077827721834183, -0.25660690665245056, -0.2925792336463928, 0.07602743804454803, -0.0025763269513845444, 0.017734728753566742, -0.04407724365592003, -0.05961071327328682, -0.04357273504137993, 0.01820092648267746, -0.033892933279275894, 0.05929088220000267, 0.018566899001598358, 0.08430864661931992, 0.010710869915783405, 0.11319562792778015, 0.2165050357580185, 0.11014195531606674, 0.14024759829044342], [0.07324210554361343, -0.13384081423282623, -0.20005886256694794, 0.13614952564239502, -0.09123355895280838, -0.05604981631040573, -0.13452695310115814, -0.1418401002883911, 0.21195054054260254, 0.0006790328770875931, 0.1262870728969574, 0.07572450488805771, -0.2077186107635498, 0.09597718715667725, 0.088394396007061, 0.13736829161643982, 0.20330949127674103, -0.018950534984469414, -0.18641571700572968, 0.24620045721530914], [-0.0908341035246849, 0.09705859422683716, -0.034593354910612106, -0.005517146550118923, 0.013515562750399113, -0.13621628284454346, -0.09126236289739609, 0.07319223880767822, -0.040905267000198364, -0.0922674685716629, -0.04782071337103844, 0.08563949167728424, 0.08621277660131454, -0.0695355162024498, -0.12581196427345276, -0.03285396471619606, 0.09127850830554962, -0.12972593307495117, -0.1331438571214676, 0.19490227103233337], [0.29128098487854004, 0.15788871049880981, 0.29635608196258545, 0.08970177918672562, -0.033664848655462265, 0.11045487970113754, -0.01466941088438034, 0.03213142603635788, -0.08467606455087662, -0.011024302802979946, -0.07433729618787766, 0.07298175245523453, 0.028092116117477417, -0.03118874318897724, -0.11435090005397797, -0.01070473250001669, 0.10493135452270508, 0.25964704155921936, -0.07834473997354507, 0.0722077265381813], [-0.07631269842386246, 0.2023744136095047, 0.21495327353477478, 0.06515301018953323, 0.06483571976423264, 0.03882194682955742, -0.10066969692707062, -0.005487211048603058, -0.044738274067640305, 0.06339617818593979, -0.02724265865981579, 0.07194876670837402, 0.08220133930444717, 0.06071804091334343, 0.019444776698946953, 0.11505662649869919, 0.08312976360321045, -0.02718622237443924, 0.14491228759288788, 0.1577547788619995], [0.03398814797401428, -0.2646973729133606, 0.011916738003492355, -0.14258545637130737, -0.18649695813655853, 0.056247077882289886, 0.16551189124584198, -0.11256203055381775, 0.0767274722456932, 0.04461703076958656, -0.06608803570270538, 0.02128891833126545, 0.08775590360164642, 0.0332622230052948, -0.17592759430408478, -0.25851312279701233, -0.21480686962604523, 0.09427912533283234, -0.06929159164428711, -0.06554431468248367], [-0.15111909806728363, -0.001907717902213335, -0.09885890036821365, -0.13785690069198608, 0.005548742599785328, 0.2058541178703308, -0.14582236111164093, 0.16140350699424744, -0.04384830966591835, -0.13557706773281097, 0.18800219893455505, -0.1969287246465683, -0.047182511538267136, -0.12571822106838226, -0.09299565106630325, -0.02945847064256668, 0.07923781871795654, -0.1205095574259758, -0.120395727455616, -0.1061742752790451], [-0.09730688482522964, 0.22334028780460358, 0.10320077836513519, 0.1513732224702835, 0.07806477695703506, 0.10595901310443878, -0.04056535288691521, -0.052798304706811905, 0.14021968841552734, 0.0890735611319542, 0.099644735455513, -0.06424876302480698, -0.09254612028598785, -0.0933692455291748, -0.006039859727025032, 0.10288380831480026, -0.06676731258630753, 0.16295067965984344, -0.23126818239688873, 0.020013494417071342], [0.27147969603538513, 0.06291855871677399, 0.14325957000255585, 0.1353362798690796, -0.04220513254404068, -8.49899515742436e-05, 0.02773113362491131, -0.016629816964268684, -0.009305968880653381, 0.0026848583947867155, 0.09219446778297424, 0.0825103148818016, 0.03166131675243378, -0.012440567836165428, 0.03355759009718895, -0.040373120456933975, 0.0957673192024231, -0.0982193648815155, -0.1257801651954651, 0.044902533292770386], [-0.21099571883678436, -0.04192104563117027, -0.055482566356658936, -0.10527064651250839, 0.059730034321546555, 0.04867943748831749, 0.07644236832857132, 0.08078743517398834, 0.1074378564953804, 0.16955119371414185, 0.24079473316669464, 0.1704838126897812, 0.20614349842071533, -0.055670809000730515, 0.1930433064699173, 0.09458761662244797, 0.16708283126354218, 0.13342876732349396, -0.1349145919084549, -0.20560888946056366], [0.33864259719848633, -0.08484622091054916, 0.020215310156345367, 0.26016414165496826, 0.014254358597099781, 0.021676549687981606, 0.00453571043908596, 0.01801525615155697, 0.0241080429404974, 0.033932704478502274, 0.014215190894901752, -0.00039477835525758564, -0.011682976968586445, -0.0057201385498046875, -0.01439809799194336, -0.002831109333783388, -0.13453532755374908, -0.1417468935251236, -0.228903129696846, 0.006599863525480032], [-0.16749130189418793, 0.0729728639125824, -0.1623537689447403, -0.25813913345336914, 0.020483186468482018, 0.053841061890125275, -0.06289467960596085, 0.05698538199067116, 0.05501548945903778, 0.042782824486494064, 0.013106917962431908, -0.0645633414387703, -0.015409021638333797, -0.0013713479274883866, -0.08610694855451584, -0.09948819130659103, -0.10574501007795334, 0.1875450611114502, 0.20472988486289978, -0.17423340678215027], [-0.09351862967014313, 0.13108183443546295, -0.26524221897125244, -0.2287752479314804, -0.02922637015581131, -0.14948655664920807, 0.04800199344754219, 0.02275978960096836, 0.11273659765720367, 0.04904051870107651, 0.057805828750133514, -0.08317001909017563, -0.09865541756153107, -0.06289944052696228, -0.07716327160596848, -0.16548319160938263, -0.11645816266536713, -0.0022849394008517265, 0.06647878140211105, 0.14279615879058838], [0.18996106088161469, 0.06404509395360947, -0.0790828987956047, 0.14875513315200806, -0.02942756935954094, 0.058778733015060425, -0.12623003125190735, -0.12369316816329956, -0.08155296742916107, -0.08044790476560593, -0.012928173877298832, -0.050017472356557846, 0.05481715872883797, -0.04652850329875946, -0.13961906731128693, -0.12428409606218338, -0.20780588686466217, -0.13378329575061798, -0.12510155141353607, 0.20942576229572296], [0.004333787132054567, -0.271937757730484, -0.11649620532989502, -0.1798851042985916, 0.17465154826641083, 0.11021995544433594, -0.06832759082317352, -0.08344350010156631, 0.17781659960746765, 0.17131567001342773, -0.14885316789150238, 0.014752926304936409, 0.17638367414474487, 0.12939278781414032, -0.11385173350572586, -0.0694657564163208, -0.04936465993523598, 0.17848141491413116, -0.08756322413682938, 0.09840543568134308], [-0.1362670361995697, -0.22471114993095398, 0.11844409257173538, -0.23211537301540375, 0.2556147575378418, 0.11850567162036896, 0.10160508751869202, -0.14786890149116516, 0.05869137495756149, -0.01774509809911251, 0.13669200241565704, 0.1380629688501358, 0.1032610535621643, -0.036362674087285995, 0.15910297632217407, -0.12440109997987747, 0.09177941083908081, 0.09236865490674973, -0.15477393567562103, 0.12644332647323608], [-0.27333593368530273, -0.24080651998519897, -0.01038480643182993, -0.1804768294095993, -0.00648521538823843, 0.026945481076836586, 0.041508935391902924, 0.06210040673613548, 0.10543034225702286, 0.09137606620788574, -0.08791834861040115, 0.04086080566048622, -0.07514359056949615, 0.0173635371029377, 0.08367792516946793, 0.04407621547579765, -0.16119828820228577, -0.016259800642728806, -0.10123476386070251, -0.22627221047878265], [-0.21003209054470062, -0.039063964039087296, -0.045492030680179596, -0.1839757114648819, -0.13725534081459045, 0.16745498776435852, 0.11723275482654572, 0.19826187193393707, 0.1225045844912529, 0.18266671895980835, -0.16327735781669617, 0.12974023818969727, -0.17415639758110046, -0.015680532902479172, 0.052984923124313354, -0.15093739330768585, -0.007678665686398745, 0.15380287170410156, 0.22387275099754333, -0.10914731025695801], [-0.05614461004734039, 0.0933559313416481, -0.2403138279914856, 0.0634523257613182, -0.013573240488767624, -0.09394446760416031, -0.10253214091062546, 0.01816258393228054, -0.0736871063709259, -0.00010341948654968292, 0.0975172370672226, 0.11736758798360825, 0.08094065636396408, 0.10987477749586105, -0.1973848193883896, -0.17026212811470032, 0.17516359686851501, 0.11103321611881256, 0.17557582259178162, -0.12489800155162811], [-0.25566601753234863, -0.01571773923933506, -0.12823089957237244, -0.16247329115867615, 0.05315876379609108, -0.1118922084569931, -0.03895295038819313, 0.25112012028694153, 0.0039528729394078255, -0.013505029492080212, 0.05304570123553276, 0.046262338757514954, -0.055487874895334244, -0.011295231990516186, 0.05458308383822441, 0.1413808912038803, 0.07479695975780487, 0.12265624105930328, 0.19216234982013702, 0.2461598664522171], [-0.3131749629974365, -0.14228446781635284, -0.020128007978200912, -0.09243281185626984, -0.07633897662162781, 0.04079948365688324, -0.0577743835747242, -0.027081772685050964, -0.14223504066467285, 0.03634141758084297, -0.09328877925872803, 0.15088894963264465, 0.01033030916005373, 0.1728890836238861, 0.01598293147981167, 0.11305533349514008, -0.024046635255217552, 0.1405155062675476, -0.08084989339113235, 0.18486173450946808], [-0.028112702071666718, -0.022075947374105453, 0.08102180808782578, 0.09177388995885849, -0.14719371497631073, 0.09439942240715027, 0.08747266978025436, 0.021692845970392227, 0.055287957191467285, 0.07075803726911545, 0.05589832365512848, 0.010972217656672001, 0.131136953830719, -0.1049628034234047, 0.07861795276403427, -0.01778782159090042, 0.07377710938453674, -0.03958631306886673, -0.20876239240169525, -0.0390038825571537], [0.07710104435682297, 0.08207965642213821, 0.1596534550189972, 0.05666955187916756, -0.04588747397065163, -0.011942446231842041, 0.028951523825526237, -0.028131993487477303, 0.13226787745952606, -0.06788947433233261, -0.0026279303710907698, -0.04244420677423477, 0.012529212050139904, 0.069860078394413, 0.15839585661888123, -0.04500946030020714, 0.1374780684709549, -0.22798287868499756, 0.23918333649635315, -0.16749443113803864], [0.025838589295744896, 0.12038373947143555, -0.17590202391147614, -0.1080697700381279, -0.04102301970124245, 0.13521644473075867, -0.023119254037737846, 0.12262313812971115, -0.0026845780666917562, 0.155722513794899, 0.1377621293067932, 0.04275353252887726, -0.01462504081428051, -0.0529913455247879, 0.0465489998459816, 0.11635845899581909, 0.003082273295149207, -0.10214484483003616, -0.2375125288963318, 0.2569826543331146], [0.20594726502895355, 0.022544242441654205, 0.3119141757488251, -0.027182675898075104, 0.1291005164384842, 0.0853024423122406, 0.01972956582903862, 0.10474497824907303, 0.14261093735694885, 0.14702555537223816, 0.032663341611623764, -0.052273135632276535, -0.08053329586982727, -0.035813555121421814, 0.01958344504237175, 0.11883582174777985, 0.3373595178127289, -0.06327708810567856, 0.10737568140029907, -0.1447121649980545], [-0.03972243145108223, -0.16033849120140076, -0.2199404388666153, 0.009027651511132717, -0.06615360081195831, -0.22716295719146729, -0.039063964039087296, -0.030977601185441017, -0.07111749798059464, 0.2432558685541153, -0.13188649713993073, -0.07721710950136185, -0.040239762514829636, -0.06704123318195343, -0.04734179750084877, -0.03770645335316658, -0.019275285303592682, -0.06429783254861832, 0.16487102210521698, 0.02703029476106167], [0.13981497287750244, -0.1407477706670761, 0.09570445120334625, -0.08253369480371475, -0.07324610650539398, -0.05103069171309471, -0.1395408660173416, 0.02031826227903366, -0.14225761592388153, -0.0821380764245987, 0.11702622473239899, -0.010519319213926792, -0.06468496471643448, 0.09624966979026794, -0.061534587293863297, 0.1055997908115387, -0.2307588756084442, 0.20842748880386353, 0.05932538956403732, -0.059614766389131546], [0.28386497497558594, 0.09399477392435074, 0.2590199410915375, 0.1363794207572937, 0.010780288837850094, 0.01174507848918438, 0.031965333968400955, 0.030108410865068436, 0.007778166327625513, -0.05915117263793945, -0.05646790564060211, -0.0733514353632927, -0.021951325237751007, 0.011192822828888893, 0.02362484484910965, 0.009276931174099445, 0.28565558791160583, -0.04995676875114441, -0.19507518410682678, -0.16187845170497894], [-0.26320722699165344, -0.18704654276371002, -0.10756887495517731, -0.2797015905380249, 0.10166225582361221, 0.06801457703113556, 0.09747832268476486, 0.05818193405866623, -0.015216285362839699, -0.018139097839593887, -0.03254936262965202, -0.0025282467249780893, 0.05612485483288765, -0.053141310811042786, -0.06106489896774292, 0.1017768532037735, -0.03622971475124359, -0.03841378167271614, 0.16609792411327362, 0.06098424270749092], [0.1611926555633545, 0.05327504500746727, -0.13739235699176788, 0.12545989453792572, 0.08073467761278152, 0.025390250608325005, 0.13212420046329498, -0.027112305164337158, -0.05646434798836708, -0.06007961556315422, 0.018710553646087646, -0.055142711848020554, -0.02077854797244072, -0.07916874438524246, 0.03931797295808792, 0.05381620675325394, 0.22812876105308533, 0.16275429725646973, 0.0037317294627428055, 0.1882569044828415], [0.1640416383743286, 0.19983315467834473, -0.06433567404747009, 0.23778919875621796, -0.027508031576871872, 0.11638286709785461, -0.18618784844875336, 0.0020333544816821814, -0.14177995920181274, 0.10774443298578262, -0.1848127245903015, 0.0684363916516304, -0.1497042328119278, 0.10574086755514145, -0.004484739154577255, 0.04806513339281082, 0.03236537426710129, 0.25232982635498047, 0.12757721543312073, -0.17516252398490906], [0.09563019126653671, -0.13122397661209106, -0.15883032977581024, -0.27620574831962585, -0.013619420118629932, 0.03781707584857941, -0.038129035383462906, 0.048404108732938766, -0.07690013200044632, -0.04500481113791466, 0.06461057811975479, 0.06108247861266136, -0.009823515079915524, 0.08104772120714188, -0.20395296812057495, -0.12584742903709412, -0.04484081640839577, 0.10063010454177856, -0.05888542905449867, 0.05481939762830734], [-0.04262935370206833, -0.06331560015678406, 0.149630606174469, 0.047595344483852386, -0.1901976466178894, -0.1703190952539444, -0.04944858327507973, -0.13974499702453613, 0.01114657148718834, -0.058362510055303574, -0.02440941333770752, -0.06347779184579849, -0.037170302122831345, -0.19119131565093994, 0.022532543167471886, -0.10030359029769897, -0.021572468802332878, -0.1851089745759964, 0.19301415979862213, 0.15443775057792664], [-0.11854960024356842, 0.1811249703168869, 0.06758974492549896, 0.05713178962469101, -0.11765476316213608, -0.17914557456970215, 0.1343877613544464, 0.14638979732990265, 0.003940290305763483, -0.12255073338747025, -0.03216003626585007, -0.07295413315296173, 0.10423864424228668, -0.019116664305329323, 0.042629092931747437, -0.06541956216096878, -0.006094563752412796, 0.27079537510871887, -0.16140051186084747, 0.035276733338832855], [-0.11721068620681763, 0.18256999552249908, -0.020679499953985214, 0.22040313482284546, 0.060368862003088, -0.0035195399541407824, 0.009224697016179562, 0.011667567305266857, -0.0014454972697421908, 0.03300916403532028, 0.054069336503744125, -0.018822070211172104, -0.023793986067175865, -0.09323755651712418, -0.049655813723802567, -0.03006880171597004, -0.22290216386318207, 0.0678546279668808, -0.3541843891143799, -0.25320905447006226], [-0.30410709977149963, -0.08126233518123627, -0.06484808027744293, -0.1402219980955124, 0.058399226516485214, 0.0360383503139019, -0.092962346971035, -0.11681003868579865, 0.031097833067178726, 0.09636811912059784, 0.10735288262367249, 0.010503905825316906, -0.08452344685792923, -0.028001392260193825, -0.014581733383238316, 0.08582393825054169, 0.06933273375034332, -0.1819484978914261, 0.058934908360242844, -0.07045179605484009], [0.10971162468194962, -0.21401114761829376, 0.041314784437417984, 0.0630381852388382, 0.04492601379752159, 0.14662384986877441, -0.03977338597178459, 0.02203836478292942, 0.10916164517402649, -0.049046024680137634, -0.06036817654967308, 0.060690686106681824, -0.18824231624603271, -0.01353534497320652, 0.008396677672863007, 0.13646309077739716, -0.20199331641197205, -0.138976588845253, -0.20824234187602997, 0.07353430241346359], [0.0777650699019432, -0.18404151499271393, -0.24433422088623047, -0.10705847293138504, -0.1112334355711937, -0.05517406389117241, 0.1784268617630005, -0.03278438001871109, -0.08503752201795578, -0.16673846542835236, 0.1270514875650406, -0.15942013263702393, -0.18269701302051544, -0.17137177288532257, 0.17160531878471375, 0.06631778925657272, -0.08149905502796173, -0.10560641437768936, -0.16683828830718994, -0.009269711561501026], [0.31121718883514404, 0.19158492982387543, 0.07626994699239731, 0.09077650308609009, -0.09039996564388275, -0.11146366596221924, -0.06298109889030457, -0.04984420910477638, 0.008183058351278305, -0.005882774945348501, 0.037233367562294006, -0.0046418230049312115, 0.01103414036333561, -0.012909304350614548, 0.0060224514454603195, -0.0695999339222908, -0.05120339244604111, -0.14958372712135315, 0.010603035800158978, -0.003640267765149474], [0.14153282344341278, 0.1875520944595337, 0.07333173602819443, 0.22225554287433624, 0.04059506207704544, 0.027670899406075478, -0.04430177062749863, -0.06909710168838501, -0.06963954865932465, -0.011615822091698647, -0.08370740711688995, -0.040090590715408325, -0.02185043692588806, -0.0037280479446053505, -0.08094294369220734, -0.03052125684916973, -0.09464386105537415, 0.2584523856639862, -0.16028793156147003, 0.18066704273223877], [-0.14027634263038635, 0.11042197793722153, 0.08803116530179977, 0.03101174160838127, 0.1639258712530136, 0.03127466142177582, -0.1423351764678955, 0.023633483797311783, 0.013286382891237736, 0.16905845701694489, 0.07472377270460129, -0.10967761278152466, 0.1196739673614502, 0.022772790864109993, 0.003099392168223858, 0.0035729038063436747, 0.017978111281991005, -0.06274445354938507, 0.12629182636737823, 0.11134116351604462], [-0.04791831970214844, -0.27443361282348633, -0.17684118449687958, -0.048120465129613876, 0.12466701120138168, 0.0679619312286377, 0.05991708114743233, -0.07909465581178665, -0.0268893763422966, -0.023850925266742706, 0.004647715948522091, 0.10791930556297302, 0.21540552377700806, 0.14685335755348206, 0.16589082777500153, 0.0863184705376625, -0.25098878145217896, -0.0014868510188534856, -0.09607499092817307, -0.2080022543668747], [-0.2643268406391144, -0.23873865604400635, -0.24993333220481873, -0.0793212503194809, -0.019257184118032455, -0.02191794663667679, -0.02726137451827526, -0.02266460657119751, -0.025708140805363655, -0.005451096687465906, 0.011774950660765171, 0.04166528582572937, 0.020075218752026558, 0.014916395768523216, -0.0008293165010400116, -0.002373096067458391, -0.021125447005033493, 0.05422015115618706, 0.15742194652557373, -0.0016087661497294903], [0.02745208889245987, 0.24238647520542145, 0.252546101808548, 0.07975826412439346, 0.0025587251875549555, 0.009566312655806541, 0.030896086245775223, 0.023681754246354103, 0.020172374323010445, -0.036764249205589294, -0.0460798479616642, 0.006882860325276852, 0.020443789660930634, 0.019641537219285965, -0.004761657677590847, 0.007579821161925793, 0.1611161231994629, 0.03226696699857712, 0.15238721668720245, 0.08574258536100388], [0.2295689582824707, 0.2328406721353531, -0.09453998506069183, 0.26812633872032166, 0.0060486881993710995, -0.049321915954351425, -0.041342247277498245, 0.01459238026291132, 0.05032321810722351, 0.05033855512738228, 0.011349801905453205, 0.00038142167613841593, 0.02779935486614704, 0.05232866480946541, 0.08039259165525436, 0.06784585863351822, -0.06122598424553871, -0.08727364242076874, -0.14317533373832703, -0.009874611161649227], [-0.28958386182785034, -0.09467863291501999, -0.08677840232849121, -0.19400423765182495, 0.04839694872498512, -0.06531029939651489, 0.19823288917541504, 0.06645563989877701, -0.08660891652107239, -0.21294701099395752, -0.11897650361061096, 0.12094912678003311, -0.05682840943336487, 0.02499507926404476, -0.22417213022708893, 0.18185758590698242, 0.049092281609773636, 0.08535289764404297, 0.1741878241300583, 0.024091966450214386], [-0.22721943259239197, -0.12120398879051208, -0.28592896461486816, -0.30079615116119385, -0.04208485782146454, 0.012124747037887573, 0.0699286237359047, 0.03287823125720024, 0.0997919887304306, 0.09348232299089432, 0.12027084082365036, 0.04810786619782448, 0.11130867898464203, 0.03030337207019329, 0.04381097853183746, -0.007030094042420387, -0.07041788101196289, 0.07542852312326431, 0.24060899019241333, -0.1594482958316803], [0.12404993176460266, 0.19074876606464386, 0.009035374037921429, 0.2658707797527313, -0.007602551486343145, -0.013602500781416893, 0.0020491057075560093, 0.04650751128792763, 0.010182243771851063, 0.008152862079441547, -0.009726088494062424, -0.009131617844104767, -0.006724955979734659, 0.038312576711177826, 0.015972841531038284, 0.015608205460011959, 0.06877798587083817, 0.10754149407148361, -0.06378161907196045, -0.007185761351138353], [0.16187569499015808, 0.14125575125217438, 0.04340559244155884, 0.10781137645244598, -0.03329163044691086, -0.011222408153116703, 0.004800351336598396, -0.015325574204325676, -0.0030060242861509323, 0.022737041115760803, 0.006553099025040865, 0.06793598085641861, 0.06074827164411545, 0.04775276035070419, 0.028899764642119408, 0.015027540735900402, -0.12482886016368866, -0.1325240433216095, -0.22812548279762268, 0.13774965703487396], [-0.18166442215442657, -0.2307283729314804, 0.11544832587242126, 0.052074138075113297, 0.1435879021883011, 0.1770734339952469, -0.16875368356704712, 0.180305615067482, -0.08868823945522308, 0.13900749385356903, -0.058003369718790054, -0.03204558044672012, -0.07164289802312851, 0.14091111719608307, -0.07514937222003937, 0.03996163234114647, -0.08566400408744812, -0.10239141434431076, -0.20357666909694672, 0.06753672659397125], [-0.13094203174114227, -0.16947275400161743, -0.23666545748710632, -0.06938052922487259, 0.07448596507310867, 0.03587349131703377, 0.04569060355424881, -0.06818588823080063, -0.05691647529602051, 0.008108467794954777, 0.016801565885543823, 0.10500253736972809, 0.055798545479774475, 0.027304597198963165, -0.0003520211612340063, -0.009539328515529633, -0.09781660884618759, -0.1726696938276291, 0.22810550034046173, 0.17716185748577118], [-0.1436752825975418, -0.06881505995988846, -0.0764688104391098, -0.2177467942237854, 0.0021653592120856047, -0.09377072006464005, -0.07768337428569794, -0.08084810525178909, -0.046701978892087936, -0.12435075640678406, 0.0019400179153308272, -0.06938301771879196, 0.10169393569231033, 0.12143724411725998, 0.13972985744476318, -0.0007383279735222459, -0.07217749953269958, -0.10025141388177872, -0.15554006397724152, 0.00843802746385336], [0.054675083607435226, 0.2653440535068512, 0.2139234095811844, 0.05094822868704796, -0.05914890393614769, -0.0856599435210228, 0.07410002499818802, 0.036482490599155426, 0.0033813929185271263, -0.012597169727087021, 0.10770560055971146, -0.12935025990009308, -0.07147562503814697, -0.13993263244628906, -0.021027540788054466, -0.14635279774665833, -0.11542832851409912, 0.1303214132785797, -0.099357008934021, -0.06909126043319702], [-0.024462826550006866, -0.18723158538341522, -0.20007435977458954, -0.24803702533245087, -0.00339985778555274, 0.08666151016950607, -0.017140431329607964, 0.05967524275183678, 0.005907145328819752, -0.04779716953635216, -0.06305697560310364, -0.003762706881389022, -0.03976399451494217, -0.06689251959323883, 0.009450612589716911, -0.07055147737264633, -0.1051291897892952, -0.14251773059368134, 0.1157572790980339, -0.042507003992795944], [0.33426642417907715, 0.18508565425872803, 0.04935913532972336, 0.2523082196712494, -0.06861813366413116, 0.0013992736348882318, 0.07440181076526642, 0.005955090746283531, -0.08180427551269531, -0.05712193623185158, -0.025166330859065056, 0.06686623394489288, -0.009011629968881607, -0.1055399626493454, -0.10326565057039261, 0.016823671758174896, 0.11525392532348633, -0.0017268225783482194, -0.12506039440631866, -0.01843135803937912], [0.01984654739499092, 0.12298908084630966, 0.29543638229370117, 0.2867623567581177, -0.02604035846889019, 0.00015939331206027418, -0.02049339935183525, 0.01229196134954691, -0.028090348467230797, -0.010898497886955738, -0.06369183212518692, -0.03224613517522812, -0.05419083312153816, -0.015649370849132538, -0.04163621738553047, -0.011166796088218689, -0.06498607993125916, -0.009185981005430222, -0.17998932301998138, 0.06969860196113586], [0.26656684279441833, 0.11673334240913391, 0.1404312252998352, -0.03476184234023094, -0.07213108241558075, -0.1061382070183754, 0.006562942173331976, -0.05041485279798508, 0.11005982011556625, 0.06713633239269257, 0.06563817709684372, 0.12039747089147568, 0.10199813544750214, 0.13759516179561615, 0.10157213360071182, 0.0025470128748565912, 0.07146356999874115, 0.0071260943077504635, -0.1399374157190323, 0.2594684064388275], [0.13477537035942078, 0.2447858601808548, -0.08117614686489105, -0.01876864582300186, 0.135344460606575, 0.119684599339962, -0.04310552030801773, -0.040892064571380615, -0.14794622361660004, 0.03629717975854874, -0.12096896022558212, -0.11517561972141266, -0.0008832232560962439, -0.12466926127672195, -0.10949884355068207, 0.12944190204143524, -0.1905842125415802, 0.10196468234062195, 0.0999935120344162, 0.022270509973168373], [0.0728212296962738, 0.32068711519241333, 0.1904594898223877, -0.07035131752490997, -0.08899568021297455, -0.06278689205646515, -0.0944507047533989, 0.03105192445218563, -0.043016254901885986, -0.06217101961374283, -0.11871455609798431, -0.16123321652412415, -0.1476275622844696, -0.11226745694875717, -0.09921249747276306, -0.05259687453508377, -0.20629218220710754, -0.16430529952049255, 0.10296771675348282, -0.07184064388275146], [-0.19028407335281372, -0.06740710884332657, -0.19946183264255524, -0.1260329931974411, 0.039137113839387894, 0.14159956574440002, 0.12530536949634552, -0.08986831456422806, 0.07483833283185959, -0.13885565102100372, -0.14238139986991882, 0.11785230785608292, -0.10929832607507706, -0.029505979269742966, -0.12342041730880737, -0.16467444598674774, 0.02293984964489937, -0.18031415343284607, 0.1743645966053009, -0.03180992603302002], [0.2368469536304474, 0.2195422351360321, 0.13457368314266205, 0.21601931750774384, 0.08331281691789627, 0.08702962845563889, 0.13704447448253632, -0.00984339788556099, -0.060751330107450485, -0.0334986187517643, -0.17273610830307007, -0.016758468002080917, -0.035399965941905975, -0.14064083993434906, -0.0690799281001091, -0.10575731098651886, 0.07245459407567978, 0.013309990055859089, 0.07064612209796906, -0.07593265920877457], [-0.24899765849113464, -0.12153535336256027, -0.2420801967382431, -0.20025581121444702, -0.038559120148420334, 0.03205553814768791, 0.0012960187159478664, -0.005984332878142595, -0.01785651035606861, 0.01639040932059288, -0.014350234530866146, -0.04288410767912865, -0.010542900301516056, -0.05067719891667366, 0.006172976456582546, 0.05800117552280426, -0.13393431901931763, 0.17080987989902496, -0.036792367696762085, 0.20030297338962555], [-0.1415117084980011, -0.06483948230743408, -0.1930542141199112, -0.29179301857948303, 0.05063999071717262, 0.0325784832239151, 0.13493581116199493, 0.0586223267018795, 0.12651938199996948, 0.1613873541355133, 0.18304277956485748, -0.07047048211097717, -0.11984565854072571, 0.04746023938059807, 0.15525326132774353, 0.06622642278671265, 0.06722476333379745, -0.0234170313924551, 0.11247812211513519, -0.13186948001384735], [-0.29047369956970215, -0.3054479956626892, -0.11253949254751205, 0.08845430612564087, 0.1705772429704666, 0.14678604900836945, 0.13457882404327393, -0.003533350070938468, -0.02567659504711628, -0.04433203488588333, 0.10240762680768967, 0.13544869422912598, 0.05530289560556412, -0.007072696462273598, 0.07522100955247879, 0.11886724829673767, -0.11563517898321152, 0.14790315926074982, -0.2563728988170624, 0.06607583910226822], [0.219673752784729, 0.2212420403957367, 0.2196328341960907, 0.06996053457260132, 0.09515059739351273, -0.03489835932850838, -0.08052261173725128, -0.06534385681152344, -0.024251816794276237, -0.029030337929725647, 0.07057666778564453, -0.011181497015058994, 0.006177098490297794, -0.0007911233697086573, 0.039939429610967636, 0.08221897482872009, 0.11247830092906952, -0.11268039047718048, -0.17403355240821838, 0.08422193676233292], [0.06325668841600418, 0.18998204171657562, 0.20119868218898773, 0.29175493121147156, -0.16376885771751404, -0.08010449260473251, 0.10327021777629852, 0.14102204144001007, 0.13876181840896606, 0.13468468189239502, 0.15546363592147827, 0.01303093135356903, 0.06260932236909866, -0.06450727581977844, -0.14245207607746124, -0.1927511990070343, 0.12440340965986252, -0.22138674557209015, -0.15126769244670868, -0.10513943433761597], [0.050708573311567307, -0.20723487436771393, 0.11881181597709656, 0.03956029936671257, 0.03433048725128174, -0.17960231006145477, 0.04983663186430931, 0.038388442248106, -0.07928851991891861, 0.1469927430152893, 0.12563735246658325, -0.08741849660873413, -0.1026657298207283, 0.006905488669872284, 0.12097104638814926, -0.01632196083664894, -0.16137413680553436, -0.03659570589661598, -0.14955934882164001, 0.00579049251973629], [-0.08295577764511108, -0.03282302990555763, -0.18878431618213654, -0.23200847208499908, -0.008390609174966812, 0.24722805619239807, 0.10151303559541702, 0.10210667550563812, -0.1322459578514099, -0.23244597017765045, -0.1019408330321312, -0.05821921303868294, -0.0601264163851738, -0.055220913141965866, 0.15767963230609894, -0.1741674393415451, 0.07814214378595352, -0.16264000535011292, 0.08291677385568619, 0.009092378430068493], [0.2883698344230652, -0.044899724423885345, 0.0018207950051873922, 0.3227086663246155, 0.04418925568461418, 0.044539112597703934, 0.03737354278564453, 0.05122131109237671, 0.04622367024421692, 0.039067335426807404, 0.027999399229884148, 0.011821804568171501, 0.005751719232648611, -0.003717123530805111, 0.0197637677192688, 0.03249102830886841, 0.029251638799905777, -0.12078343331813812, 0.1343936026096344, -0.0670292004942894], [0.03938434645533562, 0.2303094118833542, 0.04139503091573715, 0.22896544635295868, -0.14459194242954254, 0.08694630116224289, 0.15072406828403473, 0.10783876478672028, -0.11960134655237198, -0.1504051685333252, 0.06659083068370819, -0.04056880623102188, -0.054828424006700516, -0.10379670560359955, 0.10279787331819534, -0.04905853047966957, -0.13412494957447052, 0.24207943677902222, 0.09244309365749359, -0.09689483046531677], [0.11448124051094055, 0.05312724411487579, 0.15471237897872925, 0.17516069114208221, -0.07583758234977722, -0.14984029531478882, 0.0256253220140934, -0.08067933470010757, -0.19047781825065613, 0.056711748242378235, -0.1990620344877243, -0.10232912003993988, -0.13294464349746704, 0.1193411722779274, 0.11876469850540161, -0.037768103182315826, -0.04232591390609741, 0.2650446891784668, -0.0937805250287056, 0.037073731422424316], [-0.007855995558202267, 0.07925843447446823, 0.14857234060764313, 0.21847353875637054, -0.11642865091562271, -0.055827461183071136, 0.09689998626708984, -0.08951341360807419, -0.018087543547153473, -0.154788076877594, -0.1104128509759903, -0.027325067669153214, 0.06950743496417999, 0.0735926628112793, -0.05920399725437164, -0.11215876042842865, -0.13316470384597778, -0.08631791174411774, -0.05604976788163185, 0.09229768067598343], [0.11524813622236252, 0.014668227173388004, 0.10825289785861969, -0.07307470589876175, 0.020497435703873634, 0.019360624253749847, 0.029126306995749474, -0.044318195432424545, -0.032145239412784576, -0.07020546495914459, -0.024824704974889755, -0.004522889852523804, 0.009418327361345291, -0.04817388579249382, -0.019345982000231743, -0.04725150018930435, -0.09881787747144699, -0.07346516102552414, 0.007282106671482325, 0.37251919507980347], [-0.10377561300992966, -0.3119119107723236, -0.11490922421216965, -0.05096238851547241, 0.08054155856370926, -0.10966450721025467, -0.15465256571769714, -0.04598431661725044, -0.12170863151550293, 0.03192747384309769, 0.13120949268341064, 0.1596129834651947, -0.1809483915567398, 0.20051054656505585, 0.15305016934871674, -0.0797501876950264, -0.0063019259832799435, -0.041333407163619995, -0.05607042461633682, -0.16594037413597107], [0.043519217520952225, -0.24749357998371124, -0.15554921329021454, -0.13614590466022491, -0.1698712408542633, 0.06773953884840012, 0.12958624958992004, -0.028720902279019356, 0.1379799246788025, -0.04487525671720505, -0.04541337862610817, -0.15184657275676727, 0.13308319449424744, 0.1387748420238495, 0.027694812044501305, -0.06193571165204048, -0.07341910153627396, -0.11275247484445572, -0.05703045427799225, 0.19872860610485077], [-0.08229374140501022, 0.1869337409734726, -0.1871645152568817, 0.14203189313411713, -0.008073000237345695, 0.025421395897865295, 0.03027007170021534, 0.06124557927250862, -0.061153676360845566, 0.09290974587202072, 0.00906048808246851, 0.035177987068891525, 0.05635363981127739, 0.08242838084697723, 0.0073826005682349205, 0.05531180649995804, -0.16325199604034424, -0.14587454497814178, -0.09501655399799347, 0.25140872597694397], [-0.31379321217536926, -0.23945656418800354, -0.07119781523942947, -0.19645492732524872, -0.07754667848348618, 0.07933373004198074, 0.0007033544243313372, 0.15187576413154602, 0.1267167180776596, 0.07999107986688614, -0.09559505432844162, 0.01740168407559395, 0.00513099879026413, 0.1143605187535286, 0.08689071983098984, 0.07174202054738998, 0.06105955317616463, 0.054612550884485245, -0.07968821376562119, 0.15777325630187988], [-0.19958239793777466, -0.20438335835933685, -0.22701045870780945, -0.25733721256256104, 0.04923124611377716, -0.00798121839761734, 0.009511938318610191, 0.04422302171587944, 0.05829504877328873, 0.02962409518659115, 0.05935107544064522, 0.006937241181731224, 0.03741111233830452, 0.018566032871603966, 0.014173610135912895, -0.0038888503331691027, 0.005446161609143019, -0.07827926427125931, -0.11575015634298325, 0.15273481607437134], [-0.3467646837234497, -0.0920480266213417, -0.15035247802734375, 0.049382202327251434, -0.04574286565184593, -0.039566267281770706, 0.11411727219820023, 0.14117300510406494, 0.03625371307134628, -0.016066402196884155, -0.020118188112974167, 0.06603885442018509, 0.03226644918322563, 0.04775429517030716, -0.027986465021967888, -0.014320168644189835, 0.1457531750202179, -0.0025058456230908632, 0.009355634450912476, -0.15044912695884705], [0.10462388396263123, -0.03208783268928528, 0.13153645396232605, -0.01920190453529358, -0.08200693130493164, -0.16034281253814697, 0.14572873711585999, -0.05455213412642479, -0.14427098631858826, 0.009906142950057983, -0.0559709407389164, 0.10154081881046295, 0.12153813242912292, -0.10202649235725403, 0.043354641646146774, 0.18901760876178741, -0.0510200634598732, 0.003644795622676611, 0.030668290331959724, 0.005004001781344414], [-0.23231399059295654, -0.048598650842905045, -0.05025463551282883, -0.2421749234199524, -0.030143598094582558, -0.05876943841576576, 0.07680197060108185, 0.08945740759372711, -0.16347120702266693, 0.013384934514760971, 0.1172429621219635, 0.02870815061032772, 0.06439442932605743, -0.02415556274354458, -0.012957907281816006, -0.07364609092473984, -0.06181015074253082, 0.053196802735328674, 0.17745311558246613, 0.10437117516994476]], "net.0.bias": [0.2579086422920227, -0.07434055209159851, -0.027900319546461105, -0.31393977999687195, 0.01531718485057354, -0.20562744140625, -0.2448292076587677, 0.038894202560186386, 0.016221439465880394, 0.29226282238960266, -0.24908654391765594, -0.051675401628017426, 0.12681642174720764, -0.24210618436336517, -0.32514581084251404, 0.25746026635169983, -0.34217318892478943, -0.008109591901302338, -0.19889631867408752, 0.04040798172354698, 0.15416517853736877, -0.17124967277050018, 0.15043744444847107, 0.3529517352581024, -0.1335979849100113, 0.02740289643406868, 0.15430447459220886, 0.012461021542549133, -0.028059082105755806, 0.052346121519804, -0.1853543519973755, -0.08486780524253845, -0.38106223940849304, -0.15153519809246063, 0.3090093731880188, 0.31302762031555176, -0.011148616671562195, 0.07582441717386246, 0.10621264576911926, -0.2968769371509552, 0.20765560865402222, -0.27793797850608826, -0.3661405146121979, 0.16203917562961578, -0.29117780923843384, 0.1754789799451828, 0.35869961977005005, 0.2634367048740387, -0.1897813081741333, 0.1516048163175583, -0.1696958690881729, -0.25559571385383606, 0.017492923885583878, 0.09279271960258484, -0.174613356590271, -0.1863817572593689, -0.006535700056701899, -0.3604511618614197, 0.29313555359840393, 0.13555631041526794, -0.09040488302707672, -0.10245630145072937, -0.025478743016719818, 0.21584807336330414, -0.05780686438083649, 0.23800091445446014, -0.0024973920080810785, 0.09702278673648834, -0.03607067093253136, 0.016175614669919014, 0.025559505447745323, -0.16985227167606354, 0.03580376133322716, 0.03875815123319626, -0.061433374881744385, 0.26748132705688477, 0.04867780581116676, -0.09100046753883362, 0.27805450558662415, 0.11810842156410217, 0.07400553673505783, -0.18046928942203522, 0.2868274748325348, -0.13573713600635529, 0.13673332333564758, -0.2307867705821991, -0.15568804740905762, -0.02592110075056553, 0.06861276924610138, 0.3901996910572052, -0.2408180832862854, -0.3702279329299927, 0.10679221898317337, 0.32671990990638733, -0.18000656366348267, -0.3898989260196686, 0.01138330064713955, 0.06052685156464577, 0.24733975529670715, -0.0910586416721344, 0.3011274039745331, -0.08418292552232742, -0.3645602762699127, -0.24913740158081055, -0.02230171114206314, -0.07749446481466293, 0.18522435426712036, 0.04890281707048416, 0.20655253529548645, 0.11232805997133255, -0.02867087535560131, -0.2629617154598236, -0.06933613866567612, 0.16817201673984528, 0.18168427050113678, -0.346948504447937, -0.007456429302692413, 0.08821789920330048, -0.12494391202926636, -0.23344695568084717, 0.2315971851348877, 0.12668313086032867, -0.24584826827049255, 0.233303964138031, 0.29169267416000366, 0.39174243807792664, -0.1890072077512741, 0.21635061502456665], "net.3.weight": [[0.04575490951538086, 0.025381775572896004, 0.05303378030657768, 0.027758751064538956, 0.09474735707044601, -0.07163026183843613, 0.09042619913816452, -0.057181939482688904, 0.20006373524665833, 0.1071738675236702, -0.00791663583368063, 0.07753410935401917, -0.03028779663145542, -0.026092443615198135, -0.05308791622519493, -0.07145651429891586, 0.008517028763890266, -0.03434842452406883, 0.05245222896337509, -0.05286133289337158, 0.01123091857880354, 0.025532737374305725, 0.037510741502046585, -0.014541221782565117, -0.034996673464775085, 0.11091597378253937, 0.0796264111995697, 0.10126659274101257, -0.02401856705546379, 0.04641414433717728, 0.0012553170090541244, 0.017158865928649902, 0.03617968037724495, 0.0894751250743866, -0.03276033699512482, 0.03922334685921669, -0.16805891692638397, 0.030859744176268578, 0.10329819470643997, 0.03571200370788574, -0.0513509102165699, -0.044574689120054245, -0.011784074828028679, 0.08398261666297913, -0.106397844851017, -0.0524466335773468, -0.027022233232855797, 0.004396878648549318, -0.10230395197868347, 0.04598894342780113, -0.013393818400800228, 0.02670644037425518, -0.010905733332037926, -0.0359799787402153, 0.01762249507009983, -0.08182848244905472, -0.08963677287101746, 0.11985614895820618, 0.07637287676334381, 0.046156927943229675, 0.009097421541810036, 0.03841446712613106, -0.009417068213224411, -0.03605097532272339, 0.04618869349360466, -0.013919188641011715, 0.003540744073688984, -0.06002422422170639, -0.01836460642516613, 0.04773012548685074, 0.03830466791987419, -0.20088909566402435, 0.08882004022598267, 0.048116933554410934, -0.2171107828617096, 0.0948253646492958, -0.07550271600484848, -0.11030279099941254, -0.03368259593844414, 0.08520807325839996, -0.07409980893135071, 0.07148822396993637, 0.018381837755441666, 0.07658728212118149, 0.05555857717990875, 0.08412887901067734, -0.05970637872815132, 0.05226655304431915, 0.03328687325119972, 0.1464325487613678, 0.07863505184650421, 0.062015779316425323, -0.012625032104551792, 0.1035030260682106, -0.07268426567316055, 0.03833514451980591, 0.0663340613245964, 0.0814741998910904, -0.0557328537106514, 0.06996873766183853, 0.08157943934202194, -0.04183897748589516, -0.0011083302088081837, 0.06869431585073471, 0.04688122868537903, 0.010163595899939537, 0.059248678386211395, -0.02614014968276024, 0.032192640006542206, 0.01599952019751072, 0.06417915970087051, -0.06291200965642929, -0.02034265547990799, -0.0016549776773899794, 0.11782177537679672, 0.06019681692123413, -0.004671583883464336, -0.06709747016429901, -0.034670718014240265, -0.017681971192359924, -0.02240392006933689, 0.07191482931375504, -0.008006718009710312, 0.013767460361123085, 0.06237408146262169, -0.08206446468830109, 0.08029966801404953, 0.011794870719313622], [-0.06649651378393173, 0.014726570807397366, 0.09942999482154846, -0.026518231257796288, 0.06616858392953873, -0.00969717651605606, 0.048344846814870834, 0.04383565112948418, -0.03976811468601227, 0.002426750957965851, 0.04277772456407547, -0.06357210129499435, -0.07008063048124313, 0.11191999912261963, 0.1294245719909668, -0.041901975870132446, 0.10640740394592285, -0.037230636924505234, 0.06320436298847198, -0.07879473268985748, -0.0047815111465752125, 0.031204920262098312, 0.06068812310695648, 0.029925992712378502, 0.07406259328126907, -0.013134002685546875, 0.04653388261795044, -0.02803449146449566, 0.013626703992486, 0.042024459689855576, 0.07332169264554977, -0.08048023283481598, 0.058062221854925156, 0.021334564313292503, 0.009967699646949768, 0.012094169855117798, 0.09132959693670273, 0.062403030693531036, -0.024208804592490196, 0.05655433237552643, 0.07056845724582672, -0.019383518025279045, 0.020045746117830276, 0.06387197971343994, -0.02540336363017559, -0.06374818831682205, -0.11303964257240295, 0.05958558991551399, 0.06358703225851059, 0.04015778750181198, -0.05109471455216408, 0.05585333704948425, 0.029511747881770134, 0.042525388300418854, 0.008118229918181896, 0.05118180438876152, -0.06650975346565247, -0.008334903977811337, -0.05294295400381088, 0.016329828649759293, -0.011785103939473629, -0.0771258994936943, -0.04262794554233551, 0.02053101733326912, 0.054419130086898804, -0.01496161986142397, 0.10758179426193237, -0.04592418670654297, -0.05661170557141304, 0.07571610063314438, 0.0888744369149208, -0.13409672677516937, -0.04046701267361641, -0.023228134959936142, -0.10079902410507202, -0.003951016813516617, 0.09762189537286758, -0.07954370230436325, 0.06476340442895889, -0.023218506947159767, -0.029983453452587128, -0.028862062841653824, -0.07638424634933472, 0.10855116695165634, -0.026037732139229774, 0.04658224433660507, 0.017046889290213585, -0.010738094337284565, -0.07070446014404297, -0.09928431361913681, -0.04230472445487976, -0.030598454177379608, 0.05332549288868904, -0.022923288866877556, 0.04172312840819359, -0.035426877439022064, -0.02005789615213871, -0.04870446398854256, 0.06847003847360611, -0.01284597534686327, -0.000368441513273865, -0.06749273091554642, 0.1297948807477951, 0.1120147854089737, 0.08750242739915848, -0.03612077608704567, -0.07004021853208542, 0.05657429248094559, -0.054386675357818604, -0.049899447709321976, 0.012256400659680367, 0.032834332436323166, 0.08772739768028259, -0.0034498039167374372, -0.044804345816373825, 0.01412864588201046, -0.019413407891988754, 0.06558527797460556, 0.05214213952422142, 0.08738570660352707, 0.052560750395059586, 0.07381108403205872, 0.09428852051496506, 0.06509823352098465, -0.1444064974784851, -0.00018260908836964518, 0.03160581365227699, -0.00588695565238595], [0.010832959786057472, 0.04283343255519867, 0.0062981341034173965, 0.07592683285474777, 0.09750919789075851, -0.026620037853717804, 0.03914854675531387, 0.0008485501748509705, -0.05927742272615433, -0.04475900158286095, -0.0340568944811821, 0.04779399186372757, -0.11377205699682236, 0.02686021476984024, -0.010014034807682037, -0.0031316103413701057, 0.00038474518805742264, -0.06183812394738197, -0.0017666196217760444, 0.02949192374944687, 0.07653751224279404, -0.07183434814214706, 0.11347674578428268, 0.033832840621471405, 0.06484648585319519, -0.15530356764793396, -0.03956644982099533, -0.030070513486862183, -0.011800957843661308, -0.013786687515676022, 0.08611118048429489, -0.052222203463315964, -0.030111264437437057, 0.048365458846092224, 0.019908886402845383, 0.024381572380661964, -0.06184956058859825, 0.013564538210630417, 0.019456172361969948, 0.059376608580350876, 0.009476499632000923, 0.02312132902443409, 0.0396452359855175, 0.0726880431175232, 0.03632505610585213, -0.14105179905891418, -0.01099681481719017, 0.04157306253910065, 0.053171124309301376, -0.03475335240364075, 0.01769581437110901, 0.03199903294444084, -0.04051297530531883, -0.10618957877159119, 0.05269213393330574, 0.04401615634560585, -0.14455537497997284, 0.02865133062005043, 0.05746239796280861, 0.07134805619716644, -0.01347355917096138, 0.019837558269500732, 0.04083532467484474, -0.04009323567152023, 0.003378857159987092, -0.08407693356275558, 0.0941937267780304, -0.028528369963169098, 0.021154139190912247, 0.03109261579811573, 0.004065835382789373, 0.002709053922444582, -0.033236633986234665, 0.010624361224472523, -0.14087703824043274, -0.07209475338459015, 0.07508817315101624, 0.007581643294543028, 0.0379219688475132, 0.11854541301727295, 0.05836211517453194, -0.18700282275676727, -0.07477777451276779, 0.07632729411125183, 0.07336368411779404, 0.019403450191020966, 0.10475116223096848, -0.003642416326329112, -0.11978251487016678, -0.004809476900845766, -0.03713799640536308, -0.0169056449085474, -0.0740460604429245, -0.14101262390613556, 0.002594467718154192, 0.12622115015983582, 0.05512825399637222, 0.05376636981964111, -0.09454747289419174, -0.05607215315103531, -0.06662824749946594, 0.0332617461681366, 0.06422390788793564, 0.08344569057226181, 0.03945636376738548, -0.019936906173825264, -0.07436516135931015, -0.06424590945243835, 0.06927092373371124, 0.045118607580661774, -0.04567165672779083, -0.02907518297433853, 0.01216891035437584, -0.06136397272348404, -0.08228441327810287, 0.02070395089685917, 0.05715980753302574, 0.06365272402763367, 0.04883019998669624, 0.17737042903900146, 0.018363388255238533, 0.06392980366945267, 0.061412639915943146, 0.030236059799790382, 0.05537400022149086, 0.0024901200085878372, -0.049301907420158386, -0.05415913835167885], [-0.07171443849802017, -0.055066708475351334, -0.05387124791741371, -0.03598708659410477, -0.09658168256282806, -0.013664258643984795, -0.0330098420381546, -0.019872182980179787, -0.031792983412742615, -0.021945830434560776, 0.03212625905871391, -0.03202419728040695, -0.09940646588802338, 0.025130633264780045, -0.0677734836935997, -0.05174466222524643, 0.0023996413219720125, -0.021632235497236252, -0.03565192595124245, 0.008414936251938343, 0.08136752247810364, 0.02906320057809353, 0.051847346127033234, -0.0720774456858635, -0.00022614291810896248, -0.09912826120853424, -0.08315455913543701, -0.07048515230417252, 0.034120142459869385, -0.08138690143823624, 0.08178870379924774, 0.044797275215387344, 0.007549090310931206, -0.06019512936472893, 0.049919214099645615, -0.043140001595020294, 0.04002626985311508, 0.0443180687725544, -0.0688188374042511, -0.04198570176959038, 0.0725112035870552, -0.09641637653112411, 0.03875363990664482, 0.06035194918513298, -0.03883738070726395, -0.004761171527206898, 0.02564235031604767, 0.0631159320473671, 0.015444941818714142, -0.06608223915100098, 0.0596846267580986, -0.02729022689163685, 0.059577327221632004, -0.06654375791549683, 0.014485734514892101, -0.08311731368303299, -0.07573537528514862, -0.03700607270002365, 0.001270171138457954, -0.019808022305369377, -0.012821144424378872, 0.07655495405197144, 0.008985904976725578, 0.03284261375665665, -0.0330989733338356, 0.06548858433961868, -0.06016967073082924, 0.06289949268102646, -0.06141984090209007, 0.010576521046459675, 0.049919918179512024, -0.08970891684293747, -0.002833789912983775, -0.02477177605032921, 0.008128775283694267, -0.051501378417015076, -0.010088981129229069, 0.08229916542768478, -0.05204947292804718, 0.02927667833864689, -0.06983008980751038, 0.0034866987261921167, -0.0393875353038311, -0.0754685029387474, -0.016238223761320114, -0.07237549871206284, 0.0614742785692215, -0.0737016573548317, -0.00979579146951437, -0.041180841624736786, 0.07278510928153992, -0.07841126620769501, 0.010149690322577953, -0.012324480339884758, -0.006710364017635584, 0.026074696332216263, 0.020981311798095703, -0.019541291519999504, -0.0012720878003165126, -0.0456102080643177, -0.030383707955479622, 0.01167308073490858, 0.05551047623157501, -0.012687822803854942, 0.02991916425526142, 0.02860272489488125, -0.01419153343886137, -0.04236753284931183, 0.07696925103664398, 0.0006715249037370086, 0.02714322879910469, 0.007071917410939932, 0.025457479059696198, 0.018749400973320007, -0.0672663003206253, -0.08854209631681442, -0.02873346582055092, -0.0054376814514398575, -0.05756988748908043, -0.11467171460390091, -0.07980121672153473, 8.376468758797273e-05, -0.09146448224782944, 0.07523097097873688, 0.0253013763576746, 0.0522402785718441, -0.030408022925257683, -0.025301780551671982], [0.049378298223018646, -0.022461818531155586, 0.017088470980525017, -0.025996821001172066, 0.040180739015340805, -0.08174590021371841, 0.04284137114882469, 0.08265233784914017, 0.0030517098493874073, 0.07133930921554565, -0.04033642262220383, -0.05043840408325195, -0.006860839203000069, -0.07259782403707504, -0.06378019601106644, 0.12009640783071518, -0.03723550960421562, -0.03608321398496628, -0.02111184410750866, -0.05636075511574745, 0.08374727517366409, -0.0169445239007473, 0.10821278393268585, 0.0773782879114151, -0.004040330648422241, -0.10524842143058777, 0.05127798020839691, 0.09425963461399078, -0.02156800590455532, -0.06405745446681976, -0.0902043953537941, 0.105390265583992, -0.09065283089876175, -0.02468515746295452, -0.010129949077963829, 0.08254275470972061, -0.08261671662330627, 0.049485791474580765, -0.06954481452703476, 0.0088824313133955, 0.07868415862321854, -0.014701439999043941, -0.0494074672460556, -0.005512893665581942, 0.006937049794942141, -0.008438539691269398, 0.014965890906751156, -0.04494420811533928, -0.00014125765301287174, 0.0468512624502182, -0.06430906057357788, 0.026351584121584892, -0.0064201029017567635, 0.08788850158452988, 0.022243795916438103, -0.005423589609563351, -0.049379415810108185, -0.019660402089357376, 0.08293195813894272, 0.038158513605594635, -0.012922163121402264, -0.014019041322171688, 0.017193125560879707, -0.05364719033241272, -0.06794973462820053, 0.016832873225212097, -0.05295289680361748, 0.01754862256348133, 0.03475182130932808, 0.06829917430877686, 0.08455491065979004, -0.053640082478523254, 0.09544426202774048, 0.01033894345164299, -0.11062174290418625, -0.056160662323236465, -0.02951677329838276, 0.012457371689379215, 0.060036443173885345, 0.06200295686721802, 0.021590420976281166, -0.0899382010102272, 0.08279385417699814, 0.04201166331768036, -0.04139808192849159, -0.08400698006153107, 0.07978213578462601, -0.03869589418172836, -0.032177042216062546, 0.10003308206796646, 0.04305003583431244, -0.029062926769256592, 0.05416923761367798, 0.07019376009702682, -0.07124430686235428, -0.054216135293245316, -0.04356976971030235, 0.04488805681467056, 0.05995168909430504, -0.009119880385696888, 0.10219897329807281, -0.04986592382192612, -0.025605877861380577, -0.04523263871669769, -0.07098053395748138, 0.01703186333179474, 0.005249327514320612, 0.03111039288341999, 0.09599977731704712, 0.07913423329591751, -0.04495079070329666, 0.03323812410235405, -0.029889866709709167, -0.04134317860007286, -0.005321217235177755, -0.1312796026468277, -0.03905363008379936, 0.04943902790546417, 0.03188012167811394, 0.014195672236382961, 0.03761397674679756, -0.061665721237659454, -0.07320844382047653, 0.035206880420446396, 0.1441361904144287, -0.013907763175666332, 0.06665964424610138, 0.0930953100323677], [-0.015813780948519707, 0.06988712400197983, 0.03573157265782356, 0.0876033678650856, -0.019873302429914474, -0.013188615441322327, 0.07317700237035751, 0.012746802531182766, 0.04941696673631668, -0.006055574398487806, 0.03316181153059006, -0.031922098249197006, -0.05156765505671501, 0.08924786001443863, 0.00983219500631094, -0.08165791630744934, 0.18198782205581665, -0.02785751037299633, 0.043482132256031036, -0.06512188166379929, 0.0880497470498085, -0.011316468939185143, -0.028258608654141426, -0.011865446344017982, 0.010872996412217617, -0.027392787858843803, -0.06356275081634521, 0.002725826809182763, 0.10552777349948883, 0.06461530923843384, 0.058937717229127884, -0.030780600383877754, -0.03794439882040024, -0.02585533633828163, 0.0018280171789228916, -0.029511550441384315, 0.04826158285140991, 0.1105826124548912, 0.019597988575696945, 0.07068075984716415, 0.018680820241570473, -0.033713411539793015, 0.1526840180158615, 0.018237808719277382, 0.03751268610358238, 0.023921342566609383, 0.00926146749407053, 0.003307495964691043, 0.011279271915555, 0.002532180631533265, 0.00262529868632555, 0.09947970509529114, 0.05591403692960739, -0.006256261840462685, -0.06755754351615906, 0.04443182423710823, -0.032106317579746246, 0.12117590010166168, -0.021328464150428772, 0.036021314561367035, 0.032656196504831314, 0.0003129555843770504, -0.02626102976500988, -0.028122631832957268, -0.04662614315748215, -0.04029804840683937, 0.07585728913545609, -0.007600081153213978, -0.06937823444604874, -0.01774413511157036, -0.046257905662059784, 0.03209204599261284, -0.012285606004297733, -0.05162825435400009, -0.10019804537296295, 0.018613073974847794, 0.04578525573015213, 0.05519085377454758, 0.03812019154429436, 0.026283882558345795, -0.02204843983054161, 0.022108325734734535, -0.03688572347164154, 0.10894277691841125, -0.02777826227247715, 0.1169767677783966, 0.026828737929463387, 0.0019027960952371359, -0.11596570909023285, -0.11384698748588562, 0.009987072087824345, 0.13368460536003113, -0.007607101462781429, 0.013978758826851845, 0.09492387622594833, -0.008725764229893684, -0.06265877187252045, 0.011751396581530571, 0.0005380255752243102, 0.019060324877500534, -0.08687282353639603, 0.027903808280825615, 0.12335266172885895, -0.039156474173069, 0.05007524415850639, -0.04929677024483681, 0.062440935522317886, 0.03570420295000076, -0.08482679724693298, -0.023362906649708748, -0.0035444714594632387, -0.03781730309128761, 0.05307767912745476, 0.03432503342628479, 0.03617836907505989, 0.08093886822462082, 0.08974402397871017, 0.08495882898569107, 0.020302316173911095, 0.15935741364955902, -0.08686968684196472, -0.027745289728045464, 0.07452897727489471, 0.04133965075016022, -0.047279372811317444, 0.003850339911878109, -0.04171795770525932, 0.0968601331114769], [0.0332401841878891, 0.0718899741768837, 0.013536612503230572, -0.030668988823890686, 0.07578585296869278, 0.04510585591197014, 0.10053140670061111, -0.01602829061448574, 0.00018060396541841328, 0.04393388330936432, 0.09369919449090958, 0.08701625466346741, -0.1453271061182022, 0.08924534171819687, -0.013835313729941845, 0.008510474115610123, -0.046933334320783615, 0.061908550560474396, -0.09166641533374786, -0.07812730967998505, 0.059312012046575546, -0.0908903181552887, -0.04393555223941803, 0.08435892313718796, -0.008706755936145782, 0.052941981703042984, -0.022579092532396317, 0.027379466220736504, 0.012660463340580463, 0.0036571561358869076, -0.021071499213576317, -0.006915633101016283, 0.03496987000107765, -0.02587299421429634, 0.06095220893621445, -0.04863200709223747, 0.01698128692805767, 0.07838592678308487, 0.03499525412917137, -0.05771045386791229, -0.04056239128112793, 0.10271763056516647, -0.0064110103994607925, -0.013906886801123619, -0.012565575540065765, -0.003925366327166557, 0.05031096562743187, -0.03723718225955963, 0.006157721392810345, -0.004514029715210199, -0.03181201592087746, -0.026627229526638985, -0.015803616493940353, -0.03861089423298836, 0.034810226410627365, 0.07157693803310394, -0.1150256022810936, -0.03505634143948555, -0.03799854591488838, 0.04776465520262718, -0.055116206407547, 0.0011562457075342536, -0.10549571365118027, -0.05460009351372719, 0.020158877596259117, -0.020676037296652794, -0.08672963082790375, -0.04203888401389122, 0.04985108971595764, -0.004020014312118292, 0.06453034281730652, -0.22122983634471893, 0.034881774336099625, 0.04138798266649246, -0.10859070718288422, -0.03740919008851051, -0.01906072348356247, -0.08442468196153641, -0.01648036390542984, 0.046146173030138016, 0.0582411028444767, -0.08867322653532028, 0.08820687234401703, 0.054963335394859314, 0.0736296996474266, -0.043897777795791626, -0.05494264140725136, 0.013552729040384293, -0.01326583418995142, 0.11000317335128784, -0.0031002159230411053, -0.03321819379925728, 0.017415698617696762, 0.02736891806125641, -0.13955362141132355, -0.0036003633867949247, 0.011144991964101791, 0.13333667814731598, 0.06655909866094589, -0.04993293434381485, 0.05800426006317139, -0.035244859755039215, -0.003065749304369092, 0.04900456219911575, 0.023072469979524612, 0.10646336525678635, 0.04849856346845627, 0.051392022520303726, 0.06331639736890793, 0.03137478977441788, 0.02054666168987751, 0.013109506107866764, -0.05590756610035896, 0.027373285964131355, 0.050656598061323166, 0.058681245893239975, -0.015550104901194572, 0.08276081830263138, 0.079767607152462, 0.07469750195741653, -0.055419307202100754, -0.04193232208490372, 0.07484500855207443, 0.0640992596745491, 0.11915738880634308, -0.03516585752367973, 0.056057367473840714, 0.09934568405151367], [-0.11268006265163422, 0.10142555832862854, -0.0094505799934268, 0.15421104431152344, 0.031608644872903824, 0.029291203245520592, 0.08643890917301178, -0.06180255860090256, -0.056084588170051575, -0.08252070099115372, -0.02454366721212864, 0.035582613199949265, -0.13879798352718353, 0.11536802351474762, -0.014321376569569111, -0.11954387277364731, -0.015508628450334072, 0.10255643725395203, -0.0067995041608810425, -0.0009492847020737827, 0.007626552600413561, 0.011018810793757439, -0.051210448145866394, -0.05975142493844032, 0.032293785363435745, -0.12954093515872955, 0.0740615576505661, 0.05339588224887848, 0.02959156036376953, -0.09683909267187119, -0.014194927178323269, 0.04992079362273216, 0.16646547615528107, -0.04247333109378815, -0.017062030732631683, -0.1664953976869583, -0.04663383215665817, -0.03496592119336128, -0.03257123753428459, -0.0046500638127326965, -0.052082162350416183, 0.040838129818439484, 0.0483049601316452, 0.042376305907964706, 0.11291833966970444, -0.03876085206866264, -0.08697160333395004, -0.1365704983472824, -0.06082989647984505, -0.04170680046081543, 0.08959081023931503, 2.5469060346949846e-05, 0.03109090030193329, 0.01580732688307762, 0.0005779338534921408, 0.0036612520925700665, -0.017303679138422012, 0.14374932646751404, -0.06087346002459526, -0.0723872259259224, 0.03594585508108139, -0.03247608616948128, -0.0868220403790474, -0.011975039727985859, -0.03825334832072258, -0.026876410469412804, 0.043863631784915924, -0.10414781421422958, 0.0066051967442035675, 0.03888317197561264, 0.042065806686878204, 0.04850165173411369, -0.12010254710912704, -0.02674057148396969, 0.13319632411003113, -0.12587609887123108, 0.029456205666065216, 0.012269170954823494, -0.016835397109389305, 0.035362642258405685, 0.011178214102983475, 0.08910898864269257, -0.10165651887655258, 0.02631770260632038, -0.044035714119672775, 0.046741753816604614, 0.1099250391125679, 0.062098681926727295, -0.0003272219328209758, -0.1349487155675888, 0.0443069264292717, 0.13469135761260986, -0.04623101279139519, -0.1606220304965973, 0.049020931124687195, 0.034177716821432114, -0.09599746763706207, -0.0861789733171463, -0.06872081011533737, 0.06288299709558487, -0.051330868154764175, 0.00790752936154604, 0.09840047359466553, 0.0350300669670105, 0.02404663898050785, -0.008947927504777908, -0.03990543633699417, 0.09929031878709793, -0.038558006286621094, -0.1758512407541275, -0.049780525267124176, 0.08573374152183533, 0.007288989145308733, -0.039820484817028046, -0.08009925484657288, 0.07304208725690842, -0.035572346299886703, 0.01685016229748726, 0.009337382391095161, -0.046182386577129364, 0.0013423695927485824, -0.0808437317609787, 0.018414143472909927, -0.07529902458190918, -0.19541004300117493, -0.09524287283420563, 0.025819526985287666, -0.04768404737114906], [-0.039557281881570816, -0.07350624352693558, -0.07444854080677032, -0.005679011344909668, -0.03973739594221115, -0.06193181127309799, 0.015810441225767136, -0.06941462308168411, -0.0012483474565669894, -0.054016005247831345, -0.054230060428380966, 0.022090092301368713, 0.0038932834286242723, -0.0015221275389194489, -0.03366769105195999, 0.08616219460964203, -0.08153237402439117, 0.013280482031404972, -0.05248625949025154, -0.03381987661123276, 0.03255929425358772, -0.08076521754264832, 0.03520366922020912, -0.041500069200992584, 0.05580569803714752, -0.011488472111523151, 0.021160408854484558, -0.012558221817016602, 0.02177499420940876, 0.05641091614961624, -0.062251314520835876, -0.0559602752327919, -0.09481896460056305, -0.012699293904006481, -0.09367633610963821, -0.03274957463145256, 0.048482488840818405, -0.09079796820878983, -0.02354852855205536, 0.002689042594283819, -0.05208979919552803, -0.07550810277462006, 0.006671736482530832, 0.021345166489481926, 0.036861665546894073, 0.08394309878349304, -0.020454930141568184, 0.059679530560970306, -0.010068218223750591, -0.06450718641281128, -0.060313496738672256, -0.07638975232839584, 0.0022544569801539183, 0.01218279916793108, -0.038492295891046524, -0.05348506569862366, 0.08208806812763214, 0.06900656968355179, -0.0879673957824707, 0.040176063776016235, 0.0648103877902031, 0.06538442522287369, -0.021233540028333664, -0.06688357144594193, -0.08668825775384903, -0.001559865428134799, -0.06888284534215927, 0.04661192744970322, -0.06598865240812302, -0.050019968301057816, 0.024025488644838333, -0.0597306489944458, 0.0733950063586235, 0.038627564907073975, -0.06803755462169647, -0.07383545488119125, -0.041554104536771774, -0.08126523345708847, 0.001220362028107047, -0.013386400416493416, 0.03785937279462814, 0.062186188995838165, -0.04820914939045906, -0.06483419984579086, 0.036503866314888, -0.05061312019824982, -0.0015378945972770452, 0.00017824630776885897, -0.07392266392707825, -0.04106158763170242, -0.017164506018161774, 0.030058542266488075, -0.08296926319599152, -0.011391868814826012, 0.03547399118542671, -0.07593261450529099, -0.047104351222515106, 0.03216772899031639, 0.03706005960702896, -0.008680328726768494, -0.08751244097948074, 0.006797127425670624, -0.005141346249729395, 0.015677839517593384, -0.010390030220150948, 0.004983996041119099, -0.022836953401565552, -0.03220153599977493, -0.0205486211925745, -0.07148542255163193, -0.04423988237977028, 0.019290054216980934, 0.047008272260427475, -0.06666745245456696, 0.05869792401790619, 0.04036528989672661, 0.016526341438293457, -0.032215289771556854, 0.03258645907044411, 0.027178436517715454, -0.049082670360803604, -0.07251099497079849, -0.05149843543767929, 0.028510309755802155, -0.05253106355667114, 0.0008342336514033377, -0.03288775309920311, 0.046012382954359055], [0.020557871088385582, -0.0049482714384794235, 0.0027308643329888582, -0.04975404590368271, 0.0022307722829282284, -0.02387733943760395, 0.04247920215129852, -0.032156895846128464, 0.05489737167954445, 0.11184978485107422, -0.02888389304280281, -0.009549121372401714, -0.09825459122657776, -0.04551605507731438, 0.055254414677619934, 0.09906667470932007, 0.00013308523921296, 0.018279757350683212, 0.010419460013508797, 0.07988206297159195, 0.016524652019143105, -0.057456519454717636, -0.03745780885219574, 0.002124839462339878, -0.015115449205040932, 0.06442994624376297, -0.03997894376516342, -0.0019808155484497547, 0.05168870463967323, -0.011631687171757221, -0.09293705224990845, 0.1188037246465683, -0.007326880469918251, 0.011698543094098568, -0.055673111230134964, 0.0641503632068634, -0.0277152881026268, 0.038066525012254715, 0.0449514165520668, 0.033741142600774765, 0.08040153235197067, 0.07218858599662781, -0.05501597747206688, 0.05583479627966881, -0.020542526617646217, 0.05525526776909828, 0.12461324036121368, 0.026055028662085533, -0.13523855805397034, -0.07824892550706863, -0.06939016282558441, -0.025963114574551582, -0.04202300310134888, 0.014234055764973164, -0.006253115367144346, -0.061846766620874405, -0.058006469160318375, 0.08999857306480408, -0.05049126595258713, 0.00016530451830476522, 0.07718560844659805, 0.003745253896340728, -0.038244519382715225, 0.06155848875641823, 0.05893966928124428, -0.011139989830553532, 0.039964303374290466, 0.06881220638751984, -0.03411059081554413, -0.015616748481988907, 0.03710157424211502, -0.13865084946155548, 0.06703658401966095, 0.08844983577728271, -0.1578354686498642, 0.05849352106451988, -0.0448509119451046, -0.021404065191745758, 0.11907440423965454, -0.04765128344297409, -0.050781089812517166, 0.062417253851890564, 0.05036595091223717, 0.0795309916138649, 0.029492568224668503, -0.009676607325673103, -0.048295337706804276, -0.025886982679367065, 0.08680409938097, 0.1636730283498764, -0.037478961050510406, 0.010295107029378414, -0.017667951062321663, 0.16972193121910095, -0.1031874343752861, 0.017878523096442223, -0.0004091378359589726, 0.03459179028868675, 0.03193052485585213, -0.020730847492814064, 0.015190345235168934, -0.06555603444576263, 0.04323238134384155, -0.05233536660671234, -0.016689375042915344, -0.031925980001688004, 0.019697220996022224, 0.006381872575730085, 0.09062143415212631, -0.019001685082912445, -0.017600683495402336, -0.11971639096736908, -0.043968088924884796, 0.0759541317820549, 0.06524535268545151, -0.0977289229631424, 0.0314391627907753, 0.076505646109581, -0.009647478349506855, 0.02987302467226982, 0.05492694675922394, 0.03249169886112213, -0.04228546842932701, -0.041573666036129, 0.13764116168022156, 0.0978420227766037, 0.07259555160999298, 0.07277452945709229], [-0.07177185267210007, 0.06500933319330215, -0.03301040828227997, 0.13170701265335083, 0.0011730599217116833, 0.07178209722042084, 0.06822039932012558, 0.0014669755473732948, -0.17875361442565918, -0.035138458013534546, -0.01536224689334631, -0.019465623423457146, -0.0731637179851532, 0.034411270171403885, 0.11247396469116211, -0.16258986294269562, 0.0640910193324089, 0.02711332030594349, 0.06839096546173096, -0.022700805217027664, -0.0875348299741745, -0.01845734752714634, -0.052994463592767715, -0.19205594062805176, -0.024145374074578285, -0.11657357215881348, -0.04621974751353264, -0.0781896710395813, -0.04342448711395264, -0.051809001713991165, 0.10631182789802551, -0.09927363693714142, 0.061533909291028976, 0.03458404168486595, -0.015086867846548557, -0.09687841683626175, 0.029060058295726776, -0.02216484770178795, 0.027289453893899918, 0.10560697317123413, -0.14220909774303436, 0.05450054258108139, 0.13995900750160217, -0.003957991488277912, 0.12897159159183502, -0.1653178483247757, -0.060767121613025665, 0.01423528790473938, 0.12671123445034027, 0.03645501658320427, -0.01663556508719921, 0.03452301397919655, 0.029762666672468185, -0.13555143773555756, 0.0964556634426117, -0.016185877844691277, 0.02490817941725254, 0.012874518521130085, -0.044673945754766464, -0.026115085929632187, 0.06413819640874863, -0.13506978750228882, -0.052121274173259735, 0.034309931099414825, -0.04263588413596153, 0.02253272756934166, 0.023838166147470474, -0.1187722235918045, 0.05046992376446724, 0.07428639382123947, -0.032084282487630844, 0.14927132427692413, -0.18841293454170227, -0.057981252670288086, 0.052894476801157, -0.15159930288791656, -0.04303918778896332, 0.0345359668135643, -0.09898454695940018, 0.00020602084987331182, -0.01759595237672329, 0.12341456860303879, -0.0952402725815773, 0.013198239728808403, -0.01160500943660736, -0.018754063174128532, -0.03075450286269188, -0.004825427662581205, -0.050323236733675, -0.22241303324699402, 0.028133463114500046, 0.13562114536762238, -0.06913560628890991, -0.13754276931285858, 0.11003683507442474, 0.03669525682926178, -0.010670109651982784, -0.13085098564624786, -0.022648466750979424, 0.12032155692577362, -0.18389222025871277, 0.10636594891548157, 0.15766672790050507, -0.012876909226179123, 0.032279402017593384, -0.004489189013838768, -0.09950729459524155, -0.02058350294828415, -0.09810939431190491, -0.13897524774074554, -0.006092465482652187, 0.16105636954307556, -0.0032214706297963858, -0.0017321452032774687, -0.08479616791009903, 0.0944325178861618, -0.015102749690413475, 0.04292961210012436, 0.00013399161980487406, 0.07298140972852707, -0.11059791594743729, -0.0677279680967331, -0.01339199673384428, -0.0031658592633903027, -0.20694072544574738, -0.05800297111272812, 0.02390747144818306, -0.08679750561714172], [-0.06575870513916016, 0.03723538666963577, -0.05493940785527229, 0.035581618547439575, 0.0008997863624244928, -0.08728650212287903, 0.001304462319239974, 0.06692082434892654, 0.006243305280804634, -0.1281125694513321, -0.013629922643303871, -0.039676565676927567, -0.08313412219285965, 0.015869928523898125, 0.005393365863710642, -0.03517328202724457, -0.034419167786836624, 0.09662482142448425, 0.06276298314332962, 0.01929626800119877, 0.06877384334802628, -0.017375929281115532, -0.07211381942033768, 0.003685668809339404, -0.04306916147470474, 0.12722249329090118, -0.024236444383859634, 0.02074345387518406, 0.08326321095228195, -0.0026257180143147707, -0.06000883877277374, 0.031147196888923645, -0.05238734558224678, 0.04630865156650543, -0.04287541285157204, -0.11096064001321793, -0.01573948934674263, 0.04818084090948105, -0.06703302264213562, -0.04256041347980499, 0.02828098274767399, 0.09296425431966782, 0.007788416463881731, 0.05755751207470894, 0.005843110848218203, 0.004050771240144968, -0.030800113454461098, -0.09674244374036789, 0.032020363956689835, 0.020834345370531082, 0.0034139903727918863, 0.07242401689291, 0.06229499727487564, 0.026254398748278618, 0.04155505821108818, 0.08071195334196091, -0.17594927549362183, 0.03427644073963165, 0.054611485451459885, -0.04690352827310562, 0.023373708128929138, -0.08853209018707275, -0.11320700496435165, 0.03604977950453758, 0.010583310388028622, 0.00012843721196986735, -0.045657627284526825, 0.02391199953854084, 0.03765061870217323, 0.03094353899359703, 0.04584323614835739, -0.06469225138425827, 0.14162306487560272, -0.027772581204771996, -0.1268504559993744, -0.024614406749606133, -0.09339310973882675, -0.059907909482717514, -0.013957811519503593, 0.09929661452770233, 0.013389671221375465, -0.052831221371889114, -0.03884357959032059, -0.029185108840465546, -0.000625909655354917, 0.0631486028432846, 0.008633135817945004, 0.032511331140995026, -0.08071253448724747, -0.027529560029506683, 0.10042545944452286, 0.02183159813284874, 0.010824435390532017, -0.11517031490802765, -0.11105350404977798, 0.018272656947374344, -0.01792111247777939, 0.16156210005283356, 0.05147355794906616, -0.0038939937949180603, 0.044326260685920715, 0.02946341596543789, 0.04511633887887001, -0.0751199722290039, 0.053376324474811554, -0.02119000069797039, 0.061855070292949677, 0.036325015127658844, -0.011913309805095196, -0.1027451679110527, -0.05135507881641388, -0.04298768192529678, -0.04023467004299164, 0.04293278604745865, 0.02527201548218727, 0.18678948283195496, 0.04387569800019264, 0.01873026043176651, -0.023448674008250237, 0.09408539533615112, 0.06386896222829819, -0.015157057903707027, 0.03017749823629856, 0.04792548716068268, -0.10389895737171173, 0.00751620763912797, 0.058665547519922256, 0.07265614718198776], [-0.01380725484341383, 0.0784323513507843, 0.034644678235054016, 0.12135068327188492, -0.026141369715332985, 0.004645321983844042, 0.08646750450134277, 0.06860437244176865, -0.01666148006916046, -0.0015025410102680326, -0.015461435541510582, 0.012591563165187836, 0.013057390227913857, 0.04649696126580238, 0.04258253425359726, -0.018541136756539345, -0.0357242152094841, 0.06604398787021637, 0.043056536465883255, 0.03620969504117966, -0.025189120322465897, 0.07480651885271072, -0.06481510400772095, -0.10467939078807831, -0.006983230821788311, -0.02944840118288994, 0.03524657338857651, 0.05304688587784767, -0.017033150419592857, -0.0612538680434227, 0.06819291412830353, -0.17378473281860352, 0.1440710723400116, 0.08061143755912781, -0.05839388817548752, -0.02403794229030609, -0.04344278946518898, 0.01825105957686901, -0.08295754343271255, 0.033078938722610474, -0.045319315046072006, 0.09068755060434341, 0.1405065357685089, 0.0750570297241211, 0.08610831201076508, -0.09364895522594452, -0.18597187101840973, -0.08537667989730835, 0.04427605867385864, -0.0013413523556664586, 0.09517069905996323, -0.08209646493196487, -0.03257392346858978, -0.015846827998757362, 0.043302007019519806, -0.03688986226916313, -0.06474218517541885, 0.14525830745697021, 0.00405897106975317, -0.04925711825489998, 0.05488172546029091, 0.05235683172941208, -0.07802294194698334, -0.08277121931314468, -0.05278259888291359, 0.067106232047081, -0.055514171719551086, -0.030099960044026375, -0.026444261893630028, 0.01506549771875143, 0.0444837249815464, 0.059474390000104904, -0.06288570165634155, 0.04338209703564644, 0.05078256130218506, -0.06013616546988487, 0.04402652755379677, 0.06892818957567215, -0.01734868437051773, 0.05589583143591881, 0.07064326107501984, 0.041484441608190536, -0.04902799054980278, -0.04398275166749954, -0.05237499997019768, 0.00598986865952611, 0.11623363941907883, 0.004843267612159252, 0.029063818976283073, -0.22224019467830658, 0.05488130450248718, 0.04818655550479889, -0.004149849060922861, -0.04349638894200325, 0.003907154314219952, 0.0054945023730397224, -0.06536536663770676, -0.05155071243643761, -0.05011817067861557, -0.04535190761089325, -0.05523127317428589, 0.0707252100110054, 0.10967214405536652, 0.1090688705444336, -0.09914339333772659, 0.05759451165795326, -0.037322092801332474, 0.06255888193845749, -0.029085557907819748, -0.05035232752561569, 0.03067740797996521, 0.09694579243659973, -0.01461170706897974, -0.04968898743391037, -0.03783257305622101, 0.08613553643226624, 0.043273236602544785, -0.025791293010115623, -0.055941347032785416, -0.0035439589992165565, -0.025976479053497314, -0.07461978495121002, 0.08046172559261322, -0.0818144753575325, -0.08332741260528564, -0.09569909423589706, -0.036760833114385605, 0.0364290289580822], [0.052673790603876114, -0.0569133497774601, 0.13331793248653412, -0.024151872843503952, -0.010856928303837776, 0.0060021900571882725, -0.04071802645921707, 0.05070088803768158, 0.08478417992591858, 0.019738366827368736, -0.05237730219960213, 0.029842965304851532, 0.04715785011649132, 0.02949121780693531, -0.0025492047425359488, -0.03891497477889061, -0.06928158551454544, 0.06825216859579086, 0.00033825833816081285, 0.030355168506503105, -0.03543730452656746, 0.02890501357614994, 0.20804552733898163, 0.031416185200214386, -0.02156619355082512, -0.056645844131708145, -0.04140773043036461, 0.06081824377179146, 0.041386622935533524, 0.028443090617656708, -0.055281344801187515, 0.1373724639415741, -0.1172495111823082, -0.05073855444788933, 0.03489411249756813, 0.03357914835214615, 0.07768695056438446, 0.06441669166088104, 0.08260706067085266, 0.05843944847583771, 0.02349495328962803, 0.03336675465106964, -0.08918724954128265, 0.058646902441978455, -0.041267286986112595, 0.07105511426925659, 0.08780940622091293, 0.05716618150472641, 0.09550850093364716, 0.01202357653528452, 0.014007325284183025, -0.0697934627532959, 0.05423539876937866, 0.02281365543603897, 0.06715118885040283, 0.016749266535043716, -0.018625084310770035, -0.0632118284702301, -0.031377289444208145, 0.05715983733534813, -0.03697790205478668, -0.05771968886256218, 0.06278209388256073, -0.0011490456527099013, 0.08346565067768097, -0.035655103623867035, 0.059519700706005096, 0.039365679025650024, -0.05617337301373482, 0.014374632388353348, 0.010895954445004463, -0.09913000464439392, 0.11128420382738113, -0.007595653645694256, -0.08933015167713165, 0.08373985439538956, 0.08616902679204941, -0.03060372732579708, -0.003212019568309188, -0.04810822755098343, 0.06815572082996368, -0.16275443136692047, 0.03114270232617855, -0.0371890515089035, 0.09818165749311447, 0.010340681299567223, -0.038637470453977585, 0.05916958302259445, 0.04391508176922798, 0.13786040246486664, 0.0002244453935418278, -0.10192736983299255, -0.029246799647808075, 0.024024151265621185, 0.04450415074825287, -0.028726795688271523, 0.04795577749609947, 0.0735219269990921, 0.047319356352090836, -0.08308707922697067, -0.05354899540543556, -0.06697548180818558, 0.038385059684515, 0.045588359236717224, 0.01993110030889511, 0.006668007001280785, -0.015075123868882656, 0.06885170191526413, -0.010722124949097633, 6.127187953097746e-05, 0.05085218325257301, 0.012142427265644073, 0.07629478722810745, -0.009507987648248672, 0.02094905637204647, 0.0068232896737754345, -0.02025381289422512, 0.017011329531669617, -0.07811873406171799, 0.13382671773433685, 0.11247748881578445, -0.04426856338977814, 0.05004532262682915, 0.08836885541677475, 0.13714690506458282, 0.06961576640605927, -0.0264157485216856, 0.05402491241693497], [0.04920763522386551, -0.04444047808647156, 0.11220211535692215, 0.20279332995414734, 0.11939378082752228, 0.004062018357217312, 0.021639784798026085, 0.036903560161590576, 0.11905913054943085, -0.07911517471075058, 0.0797620341181755, 0.11076013743877411, -0.022876795381307602, 0.12639200687408447, 0.035805296152830124, -0.024528710171580315, 0.08232732862234116, 0.022175956517457962, -0.06923457235097885, -0.29527366161346436, 0.05678962171077728, -0.10137040913105011, 0.02473689243197441, 0.029731830582022667, -0.042268604040145874, 0.2559853494167328, 0.05466512590646744, 0.09448009729385376, 0.021659616380929947, 0.09007199108600616, 0.08778418600559235, -0.06647105515003204, 0.02577802911400795, -0.06720682978630066, -0.10063467919826508, 0.028148870915174484, -0.04803375154733658, 0.14737166464328766, 0.015731479972600937, 0.11373145878314972, -0.0174189992249012, 0.05245107784867287, 0.23939339816570282, 0.0192706361413002, 0.09168287366628647, -0.02172279544174671, -0.009767967276275158, -0.1125633642077446, -0.13044583797454834, -0.06423510611057281, -0.04979594051837921, 0.01528746634721756, -0.12145708501338959, 0.0751589685678482, -0.1896306574344635, -0.022124892100691795, -0.052962224930524826, -0.027556709945201874, -0.16568034887313843, -0.0577155165374279, 0.019200531765818596, -0.05879161134362221, -0.09018159657716751, -0.09341233223676682, 0.09149334579706192, 0.08277905732393265, 0.09862661361694336, -0.045737605541944504, 0.027948735281825066, 0.1785399168729782, -0.06873390078544617, 0.07307014614343643, 0.24469995498657227, -0.06264624744653702, -0.154026597738266, 0.08771181851625443, -0.0226973257958889, -0.0034533028956502676, -0.07862690836191177, 0.0855286717414856, -0.16097643971443176, -0.1815558671951294, 0.29085370898246765, -0.08731579035520554, -0.06702055037021637, 0.1274387389421463, -0.023544413968920708, -0.023519160225987434, 0.05035758391022682, 0.01198483258485794, 0.07626933604478836, -0.015241480432450771, 0.08760777860879898, -0.05053411424160004, -0.04619736224412918, 0.014780105091631413, 0.006803493015468121, 0.09210305660963058, -0.07344919443130493, -0.06343861669301987, 0.11803976446390152, -0.004645806737244129, -0.0027580466121435165, -0.08281082659959793, 0.030865246430039406, 0.09923388808965683, 0.15354858338832855, -0.015536447055637836, -0.04020097479224205, 0.08496996015310287, -0.12200747430324554, 0.08754220604896545, 0.006562580820173025, -0.0795002430677414, 0.1179589256644249, 0.2700447142124176, -0.017266245558857918, -0.13012805581092834, 