// Auto-generated by export_weights.py
// Do not edit manually

#pragma once

namespace VoiceLeadingModel {

static const int INPUT_SIZE   = 20;
static const int HIDDEN1_SIZE = 128;
static const int HIDDEN2_SIZE = 128;
static const int HIDDEN3_SIZE = 64;
static const int OUTPUT_SIZE  = 4;

static const float W1[2560] = {-0.346209f, -0.130685f, -0.011869f, -0.049845f, -0.068377f, 0.091210f, -0.066747f, 0.081914f, -0.208469f, 0.109269f, 0.036377f, 0.081198f, 0.021287f, 0.114481f, -0.052938f, 0.125980f, 0.071042f, -0.065430f, -0.085825f, -0.107378f, 0.162209f, 0.299345f, 0.189807f, 0.048577f, -0.010529f, 0.057105f, 0.010717f, -0.026639f, -0.060909f, 0.057769f, 0.012308f, 0.037562f, 0.065290f, -0.100238f, -0.098326f, -0.122358f, 0.103369f, 0.266668f, 0.142860f, 0.080986f, -0.191366f, -0.270862f, 0.030228f, 0.138394f, -0.220152f, -0.119985f, -0.168940f, 0.136762f, -0.166366f, -0.005302f, 0.099992f, 0.014145f, 0.036174f, 0.070778f, -0.225097f, 0.174632f, 0.136025f, 0.154249f, 0.145343f, 0.070620f, 0.282736f, -0.037094f, 0.258531f, 0.268580f, -0.019226f, 0.001482f, 0.010547f, -0.012110f, -0.035804f, -0.029575f, -0.002395f, 0.029298f, 0.019521f, 0.002793f, -0.021827f, -0.022383f, 0.012902f, -0.128179f, -0.047272f, -0.082572f, 0.203353f, -0.216121f, 0.212398f, 0.085607f, -0.024639f, -0.113474f, -0.125790f, 0.090142f, 0.013283f, -0.033119f, 0.088468f, -0.017375f, 0.002790f, 0.010932f, -0.063259f, -0.046918f, -0.119552f, -0.168297f, 0.229376f, -0.131703f, -0.101509f, -0.101548f, 0.067007f, -0.088924f, -0.188331f, 0.126577f, -0.037688f, -0.176723f, -0.218175f, -0.179094f, 0.114464f, 0.032142f, 0.049616f, -0.060288f, 0.035327f, -0.082970f, 0.187838f, -0.077505f, 0.178425f, -0.053015f, -0.051220f, 0.187419f, 0.151384f, -0.009783f, -0.118990f, -0.047034f, -0.090826f, 0.046335f, 0.126127f, 0.007777f, -0.022573f, 0.149906f, 0.000769f, 0.000551f, -0.009193f, -0.053094f, -0.252604f, 0.228017f, 0.093764f, -0.071111f, -0.197059f, -0.087738f, -0.111046f, -0.139081f, 0.060397f, 0.156118f, 0.095342f, -0.019514f, -0.182480f, 0.119780f, 0.038592f, 0.038953f, 0.000309f, 0.108993f, 0.080031f, 0.144194f, 0.045008f, -0.179162f, -0.013201f, 0.206816f, -0.204314f, -0.161522f, -0.083549f, -0.092805f, 0.064108f, 0.079093f, 0.122847f, 0.054059f, -0.070841f, -0.032003f, -0.093868f, -0.231835f, 0.189483f, 0.222019f, -0.040316f, 0.069419f, -0.046345f, -0.157549f, 0.305203f, -0.218747f, -0.270645f, -0.156506f, -0.090192f, -0.115020f, -0.020722f, -0.091846f, -0.023189f, -0.050622f, -0.035776f, -0.066233f, 0.059076f, 0.030885f, 0.075964f, 0.048102f, 0.014093f, -0.028635f, -0.085462f, 0.110162f, 0.074849f, -0.031997f, -0.071966f, 0.012771f, 0.228205f, -0.097400f, -0.039442f, -0.046103f, 0.021093f, 0.031595f, -0.035517f, -0.029636f, -0.066246f, 0.003197f, -0.020942f, 0.099162f, 0.040561f, 0.001160f, -0.283908f, 0.103992f, 0.173957f, 0.157494f, 0.115380f, -0.003548f, -0.030900f, -0.150277f, -0.028413f, -0.019025f, -0.057570f, 0.002549f, -0.068151f, -0.054482f, 0.099638f, -0.036517f, -0.011751f, -0.070586f, 0.062860f, 0.075036f, -0.226797f, -0.128079f, 0.092288f, 0.087719f, -0.194295f, 0.051359f, -0.016273f, -0.206294f, 0.055244f, 0.083287f, 0.023047f, -0.008043f, -0.074757f, 0.019907f, -0.040042f, 0.176421f, 0.207581f, 0.214286f, 0.152275f, 0.130057f, 0.218079f, 0.054233f, 0.040382f, -0.213070f, 0.059289f, 0.185705f, 0.205979f, 0.298268f, -0.022502f, -0.079279f, -0.064097f, -0.053336f, 0.011427f, -0.043287f, -0.034334f, -0.058296f, -0.014061f, -0.039806f, -0.018356f, -0.061512f, 0.040918f, -0.137607f, -0.038808f, -0.004558f, 0.179038f, 0.291317f, 0.027790f, 0.089225f, 0.020626f, -0.020756f, 0.069342f, 0.005352f, 0.032568f, 0.002523f, 0.012073f, -0.096699f, -0.055821f, -0.024774f, 0.008170f, 0.013561f, -0.085859f, -0.010097f, -0.080197f, 0.108203f, -0.261599f, -0.207956f, -0.092825f, -0.027838f, 0.066927f, -0.116481f, -0.108701f, 0.027504f, 0.045551f, 0.038436f, 0.034268f, -0.012275f, -0.023765f, 0.004013f, 0.102916f, 0.094538f, -0.027581f, 0.019399f, -0.061553f, -0.099995f, 0.292658f, 0.115558f, 0.158622f, 0.179907f, 0.045331f, 0.006674f, -0.016508f, 0.024927f, -0.006530f, 0.066953f, 0.096734f, 0.097591f, 0.017090f, 0.025368f, -0.023749f, -0.041573f, 0.047682f, -0.011094f, 0.093018f, -0.066730f, 0.251630f, 0.233609f, -0.020994f, 0.139463f, -0.125129f, -0.058337f, -0.136915f, 0.080920f, 0.104556f, -0.041753f, -0.074771f, 0.014358f, -0.004007f, 0.087661f, 0.061711f, -0.053875f, 0.140107f, -0.110369f, -0.039102f, 0.055883f, -0.238060f, 0.038877f, 0.123324f, -0.011867f, 0.053988f, 0.057745f, -0.096061f, -0.155952f, -0.109537f, -0.055237f, 0.143167f, -0.155132f, -0.118755f, 0.117329f, -0.023911f, -0.064181f, 0.121661f, -0.013684f, -0.219140f, -0.142739f, -0.009499f, -0.055858f, -0.234444f, 0.201215f, 0.147012f, 0.013640f, 0.019659f, -0.203385f, 0.114893f, -0.093138f, 0.122675f, 0.069614f, 0.053306f, -0.068118f, 0.000766f, -0.119152f, -0.093986f, 0.305751f, -0.308822f, -0.003017f, -0.136112f, -0.184318f, -0.253049f, 0.136663f, -0.140728f, 0.046858f, -0.078433f, 0.079993f, 0.111297f, 0.076767f, -0.102420f, -0.030333f, -0.151981f, -0.037689f, 0.025468f, 0.053472f, -0.144062f, -0.178303f, 0.190736f, -0.084302f, 0.182276f, 0.167611f, 0.248122f, 0.100659f, 0.099969f, 0.098218f, -0.044096f, 0.047248f, -0.072096f, -0.078998f, -0.016112f, -0.026307f, -0.100125f, 0.028877f, 0.091322f, 0.108578f, -0.004578f, 0.250000f, -0.145416f, -0.112622f, -0.257358f, -0.041575f, -0.248149f, 0.066463f, -0.061116f, -0.087706f, -0.055115f, -0.027549f, 0.097092f, 0.076205f, -0.001236f, -0.015317f, 0.040711f, 0.059899f, -0.046712f, -0.086975f, 0.115382f, 0.130787f, 0.138678f, 0.267014f, 0.086198f, -0.273642f, -0.195673f, -0.209170f, 0.040120f, 0.035038f, 0.069643f, -0.021850f, 0.005019f, -0.098748f, -0.017796f, -0.190019f, -0.052814f, -0.048736f, -0.048768f, 0.047954f, -0.015749f, 0.194578f, 0.150383f, 0.061759f, 0.320657f, 0.266834f, -0.140396f, 0.249661f, 0.101770f, -0.081173f, -0.053626f, -0.022163f, 0.021152f, -0.090013f, 0.039499f, -0.020714f, 0.062312f, -0.113093f, -0.056603f, -0.105250f, 0.008094f, -0.016850f, -0.101183f, 0.111527f, -0.035423f, -0.240006f, -0.093054f, 0.018953f, -0.081287f, 0.022362f, -0.039370f, -0.020250f, -0.079493f, 0.051614f, 0.198115f, 0.257556f, 0.062955f, -0.081120f, -0.184697f, -0.077367f, -0.074252f, -0.323912f, 0.017726f, -0.165537f, 0.095121f, -0.144517f, -0.118699f, -0.046570f, 0.124265f, 0.012461f, -0.099557f, -0.190915f, -0.183444f, 0.130550f, -0.107802f, 0.164888f, -0.160519f, 0.163155f, 0.073051f, -0.149456f, -0.177028f, -0.126303f, 0.200006f, -0.128075f, -0.188958f, 0.019890f, -0.126404f, -0.281485f, 0.211108f, -0.038356f, 0.061462f, 0.031671f, 0.099940f, -0.121789f, 0.075444f, -0.041349f, -0.047148f, -0.129651f, -0.061662f, 0.182976f, -0.196287f, -0.186858f, 0.124612f, 0.018865f, 0.140229f, 0.081943f, -0.045418f, 0.155662f, -0.097321f, -0.154218f, -0.057730f, -0.188375f, 0.061706f, -0.165413f, 0.075388f, -0.103328f, 0.099550f, 0.075577f, 0.041857f, 0.088132f, -0.199630f, -0.043109f, 0.142466f, 0.247093f, -0.080687f, -0.017557f, -0.271112f, -0.104538f, 0.148947f, -0.100523f, -0.049137f, 0.100395f, 0.195347f, 0.108386f, -0.094451f, -0.131477f, 0.069186f, -0.154066f, 0.185050f, -0.070584f, 0.052058f, -0.205606f, 0.142139f, 0.213958f, 0.263537f, 0.232927f, 0.036131f, 0.109894f, 0.007172f, -0.000053f, -0.105441f, -0.159749f, -0.130259f, -0.111218f, 0.026707f, 0.063838f, 0.109482f, 0.071924f, 0.057841f, 0.073129f, 0.198922f, -0.087765f, 0.062004f, 0.065424f, -0.233179f, -0.211545f, -0.141819f, -0.081091f, 0.009509f, -0.101629f, 0.034303f, 0.018682f, -0.192075f, 0.006688f, 0.243871f, -0.050241f, -0.184939f, 0.240716f, 0.221405f, -0.190267f, 0.105213f, -0.241060f, 0.117625f, -0.134631f, 0.196997f, 0.188600f, 0.205040f, 0.227595f, -0.033649f, -0.061446f, -0.029425f, -0.111920f, -0.089924f, -0.106906f, -0.023635f, -0.009583f, 0.071644f, 0.057233f, 0.043950f, 0.011100f, -0.120399f, -0.117739f, -0.130753f, -0.129011f, -0.001655f, 0.240702f, -0.033838f, -0.091108f, 0.136624f, 0.030679f, -0.001801f, 0.082488f, 0.020577f, -0.153709f, -0.004089f, -0.020486f, 0.043982f, 0.022298f, 0.169774f, 0.050363f, -0.094903f, -0.111742f, -0.029775f, 0.171008f, -0.061224f, -0.173456f, 0.146558f, -0.199932f, -0.088008f, 0.060732f, 0.000300f, -0.018013f, 0.094596f, -0.035400f, 0.052695f, -0.040029f, 0.081271f, 0.096128f, -0.092156f, 0.033232f, 0.193004f, -0.177949f, -0.252714f, -0.108076f, -0.330381f, -0.145614f, -0.169239f, 0.120187f, 0.042281f, 0.051199f, 0.064590f, 0.074629f, -0.052578f, 0.087170f, -0.027733f, -0.056578f, -0.091523f, -0.112619f, -0.084195f, -0.072568f, 0.018498f, -0.001245f, -0.100354f, -0.053758f, 0.030827f, -0.043105f, -0.237119f, -0.025380f, 0.097512f, 0.170124f, -0.084810f, 0.027252f, -0.057535f, 0.007237f, -0.025075f, 0.087782f, -0.110664f, -0.063502f, -0.011506f, 0.053521f, 0.119530f, 0.087704f, -0.215516f, 0.374697f, 0.123386f, -0.259681f, 0.021333f, -0.163204f, -0.106257f, -0.088605f, -0.012281f, -0.046809f, -0.040543f, -0.089046f, 0.086579f, -0.116876f, 0.001148f, 0.124078f, 0.150768f, -0.072219f, 0.084621f, -0.319593f, 0.299723f, 0.219730f, -0.227118f, -0.210849f, 0.156277f, -0.097085f, 0.132024f, 0.138653f, -0.062986f, -0.179244f, 0.071230f, 0.089425f, -0.095139f, -0.070092f, -0.105864f, -0.061277f, -0.075873f, 0.158271f, -0.119593f, -0.189892f, -0.044913f, -0.005192f, 0.347070f, 0.232599f, -0.030762f, 0.127173f, -0.079145f, 0.001130f, 0.056614f, 0.095903f, 0.014636f, 0.035173f, -0.090829f, -0.089420f, -0.095281f, -0.031982f, -0.113050f, -0.066477f, -0.087989f, -0.068228f, 0.059177f, 0.056116f, -0.289300f, -0.061965f, -0.201324f, 0.093875f, -0.126433f, -0.089176f, -0.022416f, -0.071865f, 0.116354f, 0.085598f, 0.107980f, 0.173019f, 0.193808f, -0.218716f, 0.007264f, -0.046332f, 0.136533f, 0.122479f, 0.093257f, 0.010467f, -0.149273f, -0.024713f, 0.220286f, 0.197359f, 0.076723f, 0.007671f, 0.039281f, -0.058346f, -0.054141f, -0.006926f, 0.088797f, 0.048019f, -0.030970f, -0.112677f, -0.057675f, -0.111757f, -0.125473f, -0.155233f, 0.093882f, 0.163521f, 0.057298f, 0.293571f, 0.230582f, -0.077142f, 0.029878f, 0.037111f, 0.042539f, 0.036686f, 0.037965f, 0.019463f, 0.024442f, 0.045990f, 0.053804f, 0.041799f, 0.044637f, 0.046098f, -0.003602f, -0.047884f, 0.110220f, -0.000776f, -0.270111f, 0.163177f, 0.065247f, -0.185960f, 0.125078f, 0.062628f, 0.097662f, 0.014296f, 0.151070f, 0.102195f, -0.053939f, 0.004196f, -0.123190f, -0.131229f, -0.203823f, -0.058879f, -0.204812f, -0.159136f, 0.051116f, -0.009140f, 0.197101f, 0.317786f, 0.078394f, 0.233118f, 0.011625f, 0.027780f, 0.013728f, 0.000883f, -0.004008f, -0.019321f, 0.004871f, -0.018287f, 0.002665f, 0.019383f, 0.000010f, 0.008292f, 0.070923f, -0.132629f, -0.088612f, -0.038004f, 0.094065f, -0.287363f, -0.045124f, -0.221562f, 0.243768f, 0.043019f, -0.201553f, 0.054281f, 0.117573f, 0.033379f, -0.091023f, -0.059227f, -0.056196f, -0.060756f, -0.072090f, 0.227994f, 0.017431f, -0.155741f, -0.062893f, -0.141058f, -0.002181f, -0.112220f, -0.128640f, -0.253311f, -0.055477f, -0.048194f, -0.019789f, -0.041575f, -0.051378f, -0.080603f, -0.021097f, 0.032439f, 0.104551f, -0.225490f, 0.033820f, -0.069101f, 0.011406f, -0.114277f, -0.033029f, -0.011876f, 0.100186f, 0.050778f, -0.256607f, -0.292579f, 0.076027f, -0.002576f, 0.017735f, -0.044077f, -0.059611f, -0.043573f, 0.018201f, -0.033893f, 0.059291f, 0.018567f, 0.084309f, 0.010711f, 0.113196f, 0.216505f, 0.110142f, 0.140248f, 0.073242f, -0.133841f, -0.200059f, 0.136150f, -0.091234f, -0.056050f, -0.134527f, -0.141840f, 0.211951f, 0.000679f, 0.126287f, 0.075725f, -0.207719f, 0.095977f, 0.088394f, 0.137368f, 0.203309f, -0.018951f, -0.186416f, 0.246200f, -0.090834f, 0.097059f, -0.034593f, -0.005517f, 0.013516f, -0.136216f, -0.091262f, 0.073192f, -0.040905f, -0.092267f, -0.047821f, 0.085639f, 0.086213f, -0.069536f, -0.125812f, -0.032854f, 0.091279f, -0.129726f, -0.133144f, 0.194902f, 0.291281f, 0.157889f, 0.296356f, 0.089702f, -0.033665f, 0.110455f, -0.014669f, 0.032131f, -0.084676f, -0.011024f, -0.074337f, 0.072982f, 0.028092f, -0.031189f, -0.114351f, -0.010705f, 0.104931f, 0.259647f, -0.078345f, 0.072208f, -0.076313f, 0.202374f, 0.214953f, 0.065153f, 0.064836f, 0.038822f, -0.100670f, -0.005487f, -0.044738f, 0.063396f, -0.027243f, 0.071949f, 0.082201f, 0.060718f, 0.019445f, 0.115057f, 0.083130f, -0.027186f, 0.144912f, 0.157755f, 0.033988f, -0.264697f, 0.011917f, -0.142585f, -0.186497f, 0.056247f, 0.165512f, -0.112562f, 0.076727f, 0.044617f, -0.066088f, 0.021289f, 0.087756f, 0.033262f, -0.175928f, -0.258513f, -0.214807f, 0.094279f, -0.069292f, -0.065544f, -0.151119f, -0.001908f, -0.098859f, -0.137857f, 0.005549f, 0.205854f, -0.145822f, 0.161404f, -0.043848f, -0.135577f, 0.188002f, -0.196929f, -0.047183f, -0.125718f, -0.092996f, -0.029458f, 0.079238f, -0.120510f, -0.120396f, -0.106174f, -0.097307f, 0.223340f, 0.103201f, 0.151373f, 0.078065f, 0.105959f, -0.040565f, -0.052798f, 0.140220f, 0.089074f, 0.099645f, -0.064249f, -0.092546f, -0.093369f, -0.006040f, 0.102884f, -0.066767f, 0.162951f, -0.231268f, 0.020013f, 0.271480f, 0.062919f, 0.143260f, 0.135336f, -0.042205f, -0.000085f, 0.027731f, -0.016630f, -0.009306f, 0.002685f, 0.092194f, 0.082510f, 0.031661f, -0.012441f, 0.033558f, -0.040373f, 0.095767f, -0.098219f, -0.125780f, 0.044903f, -0.210996f, -0.041921f, -0.055483f, -0.105271f, 0.059730f, 0.048679f, 0.076442f, 0.080787f, 0.107438f, 0.169551f, 0.240795f, 0.170484f, 0.206143f, -0.055671f, 0.193043f, 0.094588f, 0.167083f, 0.133429f, -0.134915f, -0.205609f, 0.338643f, -0.084846f, 0.020215f, 0.260164f, 0.014254f, 0.021677f, 0.004536f, 0.018015f, 0.024108f, 0.033933f, 0.014215f, -0.000395f, -0.011683f, -0.005720f, -0.014398f, -0.002831f, -0.134535f, -0.141747f, -0.228903f, 0.006600f, -0.167491f, 0.072973f, -0.162354f, -0.258139f, 0.020483f, 0.053841f, -0.062895f, 0.056985f, 0.055015f, 0.042783f, 0.013107f, -0.064563f, -0.015409f, -0.001371f, -0.086107f, -0.099488f, -0.105745f, 0.187545f, 0.204730f, -0.174233f, -0.093519f, 0.131082f, -0.265242f, -0.228775f, -0.029226f, -0.149487f, 0.048002f, 0.022760f, 0.112737f, 0.049041f, 0.057806f, -0.083170f, -0.098655f, -0.062899f, -0.077163f, -0.165483f, -0.116458f, -0.002285f, 0.066479f, 0.142796f, 0.189961f, 0.064045f, -0.079083f, 0.148755f, -0.029428f, 0.058779f, -0.126230f, -0.123693f, -0.081553f, -0.080448f, -0.012928f, -0.050017f, 0.054817f, -0.046529f, -0.139619f, -0.124284f, -0.207806f, -0.133783f, -0.125102f, 0.209426f, 0.004334f, -0.271938f, -0.116496f, -0.179885f, 0.174652f, 0.110220f, -0.068328f, -0.083444f, 0.177817f, 0.171316f, -0.148853f, 0.014753f, 0.176384f, 0.129393f, -0.113852f, -0.069466f, -0.049365f, 0.178481f, -0.087563f, 0.098405f, -0.136267f, -0.224711f, 0.118444f, -0.232115f, 0.255615f, 0.118506f, 0.101605f, -0.147869f, 0.058691f, -0.017745f, 0.136692f, 0.138063f, 0.103261f, -0.036363f, 0.159103f, -0.124401f, 0.091779f, 0.092369f, -0.154774f, 0.126443f, -0.273336f, -0.240807f, -0.010385f, -0.180477f, -0.006485f, 0.026945f, 0.041509f, 0.062100f, 0.105430f, 0.091376f, -0.087918f, 0.040861f, -0.075144f, 0.017364f, 0.083678f, 0.044076f, -0.161198f, -0.016260f, -0.101235f, -0.226272f, -0.210032f, -0.039064f, -0.045492f, -0.183976f, -0.137255f, 0.167455f, 0.117233f, 0.198262f, 0.122505f, 0.182667f, -0.163277f, 0.129740f, -0.174156f, -0.015681f, 0.052985f, -0.150937f, -0.007679f, 0.153803f, 0.223873f, -0.109147f, -0.056145f, 0.093356f, -0.240314f, 0.063452f, -0.013573f, -0.093944f, -0.102532f, 0.018163f, -0.073687f, -0.000103f, 0.097517f, 0.117368f, 0.080941f, 0.109875f, -0.197385f, -0.170262f, 0.175164f, 0.111033f, 0.175576f, -0.124898f, -0.255666f, -0.015718f, -0.128231f, -0.162473f, 0.053159f, -0.111892f, -0.038953f, 0.251120f, 0.003953f, -0.013505f, 0.053046f, 0.046262f, -0.055488f, -0.011295f, 0.054583f, 0.141381f, 0.074797f, 0.122656f, 0.192162f, 0.246160f, -0.313175f, -0.142284f, -0.020128f, -0.092433f, -0.076339f, 0.040799f, -0.057774f, -0.027082f, -0.142235f, 0.036341f, -0.093289f, 0.150889f, 0.010330f, 0.172889f, 0.015983f, 0.113055f, -0.024047f, 0.140516f, -0.080850f, 0.184862f, -0.028113f, -0.022076f, 0.081022f, 0.091774f, -0.147194f, 0.094399f, 0.087473f, 0.021693f, 0.055288f, 0.070758f, 0.055898f, 0.010972f, 0.131137f, -0.104963f, 0.078618f, -0.017788f, 0.073777f, -0.039586f, -0.208762f, -0.039004f, 0.077101f, 0.082080f, 0.159653f, 0.056670f, -0.045887f, -0.011942f, 0.028952f, -0.028132f, 0.132268f, -0.067889f, -0.002628f, -0.042444f, 0.012529f, 0.069860f, 0.158396f, -0.045009f, 0.137478f, -0.227983f, 0.239183f, -0.167494f, 0.025839f, 0.120384f, -0.175902f, -0.108070f, -0.041023f, 0.135216f, -0.023119f, 0.122623f, -0.002685f, 0.155723f, 0.137762f, 0.042754f, -0.014625f, -0.052991f, 0.046549f, 0.116358f, 0.003082f, -0.102145f, -0.237513f, 0.256983f, 0.205947f, 0.022544f, 0.311914f, -0.027183f, 0.129101f, 0.085302f, 0.019730f, 0.104745f, 0.142611f, 0.147026f, 0.032663f, -0.052273f, -0.080533f, -0.035814f, 0.019583f, 0.118836f, 0.337360f, -0.063277f, 0.107376f, -0.144712f, -0.039722f, -0.160338f, -0.219940f, 0.009028f, -0.066154f, -0.227163f, -0.039064f, -0.030978f, -0.071117f, 0.243256f, -0.131886f, -0.077217f, -0.040240f, -0.067041f, -0.047342f, -0.037706f, -0.019275f, -0.064298f, 0.164871f, 0.027030f, 0.139815f, -0.140748f, 0.095704f, -0.082534f, -0.073246f, -0.051031f, -0.139541f, 0.020318f, -0.142258f, -0.082138f, 0.117026f, -0.010519f, -0.064685f, 0.096250f, -0.061535f, 0.105600f, -0.230759f, 0.208427f, 0.059325f, -0.059615f, 0.283865f, 0.093995f, 0.259020f, 0.136379f, 0.010780f, 0.011745f, 0.031965f, 0.030108f, 0.007778f, -0.059151f, -0.056468f, -0.073351f, -0.021951f, 0.011193f, 0.023625f, 0.009277f, 0.285656f, -0.049957f, -0.195075f, -0.161878f, -0.263207f, -0.187047f, -0.107569f, -0.279702f, 0.101662f, 0.068015f, 0.097478f, 0.058182f, -0.015216f, -0.018139f, -0.032549f, -0.002528f, 0.056125f, -0.053141f, -0.061065f, 0.101777f, -0.036230f, -0.038414f, 0.166098f, 0.060984f, 0.161193f, 0.053275f, -0.137392f, 0.125460f, 0.080735f, 0.025390f, 0.132124f, -0.027112f, -0.056464f, -0.060080f, 0.018711f, -0.055143f, -0.020779f, -0.079169f, 0.039318f, 0.053816f, 0.228129f, 0.162754f, 0.003732f, 0.188257f, 0.164042f, 0.199833f, -0.064336f, 0.237789f, -0.027508f, 0.116383f, -0.186188f, 0.002033f, -0.141780f, 0.107744f, -0.184813f, 0.068436f, -0.149704f, 0.105741f, -0.004485f, 0.048065f, 0.032365f, 0.252330f, 0.127577f, -0.175163f, 0.095630f, -0.131224f, -0.158830f, -0.276206f, -0.013619f, 0.037817f, -0.038129f, 0.048404f, -0.076900f, -0.045005f, 0.064611f, 0.061082f, -0.009824f, 0.081048f, -0.203953f, -0.125847f, -0.044841f, 0.100630f, -0.058885f, 0.054819f, -0.042629f, -0.063316f, 0.149631f, 0.047595f, -0.190198f, -0.170319f, -0.049449f, -0.139745f, 0.011147f, -0.058363f, -0.024409f, -0.063478f, -0.037170f, -0.191191f, 0.022533f, -0.100304f, -0.021572f, -0.185109f, 0.193014f, 0.154438f, -0.118550f, 0.181125f, 0.067590f, 0.057132f, -0.117655f, -0.179146f, 0.134388f, 0.146390f, 0.003940f, -0.122551f, -0.032160f, -0.072954f, 0.104239f, -0.019117f, 0.042629f, -0.065420f, -0.006095f, 0.270795f, -0.161401f, 0.035277f, -0.117211f, 0.182570f, -0.020679f, 0.220403f, 0.060369f, -0.003520f, 0.009225f, 0.011668f, -0.001445f, 0.033009f, 0.054069f, -0.018822f, -0.023794f, -0.093238f, -0.049656f, -0.030069f, -0.222902f, 0.067855f, -0.354184f, -0.253209f, -0.304107f, -0.081262f, -0.064848f, -0.140222f, 0.058399f, 0.036038f, -0.092962f, -0.116810f, 0.031098f, 0.096368f, 0.107353f, 0.010504f, -0.084523f, -0.028001f, -0.014582f, 0.085824f, 0.069333f, -0.181948f, 0.058935f, -0.070452f, 0.109712f, -0.214011f, 0.041315f, 0.063038f, 0.044926f, 0.146624f, -0.039773f, 0.022038f, 0.109162f, -0.049046f, -0.060368f, 0.060691f, -0.188242f, -0.013535f, 0.008397f, 0.136463f, -0.201993f, -0.138977f, -0.208242f, 0.073534f, 0.077765f, -0.184042f, -0.244334f, -0.107058f, -0.111233f, -0.055174f, 0.178427f, -0.032784f, -0.085038f, -0.166738f, 0.127051f, -0.159420f, -0.182697f, -0.171372f, 0.171605f, 0.066318f, -0.081499f, -0.105606f, -0.166838f, -0.009270f, 0.311217f, 0.191585f, 0.076270f, 0.090777f, -0.090400f, -0.111464f, -0.062981f, -0.049844f, 0.008183f, -0.005883f, 0.037233f, -0.004642f, 0.011034f, -0.012909f, 0.006022f, -0.069600f, -0.051203f, -0.149584f, 0.010603f, -0.003640f, 0.141533f, 0.187552f, 0.073332f, 0.222256f, 0.040595f, 0.027671f, -0.044302f, -0.069097f, -0.069640f, -0.011616f, -0.083707f, -0.040091f, -0.021850f, -0.003728f, -0.080943f, -0.030521f, -0.094644f, 0.258452f, -0.160288f, 0.180667f, -0.140276f, 0.110422f, 0.088031f, 0.031012f, 0.163926f, 0.031275f, -0.142335f, 0.023633f, 0.013286f, 0.169058f, 0.074724f, -0.109678f, 0.119674f, 0.022773f, 0.003099f, 0.003573f, 0.017978f, -0.062744f, 0.126292f, 0.111341f, -0.047918f, -0.274434f, -0.176841f, -0.048120f, 0.124667f, 0.067962f, 0.059917f, -0.079095f, -0.026889f, -0.023851f, 0.004648f, 0.107919f, 0.215406f, 0.146853f, 0.165891f, 0.086318f, -0.250989f, -0.001487f, -0.096075f, -0.208002f, -0.264327f, -0.238739f, -0.249933f, -0.079321f, -0.019257f, -0.021918f, -0.027261f, -0.022665f, -0.025708f, -0.005451f, 0.011775f, 0.041665f, 0.020075f, 0.014916f, -0.000829f, -0.002373f, -0.021125f, 0.054220f, 0.157422f, -0.001609f, 0.027452f, 0.242386f, 0.252546f, 0.079758f, 0.002559f, 0.009566f, 0.030896f, 0.023682f, 0.020172f, -0.036764f, -0.046080f, 0.006883f, 0.020444f, 0.019642f, -0.004762f, 0.007580f, 0.161116f, 0.032267f, 0.152387f, 0.085743f, 0.229569f, 0.232841f, -0.094540f, 0.268126f, 0.006049f, -0.049322f, -0.041342f, 0.014592f, 0.050323f, 0.050339f, 0.011350f, 0.000381f, 0.027799f, 0.052329f, 0.080393f, 0.067846f, -0.061226f, -0.087274f, -0.143175f, -0.009875f, -0.289584f, -0.094679f, -0.086778f, -0.194004f, 0.048397f, -0.065310f, 0.198233f, 0.066456f, -0.086609f, -0.212947f, -0.118977f, 0.120949f, -0.056828f, 0.024995f, -0.224172f, 0.181858f, 0.049092f, 0.085353f, 0.174188f, 0.024092f, -0.227219f, -0.121204f, -0.285929f, -0.300796f, -0.042085f, 0.012125f, 0.069929f, 0.032878f, 0.099792f, 0.093482f, 0.120271f, 0.048108f, 0.111309f, 0.030303f, 0.043811f, -0.007030f, -0.070418f, 0.075429f, 0.240609f, -0.159448f, 0.124050f, 0.190749f, 0.009035f, 0.265871f, -0.007603f, -0.013603f, 0.002049f, 0.046508f, 0.010182f, 0.008153f, -0.009726f, -0.009132f, -0.006725f, 0.038313f, 0.015973f, 0.015608f, 0.068778f, 0.107541f, -0.063782f, -0.007186f, 0.161876f, 0.141256f, 0.043406f, 0.107811f, -0.033292f, -0.011222f, 0.004800f, -0.015326f, -0.003006f, 0.022737f, 0.006553f, 0.067936f, 0.060748f, 0.047753f, 0.028900f, 0.015028f, -0.124829f, -0.132524f, -0.228125f, 0.137750f, -0.181664f, -0.230728f, 0.115448f, 0.052074f, 0.143588f, 0.177073f, -0.168754f, 0.180306f, -0.088688f, 0.139007f, -0.058003f, -0.032046f, -0.071643f, 0.140911f, -0.075149f, 0.039962f, -0.085664f, -0.102391f, -0.203577f, 0.067537f, -0.130942f, -0.169473f, -0.236665f, -0.069381f, 0.074486f, 0.035873f, 0.045691f, -0.068186f, -0.056916f, 0.008108f, 0.016802f, 0.105003f, 0.055799f, 0.027305f, -0.000352f, -0.009539f, -0.097817f, -0.172670f, 0.228106f, 0.177162f, -0.143675f, -0.068815f, -0.076469f, -0.217747f, 0.002165f, -0.093771f, -0.077683f, -0.080848f, -0.046702f, -0.124351f, 0.001940f, -0.069383f, 0.101694f, 0.121437f, 0.139730f, -0.000738f, -0.072177f, -0.100251f, -0.155540f, 0.008438f, 0.054675f, 0.265344f, 0.213923f, 0.050948f, -0.059149f, -0.085660f, 0.074100f, 0.036482f, 0.003381f, -0.012597f, 0.107706f, -0.129350f, -0.071476f, -0.139933f, -0.021028f, -0.146353f, -0.115428f, 0.130321f, -0.099357f, -0.069091f, -0.024463f, -0.187232f, -0.200074f, -0.248037f, -0.003400f, 0.086662f, -0.017140f, 0.059675f, 0.005907f, -0.047797f, -0.063057f, -0.003763f, -0.039764f, -0.066893f, 0.009451f, -0.070551f, -0.105129f, -0.142518f, 0.115757f, -0.042507f, 0.334266f, 0.185086f, 0.049359f, 0.252308f, -0.068618f, 0.001399f, 0.074402f, 0.005955f, -0.081804f, -0.057122f, -0.025166f, 0.066866f, -0.009012f, -0.105540f, -0.103266f, 0.016824f, 0.115254f, -0.001727f, -0.125060f, -0.018431f, 0.019847f, 0.122989f, 0.295436f, 0.286762f, -0.026040f, 0.000159f, -0.020493f, 0.012292f, -0.028090f, -0.010898f, -0.063692f, -0.032246f, -0.054191f, -0.015649f, -0.041636f, -0.011167f, -0.064986f, -0.009186f, -0.179989f, 0.069699f, 0.266567f, 0.116733f, 0.140431f, -0.034762f, -0.072131f, -0.106138f, 0.006563f, -0.050415f, 0.110060f, 0.067136f, 0.065638f, 0.120397f, 0.101998f, 0.137595f, 0.101572f, 0.002547f, 0.071464f, 0.007126f, -0.139937f, 0.259468f, 0.134775f, 0.244786f, -0.081176f, -0.018769f, 0.135344f, 0.119685f, -0.043106f, -0.040892f, -0.147946f, 0.036297f, -0.120969f, -0.115176f, -0.000883f, -0.124669f, -0.109499f, 0.129442f, -0.190584f, 0.101965f, 0.099994f, 0.022271f, 0.072821f, 0.320687f, 0.190459f, -0.070351f, -0.088996f, -0.062787f, -0.094451f, 0.031052f, -0.043016f, -0.062171f, -0.118715f, -0.161233f, -0.147628f, -0.112267f, -0.099212f, -0.052597f, -0.206292f, -0.164305f, 0.102968f, -0.071841f, -0.190284f, -0.067407f, -0.199462f, -0.126033f, 0.039137f, 0.141600f, 0.125305f, -0.089868f, 0.074838f, -0.138856f, -0.142381f, 0.117852f, -0.109298f, -0.029506f, -0.123420f, -0.164674f, 0.022940f, -0.180314f, 0.174365f, -0.031810f, 0.236847f, 0.219542f, 0.134574f, 0.216019f, 0.083313f, 0.087030f, 0.137044f, -0.009843f, -0.060751f, -0.033499f, -0.172736f, -0.016758f, -0.035400f, -0.140641f, -0.069080f, -0.105757f, 0.072455f, 0.013310f, 0.070646f, -0.075933f, -0.248998f, -0.121535f, -0.242080f, -0.200256f, -0.038559f, 0.032056f, 0.001296f, -0.005984f, -0.017857f, 0.016390f, -0.014350f, -0.042884f, -0.010543f, -0.050677f, 0.006173f, 0.058001f, -0.133934f, 0.170810f, -0.036792f, 0.200303f, -0.141512f, -0.064839f, -0.193054f, -0.291793f, 0.050640f, 0.032578f, 0.134936f, 0.058622f, 0.126519f, 0.161387f, 0.183043f, -0.070470f, -0.119846f, 0.047460f, 0.155253f, 0.066226f, 0.067225f, -0.023417f, 0.112478f, -0.131869f, -0.290474f, -0.305448f, -0.112539f, 0.088454f, 0.170577f, 0.146786f, 0.134579f, -0.003533f, -0.025677f, -0.044332f, 0.102408f, 0.135449f, 0.055303f, -0.007073f, 0.075221f, 0.118867f, -0.115635f, 0.147903f, -0.256373f, 0.066076f, 0.219674f, 0.221242f, 0.219633f, 0.069961f, 0.095151f, -0.034898f, -0.080523f, -0.065344f, -0.024252f, -0.029030f, 0.070577f, -0.011181f, 0.006177f, -0.000791f, 0.039939f, 0.082219f, 0.112478f, -0.112680f, -0.174034f, 0.084222f, 0.063257f, 0.189982f, 0.201199f, 0.291755f, -0.163769f, -0.080104f, 0.103270f, 0.141022f, 0.138762f, 0.134685f, 0.155464f, 0.013031f, 0.062609f, -0.064507f, -0.142452f, -0.192751f, 0.124403f, -0.221387f, -0.151268f, -0.105139f, 0.050709f, -0.207235f, 0.118812f, 0.039560f, 0.034330f, -0.179602f, 0.049837f, 0.038388f, -0.079289f, 0.146993f, 0.125637f, -0.087418f, -0.102666f, 0.006905f, 0.120971f, -0.016322f, -0.161374f, -0.036596f, -0.149559f, 0.005790f, -0.082956f, -0.032823f, -0.188784f, -0.232008f, -0.008391f, 0.247228f, 0.101513f, 0.102107f, -0.132246f, -0.232446f, -0.101941f, -0.058219f, -0.060126f, -0.055221f, 0.157680f, -0.174167f, 0.078142f, -0.162640f, 0.082917f, 0.009092f, 0.288370f, -0.044900f, 0.001821f, 0.322709f, 0.044189f, 0.044539f, 0.037374f, 0.051221f, 0.046224f, 0.039067f, 0.027999f, 0.011822f, 0.005752f, -0.003717f, 0.019764f, 0.032491f, 0.029252f, -0.120783f, 0.134394f, -0.067029f, 0.039384f, 0.230309f, 0.041395f, 0.228965f, -0.144592f, 0.086946f, 0.150724f, 0.107839f, -0.119601f, -0.150405f, 0.066591f, -0.040569f, -0.054828f, -0.103797f, 0.102798f, -0.049059f, -0.134125f, 0.242079f, 0.092443f, -0.096895f, 0.114481f, 0.053127f, 0.154712f, 0.175161f, -0.075838f, -0.149840f, 0.025625f, -0.080679f, -0.190478f, 0.056712f, -0.199062f, -0.102329f, -0.132945f, 0.119341f, 0.118765f, -0.037768f, -0.042326f, 0.265045f, -0.093781f, 0.037074f, -0.007856f, 0.079258f, 0.148572f, 0.218474f, -0.116429f, -0.055827f, 0.096900f, -0.089513f, -0.018088f, -0.154788f, -0.110413f, -0.027325f, 0.069507f, 0.073593f, -0.059204f, -0.112159f, -0.133165f, -0.086318f, -0.056050f, 0.092298f, 0.115248f, 0.014668f, 0.108253f, -0.073075f, 0.020497f, 0.019361f, 0.029126f, -0.044318f, -0.032145f, -0.070205f, -0.024825f, -0.004523f, 0.009418f, -0.048174f, -0.019346f, -0.047252f, -0.098818f, -0.073465f, 0.007282f, 0.372519f, -0.103776f, -0.311912f, -0.114909f, -0.050962f, 0.080542f, -0.109665f, -0.154653f, -0.045984f, -0.121709f, 0.031927f, 0.131209f, 0.159613f, -0.180948f, 0.200511f, 0.153050f, -0.079750f, -0.006302f, -0.041333f, -0.056070f, -0.165940f, 0.043519f, -0.247494f, -0.155549f, -0.136146f, -0.169871f, 0.067740f, 0.129586f, -0.028721f, 0.137980f, -0.044875f, -0.045413f, -0.151847f, 0.133083f, 0.138775f, 0.027695f, -0.061936f, -0.073419f, -0.112752f, -0.057030f, 0.198729f, -0.082294f, 0.186934f, -0.187165f, 0.142032f, -0.008073f, 0.025421f, 0.030270f, 0.061246f, -0.061154f, 0.092910f, 0.009060f, 0.035178f, 0.056354f, 0.082428f, 0.007383f, 0.055312f, -0.163252f, -0.145875f, -0.095017f, 0.251409f, -0.313793f, -0.239457f, -0.071198f, -0.196455f, -0.077547f, 0.079334f, 0.000703f, 0.151876f, 0.126717f, 0.079991f, -0.095595f, 0.017402f, 0.005131f, 0.114361f, 0.086891f, 0.071742f, 0.061060f, 0.054613f, -0.079688f, 0.157773f, -0.199582f, -0.204383f, -0.227010f, -0.257337f, 0.049231f, -0.007981f, 0.009512f, 0.044223f, 0.058295f, 0.029624f, 0.059351f, 0.006937f, 0.037411f, 0.018566f, 0.014174f, -0.003889f, 0.005446f, -0.078279f, -0.115750f, 0.152735f, -0.346765f, -0.092048f, -0.150352f, 0.049382f, -0.045743f, -0.039566f, 0.114117f, 0.141173f, 0.036254f, -0.016066f, -0.020118f, 0.066039f, 0.032266f, 0.047754f, -0.027986f, -0.014320f, 0.145753f, -0.002506f, 0.009356f, -0.150449f, 0.104624f, -0.032088f, 0.131536f, -0.019202f, -0.082007f, -0.160343f, 0.145729f, -0.054552f, -0.144271f, 0.009906f, -0.055971f, 0.101541f, 0.121538f, -0.102026f, 0.043355f, 0.189018f, -0.051020f, 0.003645f, 0.030668f, 0.005004f, -0.232314f, -0.048599f, -0.050255f, -0.242175f, -0.030144f, -0.058769f, 0.076802f, 0.089457f, -0.163471f, 0.013385f, 0.117243f, 0.028708f, 0.064394f, -0.024156f, -0.012958f, -0.073646f, -0.061810f, 0.053197f, 0.177453f, 0.104371f};
// shape: (128, 20)

static const float B1[128] = {0.257909f, -0.074341f, -0.027900f, -0.313940f, 0.015317f, -0.205627f, -0.244829f, 0.038894f, 0.016221f, 0.292263f, -0.249087f, -0.051675f, 0.126816f, -0.242106f, -0.325146f, 0.257460f, -0.342173f, -0.008110f, -0.198896f, 0.040408f, 0.154165f, -0.171250f, 0.150437f, 0.352952f, -0.133598f, 0.027403f, 0.154304f, 0.012461f, -0.028059f, 0.052346f, -0.185354f, -0.084868f, -0.381062f, -0.151535f, 0.309009f, 0.313028f, -0.011149f, 0.075824f, 0.106213f, -0.296877f, 0.207656f, -0.277938f, -0.366141f, 0.162039f, -0.291178f, 0.175479f, 0.358700f, 0.263437f, -0.189781f, 0.151605f, -0.169696f, -0.255596f, 0.017493f, 0.092793f, -0.174613f, -0.186382f, -0.006536f, -0.360451f, 0.293136f, 0.135556f, -0.090405f, -0.102456f, -0.025479f, 0.215848f, -0.057807f, 0.238001f, -0.002497f, 0.097023f, -0.036071f, 0.016176f, 0.025560f, -0.169852f, 0.035804f, 0.038758f, -0.061433f, 0.267481f, 0.048678f, -0.091000f, 0.278055f, 0.118108f, 0.074006f, -0.180469f, 0.286827f, -0.135737f, 0.136733f, -0.230787f, -0.155688f, -0.025921f, 0.068613f, 0.390200f, -0.240818f, -0.370228f, 0.106792f, 0.326720f, -0.180007f, -0.389899f, 0.011383f, 0.060527f, 0.247340f, -0.091059f, 0.301127f, -0.084183f, -0.364560f, -0.249137f, -0.022302f, -0.077494f, 0.185224f, 0.048903f, 0.206553f, 0.112328f, -0.028671f, -0.262962f, -0.069336f, 0.168172f, 0.181684f, -0.346949f, -0.007456f, 0.088218f, -0.124944f, -0.233447f, 0.231597f, 0.126683f, -0.245848f, 0.233304f, 0.291693f, 0.391742f, -0.189007f, 0.216351f};
// shape: (128,)

static const float W2[16384] = {0.045755f, 0.025382f, 0.053034f, 0.027759f, 0.094747f, -0.071630f, 0.090426f, -0.057182f, 0.200064f, 0.107174f, -0.007917f, 0.077534f, -0.030288f, -0.026092f, -0.053088f, -0.071457f, 0.008517f, -0.034348f, 0.052452f, -0.052861f, 0.011231f, 0.025533f, 0.037511f, -0.014541f, -0.034997f, 0.110916f, 0.079626f, 0.101267f, -0.024019f, 0.046414f, 0.001255f, 0.017159f, 0.036180f, 0.089475f, -0.032760f, 0.039223f, -0.168059f, 0.030860f, 0.103298f, 0.035712f, -0.051351f, -0.044575f, -0.011784f, 0.083983f, -0.106398f, -0.052447f, -0.027022f, 0.004397f, -0.102304f, 0.045989f, -0.013394f, 0.026706f, -0.010906f, -0.035980f, 0.017622f, -0.081828f, -0.089637f, 0.119856f, 0.076373f, 0.046157f, 0.009097f, 0.038414f, -0.009417f, -0.036051f, 0.046189f, -0.013919f, 0.003541f, -0.060024f, -0.018365f, 0.047730f, 0.038305f, -0.200889f, 0.088820f, 0.048117f, -0.217111f, 0.094825f, -0.075503f, -0.110303f, -0.033683f, 0.085208f, -0.074100f, 0.071488f, 0.018382f, 0.076587f, 0.055559f, 0.084129f, -0.059706f, 0.052267f, 0.033287f, 0.146433f, 0.078635f, 0.062016f, -0.012625f, 0.103503f, -0.072684f, 0.038335f, 0.066334f, 0.081474f, -0.055733f, 0.069969f, 0.081579f, -0.041839f, -0.001108f, 0.068694f, 0.046881f, 0.010164f, 0.059249f, -0.026140f, 0.032193f, 0.016000f, 0.064179f, -0.062912f, -0.020343f, -0.001655f, 0.117822f, 0.060197f, -0.004672f, -0.067097f, -0.034671f, -0.017682f, -0.022404f, 0.071915f, -0.008007f, 0.013767f, 0.062374f, -0.082064f, 0.080300f, 0.011795f, -0.066497f, 0.014727f, 0.099430f, -0.026518f, 0.066169f, -0.009697f, 0.048345f, 0.043836f, -0.039768f, 0.002427f, 0.042778f, -0.063572f, -0.070081f, 0.111920f, 0.129425f, -0.041902f, 0.106407f, -0.037231f, 0.063204f, -0.078795f, -0.004782f, 0.031205f, 0.060688f, 0.029926f, 0.074063f, -0.013134f, 0.046534f, -0.028034f, 0.013627f, 0.042024f, 0.073322f, -0.080480f, 0.058062f, 0.021335f, 0.009968f, 0.012094f, 0.091330f, 0.062403f, -0.024209f, 0.056554f, 0.070568f, -0.019384f, 0.020046f, 0.063872f, -0.025403f, -0.063748f, -0.113040f, 0.059586f, 0.063587f, 0.040158f, -0.051095f, 0.055853f, 0.029512f, 0.042525f, 0.008118f, 0.051182f, -0.066510f, -0.008335f, -0.052943f, 0.016330f, -0.011785f, -0.077126f, -0.042628f, 0.020531f, 0.054419f, -0.014962f, 0.107582f, -0.045924f, -0.056612f, 0.075716f, 0.088874f, -0.134097f, -0.040467f, -0.023228f, -0.100799f, -0.003951f, 0.097622f, -0.079544f, 0.064763f, -0.023219f, -0.029983f, -0.028862f, -0.076384f, 0.108551f, -0.026038f, 0.046582f, 0.017047f, -0.010738f, -0.070704f, -0.099284f, -0.042305f, -0.030598f, 0.053325f, -0.022923f, 0.041723f, -0.035427f, -0.020058f, -0.048704f, 0.068470f, -0.012846f, -0.000368f, -0.067493f, 0.129795f, 0.112015f, 0.087502f, -0.036121f, -0.070040f, 0.056574f, -0.054387f, -0.049899f, 0.012256f, 0.032834f, 0.087727f, -0.003450f, -0.044804f, 0.014129f, -0.019413f, 0.065585f, 0.052142f, 0.087386f, 0.052561f, 0.073811f, 0.094289f, 0.065098f, -0.144406f, -0.000183f, 0.031606f, -0.005887f, 0.010833f, 0.042833f, 0.006298f, 0.075927f, 0.097509f, -0.026620f, 0.039149f, 0.000849f, -0.059277f, -0.044759f, -0.034057f, 0.047794f, -0.113772f, 0.026860f, -0.010014f, -0.003132f, 0.000385f, -0.061838f, -0.001767f, 0.029492f, 0.076538f, -0.071834f, 0.113477f, 0.033833f, 0.064846f, -0.155304f, -0.039566f, -0.030071f, -0.011801f, -0.013787f, 0.086111f, -0.052222f, -0.030111f, 0.048365f, 0.019909f, 0.024382f, -0.061850f, 0.013565f, 0.019456f, 0.059377f, 0.009476f, 0.023121f, 0.039645f, 0.072688f, 0.036325f, -0.141052f, -0.010997f, 0.041573f, 0.053171f, -0.034753f, 0.017696f, 0.031999f, -0.040513f, -0.106190f, 0.052692f, 0.044016f, -0.144555f, 0.028651f, 0.057462f, 0.071348f, -0.013474f, 0.019838f, 0.040835f, -0.040093f, 0.003379f, -0.084077f, 0.094194f, -0.028528f, 0.021154f, 0.031093f, 0.004066f, 0.002709f, -0.033237f, 0.010624f, -0.140877f, -0.072095f, 0.075088f, 0.007582f, 0.037922f, 0.118545f, 0.058362f, -0.187003f, -0.074778f, 0.076327f, 0.073364f, 0.019403f, 0.104751f, -0.003642f, -0.119783f, -0.004809f, -0.037138f, -0.016906f, -0.074046f, -0.141013f, 0.002594f, 0.126221f, 0.055128f, 0.053766f, -0.094547f, -0.056072f, -0.066628f, 0.033262f, 0.064224f, 0.083446f, 0.039456f, -0.019937f, -0.074365f, -0.064246f, 0.069271f, 0.045119f, -0.045672f, -0.029075f, 0.012169f, -0.061364f, -0.082284f, 0.020704f, 0.057160f, 0.063653f, 0.048830f, 0.177370f, 0.018363f, 0.063930f, 0.061413f, 0.030236f, 0.055374f, 0.002490f, -0.049302f, -0.054159f, -0.071714f, -0.055067f, -0.053871f, -0.035987f, -0.096582f, -0.013664f, -0.033010f, -0.019872f, -0.031793f, -0.021946f, 0.032126f, -0.032024f, -0.099406f, 0.025131f, -0.067773f, -0.051745f, 0.002400f, -0.021632f, -0.035652f, 0.008415f, 0.081368f, 0.029063f, 0.051847f, -0.072077f, -0.000226f, -0.099128f, -0.083155f, -0.070485f, 0.034120f, -0.081387f, 0.081789f, 0.044797f, 0.007549f, -0.060195f, 0.049919f, -0.043140f, 0.040026f, 0.044318f, -0.068819f, -0.041986f, 0.072511f, -0.096416f, 0.038754f, 0.060352f, -0.038837f, -0.004761f, 0.025642f, 0.063116f, 0.015445f, -0.066082f, 0.059685f, -0.027290f, 0.059577f, -0.066544f, 0.014486f, -0.083117f, -0.075735f, -0.037006f, 0.001270f, -0.019808f, -0.012821f, 0.076555f, 0.008986f, 0.032843f, -0.033099f, 0.065489f, -0.060170f, 0.062899f, -0.061420f, 0.010577f, 0.049920f, -0.089709f, -0.002834f, -0.024772f, 0.008129f, -0.051501f, -0.010089f, 0.082299f, -0.052049f, 0.029277f, -0.069830f, 0.003487f, -0.039388f, -0.075469f, -0.016238f, -0.072375f, 0.061474f, -0.073702f, -0.009796f, -0.041181f, 0.072785f, -0.078411f, 0.010150f, -0.012324f, -0.006710f, 0.026075f, 0.020981f, -0.019541f, -0.001272f, -0.045610f, -0.030384f, 0.011673f, 0.055510f, -0.012688f, 0.029919f, 0.028603f, -0.014192f, -0.042368f, 0.076969f, 0.000672f, 0.027143f, 0.007072f, 0.025457f, 0.018749f, -0.067266f, -0.088542f, -0.028733f, -0.005438f, -0.057570f, -0.114672f, -0.079801f, 0.000084f, -0.091464f, 0.075231f, 0.025301f, 0.052240f, -0.030408f, -0.025302f, 0.049378f, -0.022462f, 0.017088f, -0.025997f, 0.040181f, -0.081746f, 0.042841f, 0.082652f, 0.003052f, 0.071339f, -0.040336f, -0.050438f, -0.006861f, -0.072598f, -0.063780f, 0.120096f, -0.037236f, -0.036083f, -0.021112f, -0.056361f, 0.083747f, -0.016945f, 0.108213f, 0.077378f, -0.004040f, -0.105248f, 0.051278f, 0.094260f, -0.021568f, -0.064057f, -0.090204f, 0.105390f, -0.090653f, -0.024685f, -0.010130f, 0.082543f, -0.082617f, 0.049486f, -0.069545f, 0.008882f, 0.078684f, -0.014701f, -0.049407f, -0.005513f, 0.006937f, -0.008439f, 0.014966f, -0.044944f, -0.000141f, 0.046851f, -0.064309f, 0.026352f, -0.006420f, 0.087889f, 0.022244f, -0.005424f, -0.049379f, -0.019660f, 0.082932f, 0.038159f, -0.012922f, -0.014019f, 0.017193f, -0.053647f, -0.067950f, 0.016833f, -0.052953f, 0.017549f, 0.034752f, 0.068299f, 0.084555f, -0.053640f, 0.095444f, 0.010339f, -0.110622f, -0.056161f, -0.029517f, 0.012457f, 0.060036f, 0.062003f, 0.021590f, -0.089938f, 0.082794f, 0.042012f, -0.041398f, -0.084007f, 0.079782f, -0.038696f, -0.032177f, 0.100033f, 0.043050f, -0.029063f, 0.054169f, 0.070194f, -0.071244f, -0.054216f, -0.043570f, 0.044888f, 0.059952f, -0.009120f, 0.102199f, -0.049866f, -0.025606f, -0.045233f, -0.070981f, 0.017032f, 0.005249f, 0.031110f, 0.096000f, 0.079134f, -0.044951f, 0.033238f, -0.029890f, -0.041343f, -0.005321f, -0.131280f, -0.039054f, 0.049439f, 0.031880f, 0.014196f, 0.037614f, -0.061666f, -0.073208f, 0.035207f, 0.144136f, -0.013908f, 0.066660f, 0.093095f, -0.015814f, 0.069887f, 0.035732f, 0.087603f, -0.019873f, -0.013189f, 0.073177f, 0.012747f, 0.049417f, -0.006056f, 0.033162f, -0.031922f, -0.051568f, 0.089248f, 0.009832f, -0.081658f, 0.181988f, -0.027858f, 0.043482f, -0.065122f, 0.088050f, -0.011316f, -0.028259f, -0.011865f, 0.010873f, -0.027393f, -0.063563f, 0.002726f, 0.105528f, 0.064615f, 0.058938f, -0.030781f, -0.037944f, -0.025855f, 0.001828f, -0.029512f, 0.048262f, 0.110583f, 0.019598f, 0.070681f, 0.018681f, -0.033713f, 0.152684f, 0.018238f, 0.037513f, 0.023921f, 0.009261f, 0.003307f, 0.011279f, 0.002532f, 0.002625f, 0.099480f, 0.055914f, -0.006256f, -0.067558f, 0.044432f, -0.032106f, 0.121176f, -0.021328f, 0.036021f, 0.032656f, 0.000313f, -0.026261f, -0.028123f, -0.046626f, -0.040298f, 0.075857f, -0.007600f, -0.069378f, -0.017744f, -0.046258f, 0.032092f, -0.012286f, -0.051628f, -0.100198f, 0.018613f, 0.045785f, 0.055191f, 0.038120f, 0.026284f, -0.022048f, 0.022108f, -0.036886f, 0.108943f, -0.027778f, 0.116977f, 0.026829f, 0.001903f, -0.115966f, -0.113847f, 0.009987f, 0.133685f, -0.007607f, 0.013979f, 0.094924f, -0.008726f, -0.062659f, 0.011751f, 0.000538f, 0.019060f, -0.086873f, 0.027904f, 0.123353f, -0.039156f, 0.050075f, -0.049297f, 0.062441f, 0.035704f, -0.084827f, -0.023363f, -0.003544f, -0.037817f, 0.053078f, 0.034325f, 0.036178f, 0.080939f, 0.089744f, 0.084959f, 0.020302f, 0.159357f, -0.086870f, -0.027745f, 0.074529f, 0.041340f, -0.047279f, 0.003850f, -0.041718f, 0.096860f, 0.033240f, 0.071890f, 0.013537f, -0.030669f, 0.075786f, 0.045106f, 0.100531f, -0.016028f, 0.000181f, 0.043934f, 0.093699f, 0.087016f, -0.145327f, 0.089245f, -0.013835f, 0.008510f, -0.046933f, 0.061909f, -0.091666f, -0.078127f, 0.059312f, -0.090890f, -0.043936f, 0.084359f, -0.008707f, 0.052942f, -0.022579f, 0.027379f, 0.012660f, 0.003657f, -0.021071f, -0.006916f, 0.034970f, -0.025873f, 0.060952f, -0.048632f, 0.016981f, 0.078386f, 0.034995f, -0.057710f, -0.040562f, 0.102718f, -0.006411f, -0.013907f, -0.012566f, -0.003925f, 0.050311f, -0.037237f, 0.006158f, -0.004514f, -0.031812f, -0.026627f, -0.015804f, -0.038611f, 0.034810f, 0.071577f, -0.115026f, -0.035056f, -0.037999f, 0.047765f, -0.055116f, 0.001156f, -0.105496f, -0.054600f, 0.020159f, -0.020676f, -0.086730f, -0.042039f, 0.049851f, -0.004020f, 0.064530f, -0.221230f, 0.034882f, 0.041388f, -0.108591f, -0.037409f, -0.019061f, -0.084425f, -0.016480f, 0.046146f, 0.058241f, -0.088673f, 0.088207f, 0.054963f, 0.073630f, -0.043898f, -0.054943f, 0.013553f, -0.013266f, 0.110003f, -0.003100f, -0.033218f, 0.017416f, 0.027369f, -0.139554f, -0.003600f, 0.011145f, 0.133337f, 0.066559f, -0.049933f, 0.058004f, -0.035245f, -0.003066f, 0.049005f, 0.023072f, 0.106463f, 0.048499f, 0.051392f, 0.063316f, 0.031375f, 0.020547f, 0.013110f, -0.055908f, 0.027373f, 0.050657f, 0.058681f, -0.015550f, 0.082761f, 0.079768f, 0.074698f, -0.055419f, -0.041932f, 0.074845f, 0.064099f, 0.119157f, -0.035166f, 0.056057f, 0.099346f, -0.112680f, 0.101426f, -0.009451f, 0.154211f, 0.031609f, 0.029291f, 0.086439f, -0.061803f, -0.056085f, -0.082521f, -0.024544f, 0.035583f, -0.138798f, 0.115368f, -0.014321f, -0.119544f, -0.015509f, 0.102556f, -0.006800f, -0.000949f, 0.007627f, 0.011019f, -0.051210f, -0.059751f, 0.032294f, -0.129541f, 0.074062f, 0.053396f, 0.029592f, -0.096839f, -0.014195f, 0.049921f, 0.166465f, -0.042473f, -0.017062f, -0.166495f, -0.046634f, -0.034966f, -0.032571f, -0.004650f, -0.052082f, 0.040838f, 0.048305f, 0.042376f, 0.112918f, -0.038761f, -0.086972f, -0.136570f, -0.060830f, -0.041707f, 0.089591f, 0.000025f, 0.031091f, 0.015807f, 0.000578f, 0.003661f, -0.017304f, 0.143749f, -0.060873f, -0.072387f, 0.035946f, -0.032476f, -0.086822f, -0.011975f, -0.038253f, -0.026876f, 0.043864f, -0.104148f, 0.006605f, 0.038883f, 0.042066f, 0.048502f, -0.120103f, -0.026741f, 0.133196f, -0.125876f, 0.029456f, 0.012269f, -0.016835f, 0.035363f, 0.011178f, 0.089109f, -0.101657f, 0.026318f, -0.044036f, 0.046742f, 0.109925f, 0.062099f, -0.000327f, -0.134949f, 0.044307f, 0.134691f, -0.046231f, -0.160622f, 0.049021f, 0.034178f, -0.095997f, -0.086179f, -0.068721f, 0.062883f, -0.051331f, 0.007908f, 0.098400f, 0.035030f, 0.024047f, -0.008948f, -0.039905f, 0.099290f, -0.038558f, -0.175851f, -0.049781f, 0.085734f, 0.007289f, -0.039820f, -0.080099f, 0.073042f, -0.035572f, 0.016850f, 0.009337f, -0.046182f, 0.001342f, -0.080844f, 0.018414f, -0.075299f, -0.195410f, -0.095243f, 0.025820f, -0.047684f, -0.039557f, -0.073506f, -0.074449f, -0.005679f, -0.039737f, -0.061932f, 0.015810f, -0.069415f, -0.001248f, -0.054016f, -0.054230f, 0.022090f, 0.003893f, -0.001522f, -0.033668f, 0.086162f, -0.081532f, 0.013280f, -0.052486f, -0.033820f, 0.032559f, -0.080765f, 0.035204f, -0.041500f, 0.055806f, -0.011488f, 0.021160f, -0.012558f, 0.021775f, 0.056411f, -0.062251f, -0.055960f, -0.094819f, -0.012699f, -0.093676f, -0.032750f, 0.048482f, -0.090798f, -0.023549f, 0.002689f, -0.052090f, -0.075508f, 0.006672f, 0.021345f, 0.036862f, 0.083943f, -0.020455f, 0.059680f, -0.010068f, -0.064507f, -0.060313f, -0.076390f, 0.002254f, 0.012183f, -0.038492f, -0.053485f, 0.082088f, 0.069007f, -0.087967f, 0.040176f, 0.064810f, 0.065384f, -0.021234f, -0.066884f, -0.086688f, -0.001560f, -0.068883f, 0.046612f, -0.065989f, -0.050020f, 0.024025f, -0.059731f, 0.073395f, 0.038628f, -0.068038f, -0.073835f, -0.041554f, -0.081265f, 0.001220f, -0.013386f, 0.037859f, 0.062186f, -0.048209f, -0.064834f, 0.036504f, -0.050613f, -0.001538f, 0.000178f, -0.073923f, -0.041062f, -0.017165f, 0.030059f, -0.082969f, -0.011392f, 0.035474f, -0.075933f, -0.047104f, 0.032168f, 0.037060f, -0.008680f, -0.087512f, 0.006797f, -0.005141f, 0.015678f, -0.010390f, 0.004984f, -0.022837f, -0.032202f, -0.020549f, -0.071485f, -0.044240f, 0.019290f, 0.047008f, -0.066667f, 0.058698f, 0.040365f, 0.016526f, -0.032215f, 0.032586f, 0.027178f, -0.049083f, -0.072511f, -0.051498f, 0.028510f, -0.052531f, 0.000834f, -0.032888f, 0.046012f, 0.020558f, -0.004948f, 0.002731f, -0.049754f, 0.002231f, -0.023877f, 0.042479f, -0.032157f, 0.054897f, 0.111850f, -0.028884f, -0.009549f, -0.098255f, -0.045516f, 0.055254f, 0.099067f, 0.000133f, 0.018280f, 0.010419f, 0.079882f, 0.016525f, -0.057457f, -0.037458f, 0.002125f, -0.015115f, 0.064430f, -0.039979f, -0.001981f, 0.051689f, -0.011632f, -0.092937f, 0.118804f, -0.007327f, 0.011699f, -0.055673f, 0.064150f, -0.027715f, 0.038067f, 0.044951f, 0.033741f, 0.080402f, 0.072189f, -0.055016f, 0.055835f, -0.020543f, 0.055255f, 0.124613f, 0.026055f, -0.135239f, -0.078249f, -0.069390f, -0.025963f, -0.042023f, 0.014234f, -0.006253f, -0.061847f, -0.058006f, 0.089999f, -0.050491f, 0.000165f, 0.077186f, 0.003745f, -0.038245f, 0.061558f, 0.058940f, -0.011140f, 0.039964f, 0.068812f, -0.034111f, -0.015617f, 0.037102f, -0.138651f, 0.067037f, 0.088450f, -0.157835f, 0.058494f, -0.044851f, -0.021404f, 0.119074f, -0.047651f, -0.050781f, 0.062417f, 0.050366f, 0.079531f, 0.029493f, -0.009677f, -0.048295f, -0.025887f, 0.086804f, 0.163673f, -0.037479f, 0.010295f, -0.017668f, 0.169722f, -0.103187f, 0.017879f, -0.000409f, 0.034592f, 0.031931f, -0.020731f, 0.015190f, -0.065556f, 0.043232f, -0.052335f, -0.016689f, -0.031926f, 0.019697f, 0.006382f, 0.090621f, -0.019002f, -0.017601f, -0.119716f, -0.043968f, 0.075954f, 0.065245f, -0.097729f, 0.031439f, 0.076506f, -0.009647f, 0.029873f, 0.054927f, 0.032492f, -0.042285f, -0.041574f, 0.137641f, 0.097842f, 0.072596f, 0.072775f, -0.071772f, 0.065009f, -0.033010f, 0.131707f, 0.001173f, 0.071782f, 0.068220f, 0.001467f, -0.178754f, -0.035138f, -0.015362f, -0.019466f, -0.073164f, 0.034411f, 0.112474f, -0.162590f, 0.064091f, 0.027113f, 0.068391f, -0.022701f, -0.087535f, -0.018457f, -0.052994f, -0.192056f, -0.024145f, -0.116574f, -0.046220f, -0.078190f, -0.043424f, -0.051809f, 0.106312f, -0.099274f, 0.061534f, 0.034584f, -0.015087f, -0.096878f, 0.029060f, -0.022165f, 0.027289f, 0.105607f, -0.142209f, 0.054501f, 0.139959f, -0.003958f, 0.128972f, -0.165318f, -0.060767f, 0.014235f, 0.126711f, 0.036455f, -0.016636f, 0.034523f, 0.029763f, -0.135551f, 0.096456f, -0.016186f, 0.024908f, 0.012875f, -0.044674f, -0.026115f, 0.064138f, -0.135070f, -0.052121f, 0.034310f, -0.042636f, 0.022533f, 0.023838f, -0.118772f, 0.050470f, 0.074286f, -0.032084f, 0.149271f, -0.188413f, -0.057981f, 0.052894f, -0.151599f, -0.043039f, 0.034536f, -0.098985f, 0.000206f, -0.017596f, 0.123415f, -0.095240f, 0.013198f, -0.011605f, -0.018754f, -0.030755f, -0.004825f, -0.050323f, -0.222413f, 0.028133f, 0.135621f, -0.069136f, -0.137543f, 0.110037f, 0.036695f, -0.010670f, -0.130851f, -0.022648f, 0.120322f, -0.183892f, 0.106366f, 0.157667f, -0.012877f, 0.032279f, -0.004489f, -0.099507f, -0.020584f, -0.098109f, -0.138975f, -0.006092f, 0.161056f, -0.003221f, -0.001732f, -0.084796f, 0.094433f, -0.015103f, 0.042930f, 0.000134f, 0.072981f, -0.110598f, -0.067728f, -0.013392f, -0.003166f, -0.206941f, -0.058003f, 0.023907f, -0.086798f, -0.065759f, 0.037235f, -0.054939f, 0.035582f, 0.000900f, -0.087287f, 0.001304f, 0.066921f, 0.006243f, -0.128113f, -0.013630f, -0.039677f, -0.083134f, 0.015870f, 0.005393f, -0.035173f, -0.034419f, 0.096625f, 0.062763f, 0.019296f, 0.068774f, -0.017376f, -0.072114f, 0.003686f, -0.043069f, 0.127222f, -0.024236f, 0.020743f, 0.083263f, -0.002626f, -0.060009f, 0.031147f, -0.052387f, 0.046309f, -0.042875f, -0.110961f, -0.015739f, 0.048181f, -0.067033f, -0.042560f, 0.028281f, 0.092964f, 0.007788f, 0.057558f, 0.005843f, 0.004051f, -0.030800f, -0.096742f, 0.032020f, 0.020834f, 0.003414f, 0.072424f, 0.062295f, 0.026254f, 0.041555f, 0.080712f, -0.175949f, 0.034276f, 0.054611f, -0.046904f, 0.023374f, -0.088532f, -0.113207f, 0.036050f, 0.010583f, 0.000128f, -0.045658f, 0.023912f, 0.037651f, 0.030944f, 0.045843f, -0.064692f, 0.141623f, -0.027773f, -0.126850f, -0.024614f, -0.093393f, -0.059908f, -0.013958f, 0.099297f, 0.013390f, -0.052831f, -0.038844f, -0.029185f, -0.000626f, 0.063149f, 0.008633f, 0.032511f, -0.080713f, -0.027530f, 0.100425f, 0.021832f, 0.010824f, -0.115170f, -0.111054f, 0.018273f, -0.017921f, 0.161562f, 0.051474f, -0.003894f, 0.044326f, 0.029463f, 0.045116f, -0.075120f, 0.053376f, -0.021190f, 0.061855f, 0.036325f, -0.011913f, -0.102745f, -0.051355f, -0.042988f, -0.040235f, 0.042933f, 0.025272f, 0.186789f, 0.043876f, 0.018730f, -0.023449f, 0.094085f, 0.063869f, -0.015157f, 0.030177f, 0.047925f, -0.103899f, 0.007516f, 0.058666f, 0.072656f, -0.013807f, 0.078432f, 0.034645f, 0.121351f, -0.026141f, 0.004645f, 0.086468f, 0.068604f, -0.016661f, -0.001503f, -0.015461f, 0.012592f, 0.013057f, 0.046497f, 0.042583f, -0.018541f, -0.035724f, 0.066044f, 0.043057f, 0.036210f, -0.025189f, 0.074807f, -0.064815f, -0.104679f, -0.006983f, -0.029448f, 0.035247f, 0.053047f, -0.017033f, -0.061254f, 0.068193f, -0.173785f, 0.144071f, 0.080611f, -0.058394f, -0.024038f, -0.043443f, 0.018251f, -0.082958f, 0.033079f, -0.045319f, 0.090688f, 0.140507f, 0.075057f, 0.086108f, -0.093649f, -0.185972f, -0.085377f, 0.044276f, -0.001341f, 0.095171f, -0.082096f, -0.032574f, -0.015847f, 0.043302f, -0.036890f, -0.064742f, 0.145258f, 0.004059f, -0.049257f, 0.054882f, 0.052357f, -0.078023f, -0.082771f, -0.052783f, 0.067106f, -0.055514f, -0.030100f, -0.026444f, 0.015065f, 0.044484f, 0.059474f, -0.062886f, 0.043382f, 0.050783f, -0.060136f, 0.044027f, 0.068928f, -0.017349f, 0.055896f, 0.070643f, 0.041484f, -0.049028f, -0.043983f, -0.052375f, 0.005990f, 0.116234f, 0.004843f, 0.029064f, -0.222240f, 0.054881f, 0.048187f, -0.004150f, -0.043496f, 0.003907f, 0.005495f, -0.065365f, -0.051551f, -0.050118f, -0.045352f, -0.055231f, 0.070725f, 0.109672f, 0.109069f, -0.099143f, 0.057595f, -0.037322f, 0.062559f, -0.029086f, -0.050352f, 0.030677f, 0.096946f, -0.014612f, -0.049689f, -0.037833f, 0.086136f, 0.043273f, -0.025791f, -0.055941f, -0.003544f, -0.025976f, -0.074620f, 0.080462f, -0.081814f, -0.083327f, -0.095699f, -0.036761f, 0.036429f, 0.052674f, -0.056913f, 0.133318f, -0.024152f, -0.010857f, 0.006002f, -0.040718f, 0.050701f, 0.084784f, 0.019738f, -0.052377f, 0.029843f, 0.047158f, 0.029491f, -0.002549f, -0.038915f, -0.069282f, 0.068252f, 0.000338f, 0.030355f, -0.035437f, 0.028905f, 0.208046f, 0.031416f, -0.021566f, -0.056646f, -0.041408f, 0.060818f, 0.041387f, 0.028443f, -0.055281f, 0.137372f, -0.117250f, -0.050739f, 0.034894f, 0.033579f, 0.077687f, 0.064417f, 0.082607f, 0.058439f, 0.023495f, 0.033367f, -0.089187f, 0.058647f, -0.041267f, 0.071055f, 0.087809f, 0.057166f, 0.095509f, 0.012024f, 0.014007f, -0.069793f, 0.054235f, 0.022814f, 0.067151f, 0.016749f, -0.018625f, -0.063212f, -0.031377f, 0.057160f, -0.036978f, -0.057720f, 0.062782f, -0.001149f, 0.083466f, -0.035655f, 0.059520f, 0.039366f, -0.056173f, 0.014375f, 0.010896f, -0.099130f, 0.111284f, -0.007596f, -0.089330f, 0.083740f, 0.086169f, -0.030604f, -0.003212f, -0.048108f, 0.068156f, -0.162754f, 0.031143f, -0.037189f, 0.098182f, 0.010341f, -0.038637f, 0.059170f, 0.043915f, 0.137860f, 0.000224f, -0.101927f, -0.029247f, 0.024024f, 0.044504f, -0.028727f, 0.047956f, 0.073522f, 0.047319f, -0.083087f, -0.053549f, -0.066975f, 0.038385f, 0.045588f, 0.019931f, 0.006668f, -0.015075f, 0.068852f, -0.010722f, 0.000061f, 0.050852f, 0.012142f, 0.076295f, -0.009508f, 0.020949f, 0.006823f, -0.020254f, 0.017011f, -0.078119f, 0.133827f, 0.112477f, -0.044269f, 0.050045f, 0.088369f, 0.137147f, 0.069616f, -0.026416f, 0.054025f, 0.049208f, -0.044440f, 0.112202f, 0.202793f, 0.119394f, 0.004062f, 0.021640f, 0.036904f, 0.119059f, -0.079115f, 0.079762f, 0.110760f, -0.022877f, 0.126392f, 0.035805f, -0.024529f, 0.082327f, 0.022176f, -0.069235f, -0.295274f, 0.056790f, -0.101370f, 0.024737f, 0.029732f, -0.042269f, 0.255985f, 0.054665f, 0.094480f, 0.021660f, 0.090072f, 0.087784f, -0.066471f, 0.025778f, -0.067207f, -0.100635f, 0.028149f, -0.048034f, 0.147372f, 0.015731f, 0.113731f, -0.017419f, 0.052451f, 0.239393f, 0.019271f, 0.091683f, -0.021723f, -0.009768f, -0.112563f, -0.130446f, -0.064235f, -0.049796f, 0.015287f, -0.121457f, 0.075159f, -0.189631f, -0.022125f, -0.052962f, -0.027557f, -0.165680f, -0.057716f, 0.019201f, -0.058792f, -0.090182f, -0.093412f, 0.091493f, 0.082779f, 0.098627f, -0.045738f, 0.027949f, 0.178540f, -0.068734f, 0.073070f, 0.244700f, -0.062646f, -0.154027f, 0.087712f, -0.022697f, -0.003453f, -0.078627f, 0.085529f, -0.160976f, -0.181556f, 0.290854f, -0.087316f, -0.067021f, 0.127439f, -0.023544f, -0.023519f, 0.050358f, 0.011985f, 0.076269f, -0.015241f, 0.087608f, -0.050534f, -0.046197f, 0.014780f, 0.006803f, 0.092103f, -0.073449f, -0.063439f, 0.118040f, -0.004646f, -0.002758f, -0.082811f, 0.030865f, 0.099234f, 0.153549f, -0.015536f, -0.040201f, 0.084970f, -0.122007f, 0.087542f, 0.006563f, -0.079500f, 0.117959f, 0.270045f, -0.017266f, -0.130128f, -0.007256f, -0.029342f, -0.043636f, -0.047862f, 0.035600f, 0.015220f, -0.002715f, -0.090398f, 0.023697f, 0.048318f, -0.080036f, -0.082167f, -0.043434f, 0.125340f, 0.045365f, 0.010390f, 0.077239f, -0.010156f, 0.082550f, 0.067486f, 0.086062f, 0.019170f, -0.165372f, 0.057948f, -0.070248f, -0.013282f, 0.059254f, 0.062936f, -0.105455f, 0.043188f, 0.071087f, 0.079898f, -0.119511f, -0.070657f, -0.030952f, 0.061614f, 0.054608f, 0.056848f, 0.048514f, 0.023996f, -0.065526f, -0.171410f, 0.073397f, -0.098738f, -0.036461f, -0.030858f, -0.079754f, -0.095352f, 0.081398f, 0.039750f, -0.049074f, 0.067152f, 0.063580f, -0.035094f, 0.013308f, -0.079372f, -0.099004f, 0.003790f, -0.092625f, -0.052272f, -0.084161f, 0.059065f, 0.012255f, -0.000888f, 0.064734f, -0.048165f, -0.082209f, 0.119022f, 0.017275f, 0.081972f, -0.001787f, -0.055856f, -0.151307f, -0.039748f, 0.034140f, -0.050217f, -0.112267f, -0.010015f, 0.023220f, 0.048845f, 0.045943f, -0.072594f, -0.088591f, 0.041376f, -0.186199f, -0.021678f, 0.014212f, -0.073121f, -0.077722f, -0.084454f, -0.046214f, 0.074591f, 0.018955f, -0.006833f, -0.087927f, 0.039033f, -0.033059f, -0.009423f, 0.121088f, -0.106013f, -0.073188f, -0.021145f, -0.072051f, -0.060794f, 0.064861f, 0.084093f, -0.008681f, 0.107231f, -0.088341f, 0.013682f, -0.032155f, -0.014287f, 0.063081f, 0.014540f, -0.045570f, 0.048294f, 0.042481f, -0.077067f, -0.015294f, -0.065405f, 0.015024f, 0.016310f, 0.016766f, 0.069669f, 0.071321f, -0.059888f, 0.055472f, 0.041292f, -0.066968f, 0.130090f, -0.031358f, 0.057186f, 0.022043f, -0.029927f, -0.148359f, -0.126195f, 0.011477f, 0.000391f, -0.040998f, 0.080255f, -0.019591f, 0.147835f, 0.051192f, 0.035618f, 0.040537f, -0.058944f, -0.130321f, 0.076866f, 0.123036f, 0.037362f, -0.040702f, 0.083714f, 0.098860f, -0.018612f, 0.019418f, 0.029401f, 0.018825f, 0.081526f, 0.088021f, 0.077753f, -0.105228f, -0.083993f, -0.056065f, -0.006891f, -0.007248f, -0.017892f, 0.024847f, -0.092946f, 0.016624f, 0.024295f, 0.172962f, 0.067589f, -0.019320f, 0.018477f, -0.124932f, -0.009344f, 0.089554f, 0.050531f, -0.079458f, -0.021244f, 0.033592f, -0.003082f, -0.047875f, -0.053490f, -0.061773f, -0.041638f, -0.057379f, 0.054600f, -0.017312f, -0.033096f, -0.012131f, -0.014211f, 0.010657f, -0.050768f, -0.063990f, 0.107425f, 0.072655f, -0.061194f, 0.029558f, 0.059952f, -0.083569f, 0.110050f, -0.043368f, -0.073706f, -0.057420f, -0.067501f, 0.079717f, -0.078442f, 0.006445f, -0.150618f, -0.015391f, 0.111019f, -0.074443f, -0.053734f, -0.085433f, 0.049372f, -0.029519f, 0.057052f, 0.011184f, 0.088765f, -0.032486f, 0.073587f, 0.039890f, 0.103839f, 0.114866f, 0.069698f, 0.058225f, -0.022990f, 0.029969f, 0.002351f, -0.044896f, -0.035922f, 0.058862f, 0.054811f, 0.022648f, -0.036709f, 0.004546f, 0.101577f, -0.090216f, 0.070403f, 0.113180f, 0.003053f, -0.002308f, 0.000419f, -0.022162f, 0.054428f, 0.002066f, 0.024321f, 0.079769f, 0.059296f, 0.015466f, -0.019254f, 0.050972f, -0.108555f, -0.023350f, 0.052809f, 0.081785f, 0.014881f, -0.010580f, -0.013132f, -0.026786f, -0.000885f, -0.073551f, -0.110982f, 0.092345f, 0.018565f, 0.024581f, -0.081169f, -0.111418f, -0.202188f, 0.039367f, -0.001662f, 0.124450f, 0.044738f, 0.000198f, 0.173619f, -0.025884f, 0.068198f, 0.060364f, -0.117641f, -0.031815f, 0.126886f, -0.124631f, -0.072663f, 0.094066f, 0.115693f, 0.036828f, -0.038174f, 0.011377f, 0.039898f, -0.134294f, 0.082351f, -0.020820f, -0.016989f, -0.037123f, -0.037446f, -0.170568f, 0.030790f, -0.043399f, 0.029604f, -0.046308f, 0.053519f, -0.103654f, -0.120329f, 0.007039f, 0.034986f, 0.139389f, -0.073308f, -0.140074f, -0.020075f, -0.138110f, 0.028232f, 0.149929f, 0.006246f, 0.091287f, -0.059013f, -0.027113f, 0.006191f, 0.125647f, 0.066746f, -0.000100f, -0.139008f, -0.029276f, 0.035307f, 0.067643f, 0.111461f, 0.029154f, 0.017560f, 0.063199f, 0.070664f, 0.007365f, 0.006130f, -0.168291f, 0.124551f, -0.097736f, -0.068068f, -0.004000f, -0.061624f, 0.091305f, -0.038788f, -0.082981f, 0.061501f, -0.084043f, -0.061528f, 0.126662f, 0.032569f, 0.025836f, 0.057709f, 0.108437f, -0.060743f, -0.029265f, -0.087972f, -0.088247f, -0.045670f, 0.070211f, 0.184872f, -0.181284f, -0.022270f, 0.120355f, 0.125780f, -0.175555f, 0.024131f, 0.094005f, 0.009347f, 0.172952f, 0.064944f, 0.054951f, -0.115851f, -0.063114f, -0.097864f, 0.004768f, -0.017943f, 0.074479f, -0.035298f, 0.149902f, 0.097462f, 0.074218f, -0.179206f, -0.105989f, 0.059837f, 0.074667f, -0.205530f, -0.021111f, 0.033360f, 0.055502f, 0.007398f, 0.091263f, -0.034828f, -0.017475f, 0.060721f, 0.052872f, 0.051753f, 0.041275f, 0.058107f, -0.124665f, -0.066670f, -0.001922f, 0.102752f, 0.020648f, 0.051055f, 0.087090f, -0.162717f, -0.244871f, 0.005599f, -0.041089f, -0.012610f, -0.045852f, 0.089730f, 0.080453f, 0.020884f, 0.029057f, 0.000670f, 0.076086f, -0.017138f, -0.120315f, 0.119583f, -0.169858f, -0.203802f, -0.031396f, -0.037365f, 0.024334f, -0.083727f, -0.071861f, -0.056594f, 0.101614f, -0.137244f, 0.198362f, -0.078432f, -0.013255f, -0.197774f, -0.035492f, -0.132325f, -0.109950f, 0.092218f, -0.024924f, 0.004860f, 0.041931f, -0.003368f, 0.087699f, -0.168907f, -0.147951f, 0.002590f, -0.050511f, -0.097759f, 0.106198f, 0.065668f, 0.061357f, -0.066983f, 0.136759f, 0.072748f, -0.063971f, 0.031411f, -0.005441f, -0.098397f, -0.024840f, -0.141542f, -0.108660f, -0.039693f, -0.119908f, 0.019924f, -0.222716f, -0.060097f, -0.040617f, -0.084927f, -0.096175f, 0.166514f, -0.137138f, 0.000564f, 0.094420f, -0.172770f, -0.000239f, 0.092582f, -0.067120f, -0.028274f, 0.045136f, 0.101128f, -0.226858f, 0.053538f, -0.141495f, 0.034708f, 0.021782f, 0.022205f, -0.071090f, -0.090122f, 0.025615f, 0.162527f, -0.185594f, -0.165455f, -0.065577f, -0.023997f, -0.102694f, -0.085140f, 0.027249f, 0.118822f, -0.180172f, -0.005813f, 0.142895f, -0.035992f, -0.013355f, 0.035877f, -0.153768f, -0.030313f, -0.017587f, -0.183711f, -0.000403f, 0.045914f, -0.029805f, -0.057867f, -0.156290f, 0.038043f, 0.016717f, 0.036674f, 0.068111f, -0.031018f, -0.113096f, -0.062617f, -0.074633f, -0.130301f, -0.067233f, -0.146866f, -0.043087f, -0.089677f, 0.062254f, 0.074506f, 0.114751f, 0.022603f, -0.038988f, -0.021731f, -0.024395f, -0.008785f, -0.133674f, -0.047127f, 0.054984f, -0.070955f, -0.071114f, 0.079569f, -0.064267f, -0.021589f, 0.065407f, -0.029854f, -0.002226f, -0.100286f, 0.051755f, 0.036102f, 0.060183f, -0.014085f, 0.033299f, 0.054909f, -0.079255f, -0.053179f, 0.077869f, 0.044930f, 0.009164f, -0.031350f, 0.004271f, -0.063561f, -0.023060f, -0.048098f, 0.104469f, 0.054460f, -0.051526f, 0.002373f, 0.072706f, -0.029248f, 0.013939f, -0.040386f, -0.030414f, -0.020632f, -0.108153f, 0.058708f, 0.018688f, 0.087519f, 0.025669f, 0.031044f, -0.011781f, -0.014762f, -0.024140f, 0.092778f, -0.016754f, 0.122511f, -0.001220f, 0.073489f, -0.000423f, 0.040416f, -0.012067f, 0.005143f, -0.112868f, 0.041440f, 0.076127f, -0.051821f, -0.085780f, -0.069919f, 0.088640f, 0.069659f, -0.070445f, -0.077379f, 0.074465f, -0.035895f, 0.079878f, 0.048846f, -0.017289f, -0.046341f, -0.085636f, -0.028096f, 0.037994f, 0.018145f, -0.006631f, 0.067238f, -0.023256f, -0.036130f, -0.113028f, 0.004103f, 0.012554f, 0.047776f, -0.070976f, -0.163379f, 0.069435f, -0.024177f, 0.008622f, 0.017924f, -0.057145f, 0.023912f, -0.076832f, 0.057116f, 0.041668f, 0.034466f, 0.004250f, -0.025460f, 0.008751f, 0.072579f, 0.032884f, -0.102981f, 0.058447f, -0.034521f, -0.053368f, -0.066010f, -0.043243f, 0.169904f, 0.054936f, 0.062961f, 0.023684f, 0.102705f, -0.055154f, 0.073341f, 0.048930f, -0.018119f, -0.049855f, 0.000694f, -0.057476f, 0.032183f, 0.066481f, -0.023733f, -0.043001f, -0.056626f, -0.002828f, -0.069826f, -0.010472f, 0.056702f, -0.054922f, -0.021550f, 0.068677f, 0.045459f, 0.010190f, -0.092730f, -0.080669f, -0.004237f, -0.049614f, -0.028892f, -0.043449f, -0.004078f, -0.027037f, -0.022036f, -0.070219f, -0.035406f, 0.047296f, -0.062766f, 0.048925f, 0.021267f, -0.079728f, 0.055060f, 0.039348f, 0.030755f, -0.039434f, -0.019654f, -0.052280f, 0.049453f, -0.123769f, 0.022723f, 0.049414f, 0.037207f, -0.010654f, -0.038915f, -0.021419f, -0.045959f, -0.097711f, 0.043830f, 0.062607f, 0.060322f, -0.025805f, -0.027686f, -0.076540f, -0.090985f, 0.001353f, -0.035866f, 0.006475f, 0.078581f, 0.025838f, -0.012972f, 0.034818f, 0.015044f, -0.031776f, -0.023155f, 0.062766f, -0.044173f, 0.028344f, -0.055831f, 0.065991f, 0.008017f, 0.072030f, 0.005396f, 0.078358f, -0.017005f, -0.068643f, -0.086855f, 0.046984f, -0.084607f, -0.004443f, 0.074348f, -0.079517f, -0.046589f, -0.002708f, -0.067249f, 0.018036f, -0.017669f, -0.077293f, -0.046815f, -0.031751f, 0.039698f, -0.001420f, 0.043813f, -0.034356f, -0.051997f, -0.036699f, -0.075534f, 0.065067f, 0.013135f, -0.003854f, -0.010143f, -0.079379f, -0.065333f, -0.061428f, -0.076578f, 0.046143f, 0.024726f, -0.050305f, -0.041195f, 0.049049f, -0.052129f, 0.010688f, 0.044015f, -0.046531f, -0.038271f, -0.029723f, -0.115880f, -0.043524f, -0.064023f, -0.010150f, -0.043679f, -0.052679f, -0.080245f, -0.052645f, -0.046649f, -0.052332f, 0.060895f, 0.033456f, 0.003517f, 0.013159f, -0.073250f, -0.055562f, 0.072108f, 0.095614f, 0.046491f, -0.025477f, 0.074880f, -0.033984f, -0.151813f, -0.180144f, -0.158328f, -0.246093f, -0.044333f, -0.039022f, 0.030326f, -0.075292f, -0.165779f, 0.223573f, -0.050888f, 0.068872f, 0.029316f, -0.110974f, -0.045276f, -0.200290f, -0.081642f, 0.043835f, -0.037593f, -0.080881f, -0.096429f, -0.021451f, -0.137811f, 0.075127f, -0.185366f, 0.081417f, 0.019669f, -0.012641f, -0.163650f, -0.085093f, -0.059502f, 0.006692f, 0.066892f, -0.011310f, -0.124809f, 0.054063f, -0.048395f, 0.032446f, -0.106160f, -0.149337f, -0.155530f, -0.072988f, 0.040848f, -0.033010f, 0.006437f, 0.042183f, 0.036258f, 0.055380f, 0.121538f, 0.070236f, 0.117684f, -0.171007f, -0.104565f, -0.001089f, -0.031523f, -0.026416f, -0.143905f, -0.136311f, 0.063068f, -0.114080f, -0.166282f, -0.062330f, 0.065840f, -0.070347f, 0.044462f, -0.200505f, -0.006480f, 0.145986f, -0.063803f, -0.022603f, 0.030800f, -0.037922f, -0.024871f, -0.018600f, 0.100454f, -0.104449f, -0.118966f, -0.038555f, 0.108771f, -0.079879f, -0.046532f, -0.181789f, -0.200797f, -0.037973f, 0.110698f, -0.103473f, -0.192880f, 0.134505f, 0.026176f, -0.128004f, -0.338139f, -0.120888f, -0.004185f, -0.113676f, 0.042215f, 0.074209f, 0.093752f, 0.019319f, -0.018241f, -0.021197f, 0.039178f, -0.064159f, -0.015698f, -0.101194f, 0.052030f, 0.040253f, -0.077955f, -0.118081f, 0.021428f, 0.074572f, 0.018074f, 0.038686f, -0.370609f, -0.090050f, -0.129245f, -0.004786f, -0.088776f, -0.278093f, -0.047820f, -0.048963f, -0.094550f, 0.073164f, 0.021307f, -0.065803f, -0.003979f, 0.022848f, -0.015222f, 0.060601f, 0.011208f, -0.001075f, -0.080813f, 0.019855f, -0.058223f, -0.004538f, -0.041906f, -0.070886f, 0.035279f, -0.049319f, 0.057529f, -0.049449f, -0.055749f, -0.083163f, -0.017421f, -0.077690f, 0.073208f, 0.055876f, -0.059401f, -0.026536f, 0.011140f, -0.045089f, 0.007310f, 0.065225f, 0.068253f, -0.011593f, -0.004386f, 0.049879f, 0.068787f, 0.011600f, -0.061479f, -0.082744f, -0.054736f, 0.017321f, -0.080269f, 0.016103f, -0.056574f, 0.033832f, 0.032970f, -0.060083f, 0.021886f, -0.081986f, -0.046704f, -0.097178f, 0.006074f, 0.037563f, 0.031824f, -0.066650f, -0.053121f, -0.001199f, 0.029001f, -0.066642f, 0.053516f, -0.061388f, -0.038250f, -0.020033f, -0.065234f, 0.010991f, 0.045572f, -0.047758f, -0.072387f, -0.033525f, -0.045404f, -0.061502f, 0.034080f, -0.037491f, -0.066457f, -0.064957f, -0.020314f, 0.049670f, -0.016537f, 0.025355f, 0.049080f, 0.036410f, -0.033925f, 0.040428f, 0.072378f, -0.059024f, 0.059215f, -0.021429f, -0.089629f, -0.063022f, -0.056057f, -0.083985f, -0.018333f, -0.007011f, 0.042951f, 0.030605f, -0.031965f, 0.051469f, 0.060556f, -0.056134f, -0.047716f, 0.029927f, 0.074991f, -0.034145f, -0.077292f, -0.099131f, -0.030180f, 0.050597f, -0.032260f, -0.035651f, -0.078716f, -0.034221f, -0.055704f, -0.076419f, -0.033559f, -0.020287f, 0.012175f, 0.057452f, 0.040656f, 0.038675f, -0.027064f, 0.048029f, -0.062425f, -0.029261f, -0.011590f, 0.007017f, -0.029641f, -0.017331f, -0.017047f, 0.066573f, -0.005448f, 0.031814f, -0.019454f, -0.021917f, 0.010592f, -0.086731f, 0.083139f, -0.040349f, 0.060456f, 0.038342f, 0.056246f, -0.059315f, -0.031482f, 0.045709f, -0.061165f, -0.070449f, 0.000813f, -0.026723f, -0.001279f, -0.017395f, -0.028080f, 0.192179f, 0.080187f, -0.028560f, -0.098880f, 0.038944f, 0.008622f, 0.043466f, -0.056305f, -0.095224f, -0.025470f, -0.065778f, 0.018109f, 0.006910f, -0.031649f, 0.184325f, 0.046911f, 0.038567f, 0.011483f, 0.045045f, 0.004071f, 0.014728f, 0.050414f, 0.019976f, -0.020455f, 0.039414f, -0.047286f, 0.066980f, 0.020605f, -0.000410f, 0.071228f, 0.000902f, -0.030185f, 0.004419f, 0.080270f, -0.083183f, -0.017777f, 0.051486f, -0.016772f, 0.011409f, -0.069647f, 0.123146f, -0.068535f, 0.032740f, -0.039200f, 0.184536f, 0.135198f, -0.076670f, -0.054827f, 0.064399f, -0.089313f, -0.032765f, 0.073016f, -0.114664f, 0.070058f, 0.054884f, -0.069954f, 0.041662f, -0.037011f, 0.052359f, -0.094122f, -0.044173f, -0.102311f, -0.064684f, -0.045299f, -0.037048f, -0.011831f, -0.092728f, 0.066171f, 0.046417f, 0.037321f, 0.069145f, 0.033240f, 0.086286f, -0.034605f, -0.018045f, 0.083085f, 0.055088f, 0.018203f, 0.026710f, -0.051126f, -0.041047f, 0.097549f, 0.055418f, -0.019583f, 0.018326f, 0.005989f, 0.114039f, -0.034432f, -0.053808f, -0.009653f, -0.015462f, -0.013241f, -0.078515f, -0.049788f, -0.060720f, 0.027991f, -0.063728f, 0.077106f, 0.040803f, -0.044232f, 0.038675f, 0.004541f, 0.159640f, 0.032714f, 0.037632f, -0.071567f, -0.034079f, 0.056185f, -0.005575f, -0.148308f, 0.012595f, 0.017238f, 0.038326f, -0.007234f, 0.082986f, 0.051592f, 0.090703f, 0.039301f, -0.083928f, -0.008056f, -0.028350f, -0.072389f, 0.023661f, 0.028437f, 0.065807f, -0.088059f, 0.030554f, 0.008229f, 0.170379f, -0.030079f, 0.065694f, -0.072174f, 0.087441f, 0.089890f, -0.019631f, -0.018623f, 0.016197f, -0.032595f, -0.071624f, 0.100030f, 0.029817f, -0.001074f, 0.080039f, 0.102824f, 0.005881f, 0.081489f, 0.042888f, 0.039641f, -0.081272f, 0.055851f, 0.021481f, 0.044380f, -0.081171f, 0.026227f, -0.056823f, 0.039771f, -0.008736f, 0.062259f, -0.060416f, 0.058786f, 0.046180f, -0.041198f, -0.158539f, -0.098901f, 0.045534f, 0.045464f, 0.090374f, 0.049070f, -0.072855f, -0.039222f, -0.024191f, -0.082061f, 0.109270f, -0.018958f, 0.044062f, -0.006507f, -0.053363f, -0.100482f, 0.011647f, -0.049302f, -0.091753f, 0.097789f, -0.046718f, -0.026648f, -0.034309f, 0.097728f, -0.052992f, -0.156005f, 0.090200f, 0.012465f, 0.027764f, -0.069989f, -0.016158f, -0.021524f, -0.122120f, 0.046173f, -0.059304f, 0.021806f, -0.040124f, -0.009601f, -0.097218f, -0.060661f, -0.017154f, 0.147408f, -0.002870f, 0.049855f, 0.099425f, -0.058665f, -0.027466f, 0.023782f, -0.088643f, -0.041179f, 0.026247f, -0.057853f, -0.007029f, -0.047571f, -0.043732f, 0.093111f, 0.055118f, 0.057520f, 0.104691f, -0.043223f, 0.020475f, 0.040886f, 0.066535f, 0.140416f, -0.029349f, -0.053453f, 0.036569f, 0.094901f, 0.002553f, -0.031464f, 0.016078f, -0.001582f, -0.013574f, -0.001310f, -0.097950f, -0.107565f, -0.040293f, 0.063780f, -0.009415f, 0.027241f, 0.078022f, 0.087765f, -0.017688f, 0.073103f, -0.111534f, 0.021986f, 0.089372f, -0.028269f, -0.001640f, -0.031987f, -0.037592f, 0.049147f, -0.055656f, 0.024001f, -0.069843f, -0.095814f, 0.043876f, 0.000212f, -0.057065f, 0.027529f, 0.022477f, 0.072071f, -0.020331f, 0.002013f, 0.001786f, 0.081623f, -0.014655f, 0.031438f, -0.090498f, -0.111616f, 0.013617f, 0.100929f, 0.063800f, 0.024709f, 0.072559f, -0.080357f, -0.010822f, -0.043127f, 0.024366f, -0.067541f, -0.066420f, -0.033290f, 0.020672f, 0.008262f, 0.101360f, -0.119010f, -0.007481f, -0.065345f, -0.039646f, 0.195143f, -0.018857f, 0.018133f, 0.074455f, -0.019947f, 0.010049f, 0.148429f, 0.019963f, -0.031838f, 0.017812f, 0.116946f, -0.053414f, -0.013345f, -0.064479f, -0.252187f, -0.000777f, 0.039873f, -0.224819f, 0.005469f, -0.092881f, 0.035076f, 0.053738f, -0.055991f, -0.033173f, 0.203050f, -0.031286f, -0.003549f, -0.019772f, 0.073311f, 0.028583f, -0.047263f, 0.155785f, -0.078479f, -0.025244f, 0.122371f, 0.052744f, 0.115013f, 0.064612f, 0.035395f, -0.015790f, 0.039372f, -0.023119f, -0.020983f, 0.070712f, 0.020160f, 0.049479f, -0.081502f, 0.075995f, 0.091329f, -0.031306f, -0.028907f, -0.046011f, 0.050084f, -0.048455f, -0.053480f, 0.069710f, -0.015374f, -0.056553f, -0.135731f, -0.030611f, 0.013207f, 0.044782f, -0.110300f, -0.013750f, -0.096262f, 0.040113f, 0.049456f, 0.050349f, -0.063163f, -0.088347f, 0.020235f, 0.002289f, -0.058791f, 0.055775f, -0.115674f, 0.004770f, 0.087912f, -0.041769f, -0.032007f, 0.121666f, 0.101900f, 0.093739f, 0.039599f, 0.036241f, -0.063147f, 0.042505f, -0.048387f, -0.073630f, -0.086736f, -0.022339f, -0.106678f, 0.079658f, -0.040608f, -0.040265f, -0.041624f, -0.039433f, 0.109464f, -0.017696f, -0.008104f, -0.020300f, -0.065103f, -0.086086f, 0.001389f, -0.092639f, 0.083757f, -0.052186f, -0.028975f, 0.036466f, 0.111504f, 0.082341f, -0.032839f, 0.077959f, 0.059906f, -0.076929f, 0.018052f, -0.208427f, 0.040263f, -0.004449f, 0.010761f, -0.079251f, -0.066086f, -0.114639f, 0.048535f, -0.083404f, 0.189862f, -0.005459f, -0.038138f, -0.089584f, -0.046130f, -0.081118f, 0.022603f, -0.058025f, -0.014505f, -0.111105f, -0.005751f, 0.017138f, 0.048277f, 0.029166f, -0.079138f, -0.069041f, 0.028474f, 0.005935f, -0.082179f, 0.116281f, -0.057773f, -0.152546f, -0.034539f, -0.007241f, -0.045220f, -0.000113f, 0.072455f, -0.062803f, -0.013677f, 0.062661f, -0.000029f, -0.089680f, 0.044756f, -0.024703f, -0.003399f, 0.065700f, 0.225566f, 0.015940f, -0.027641f, 0.018637f, -0.003135f, -0.161214f, 0.064993f, -0.061964f, 0.071833f, 0.076477f, 0.077566f, -0.001314f, -0.026255f, -0.119984f, 0.000611f, 0.077009f, -0.011523f, 0.031366f, 0.024333f, 0.038190f, 0.125935f, 0.036937f, -0.072959f, 0.071773f, -0.058518f, 0.028007f, 0.049457f, 0.058975f, 0.005625f, 0.061295f, 0.010262f, 0.016962f, 0.072843f, -0.036289f, 0.066300f, 0.182525f, 0.067338f, 0.009769f, 0.004022f, 0.107747f, -0.089414f, 0.000546f, -0.117716f, 0.056811f, 0.079927f, 0.033999f, -0.075415f, 0.125584f, 0.082087f, 0.053993f, 0.010334f, -0.140478f, -0.036210f, -0.074761f, -0.016567f, -0.087396f, -0.029392f, 0.054065f, -0.008804f, -0.037446f, 0.011794f, -0.111441f, 0.072839f, -0.093184f, 0.031322f, 0.019449f, 0.104402f, 0.018550f, 0.051778f, -0.051590f, 0.091436f, 0.068343f, -0.088818f, -0.090285f, 0.141868f, -0.065510f, -0.019929f, 0.028393f, -0.043441f, 0.056309f, 0.066723f, -0.009967f, 0.000472f, -0.137863f, 0.073553f, 0.134482f, -0.058618f, -0.038861f, -0.025910f, -0.008336f, -0.048525f, 0.063784f, 0.006046f, -0.045144f, -0.058120f, 0.024113f, 0.069608f, -0.013731f, 0.084726f, 0.027509f, -0.039933f, 0.040012f, 0.083783f, -0.017973f, 0.040898f, -0.005634f, 0.046893f, -0.018540f, -0.083292f, -0.026557f, -0.113706f, -0.010147f, 0.060542f, -0.117763f, 0.044606f, -0.040965f, -0.058334f, 0.055026f, 0.080675f, -0.049981f, 0.129671f, -0.027264f, 0.064625f, 0.074141f, -0.015618f, -0.077587f, 0.060551f, 0.051698f, 0.103178f, 0.001915f, 0.001089f, 0.041597f, 0.143782f, -0.098243f, 0.066243f, 0.070191f, -0.043367f, 0.081998f, -0.014481f, 0.015230f, -0.070118f, -0.061534f, -0.083618f, 0.057494f, 0.139756f, 0.075886f, 0.037405f, 0.135639f, 0.011676f, 0.069166f, -0.033466f, 0.023246f, 0.012146f, 0.160673f, -0.138769f, -0.068872f, 0.079997f, -0.021633f, -0.068269f, -0.000887f, 0.074920f, 0.087440f, -0.022922f, 0.078829f, 0.057896f, -0.041875f, -0.047352f, -0.045042f, 0.061444f, 0.090365f, -0.130808f, -0.040402f, -0.036262f, 0.025213f, 0.066051f, -0.090899f, -0.028408f, -0.085751f, 0.069201f, 0.002175f, -0.119682f, 0.037842f, 0.024032f, -0.069273f, -0.068452f, -0.005268f, 0.001713f, -0.071685f, 0.013231f, 0.133223f, 0.029430f, -0.049558f, -0.008193f, -0.055897f, -0.068229f, 0.027066f, 0.049372f, -0.051618f, 0.072335f, -0.024415f, 0.039922f, -0.013852f, 0.123926f, 0.093496f, -0.037889f, 0.070790f, -0.065186f, 0.047313f, -0.006053f, -0.109753f, 0.018016f, -0.096685f, -0.010291f, 0.025846f, 0.056691f, -0.021186f, 0.081221f, 0.040555f, 0.009753f, 0.054655f, 0.047921f, 0.036465f, -0.058124f, -0.021685f, -0.045379f, 0.044966f, -0.006052f, 0.031988f, -0.001245f, 0.103757f, -0.033846f, 0.031886f, 0.096527f, 0.007417f, 0.106578f, 0.006533f, 0.049403f, -0.020155f, 0.022827f, 0.013071f, -0.055299f, 0.018900f, 0.057222f, 0.010737f, -0.019156f, 0.075206f, -0.040851f, 0.048334f, -0.078779f, 0.124915f, 0.062776f, 0.080899f, -0.104764f, -0.039660f, -0.039265f, -0.045061f, 0.186305f, -0.064471f, -0.075964f, 0.075784f, 0.095699f, -0.089581f, -0.080514f, -0.072259f, 0.061239f, -0.041261f, 0.032498f, 0.004846f, 0.015266f, -0.159484f, 0.057599f, -0.007608f, -0.014550f, 0.044402f, -0.039466f, 0.103166f, 0.023887f, -0.019328f, -0.073823f, -0.042075f, 0.000979f, 0.035973f, -0.050970f, 0.072408f, 0.022860f, 0.050174f, 0.043380f, 0.039008f, 0.071143f, -0.012820f, 0.118987f, 0.133926f, 0.003518f, 0.050062f, -0.015975f, 0.109465f, -0.051159f, -0.016551f, -0.059780f, -0.011585f, -0.001204f, -0.004838f, 0.059987f, 0.049850f, 0.085553f, -0.056535f, -0.071817f, 0.071694f, -0.053459f, -0.092155f, 0.061444f, -0.060190f, -0.056536f, 0.087949f, 0.064496f, 0.030813f, -0.000089f, 0.032455f, 0.106327f, 0.021280f, 0.010795f, 0.056242f, 0.029055f, 0.043030f, 0.083158f, -0.058570f, 0.042347f, -0.072377f, -0.080358f, 0.027612f, 0.120163f, 0.051344f, 0.056495f, 0.022778f, -0.083153f, 0.036056f, 0.016591f, -0.075480f, -0.049939f, -0.038024f, 0.128236f, 0.138363f, -0.022041f, 0.084059f, 0.078451f, -0.092439f, 0.028808f, 0.010680f, 0.028458f, -0.077428f, -0.071251f, 0.038511f, -0.157124f, -0.008888f, -0.021005f, -0.056375f, 0.034413f, 0.002770f, -0.031203f, 0.093596f, 0.039632f, -0.084099f, -0.019337f, 0.034987f, 0.036250f, 0.049644f, 0.042255f, 0.101957f, -0.041711f, -0.132407f, 0.009226f, -0.028928f, -0.072455f, 0.037621f, 0.093442f, -0.018233f, -0.051432f, 0.142461f, -0.033151f, 0.010254f, -0.047845f, 0.013859f, -0.050026f, -0.079242f, 0.177225f, -0.081009f, -0.047230f, 0.123555f, 0.048443f, -0.059906f, 0.015626f, 0.087248f, -0.006028f, 0.102897f, -0.088415f, 0.129685f, -0.044411f, -0.065508f, 0.024942f, -0.063600f, -0.069852f, 0.131332f, -0.029372f, 0.038344f, 0.035360f, -0.032519f, -0.096891f, -0.006361f, 0.023222f, 0.018747f, -0.020275f, -0.074645f, 0.024262f, 0.034851f, 0.015993f, 0.015174f, 0.074933f, 0.056978f, 0.005045f, 0.047939f, 0.041755f, -0.039345f, -0.014708f, -0.029459f, 0.033664f, 0.068523f, -0.137213f, -0.042372f, 0.036218f, -0.065026f, 0.096241f, 0.013548f, 0.004426f, 0.012601f, -0.041281f, -0.071296f, -0.091072f, 0.048597f, -0.014679f, -0.082704f, 0.054936f, 0.002569f, -0.022991f, 0.051309f, -0.086435f, 0.158254f, 0.111341f, 0.011040f, -0.096160f, 0.043206f, -0.008272f, 0.007583f, 0.043331f, -0.001135f, -0.022954f, -0.146521f, 0.080845f, -0.054481f, 0.101520f, 0.066018f, -0.007254f, -0.060439f, 0.028465f, 0.018839f, -0.004105f, -0.004717f, -0.062686f, -0.041071f, 0.012115f, 0.053330f, 0.123088f, 0.122037f, 0.047122f, 0.005692f, 0.045584f, 0.047334f, -0.067670f, 0.068008f, -0.004671f, -0.028212f, -0.072906f, 0.061182f, -0.016025f, 0.092612f, 0.059342f, 0.032107f, -0.032751f, -0.008709f, -0.029075f, 0.055052f, 0.083051f, -0.041844f, -0.022949f, 0.053406f, -0.045470f, 0.072269f, -0.031878f, -0.161023f, 0.075081f, 0.031002f, -0.010621f, -0.009344f, 0.024621f, -0.026880f, -0.034688f, 0.044289f, -0.009509f, 0.045404f, -0.017465f, 0.031468f, 0.009191f, -0.141126f, 0.096291f, 0.066629f, -0.030121f, 0.080376f, -0.004067f, 0.057859f, 0.051803f, -0.020015f, 0.104547f, 0.005514f, -0.048145f, 0.055676f, -0.014815f, -0.055048f, 0.080166f, -0.078647f, -0.062354f, 0.078134f, 0.000993f, 0.029960f, -0.029535f, -0.005439f, 0.000658f, -0.034196f, -0.052382f, -0.046229f, -0.056958f, -0.032724f, -0.019645f, 0.010251f, 0.045544f, 0.025212f, 0.016916f, -0.039046f, 0.036108f, 0.195194f, 0.051682f, 0.002864f, 0.054190f, -0.055423f, -0.002859f, -0.077464f, 0.145856f, -0.051393f, -0.083249f, 0.056160f, 0.052793f, -0.076608f, -0.039219f, 0.004325f, -0.026152f, -0.056416f, 0.106254f, 0.110018f, -0.108673f, -0.011075f, 0.001218f, -0.080656f, 0.085432f, 0.070663f, 0.043864f, -0.032923f, 0.013510f, 0.036793f, -0.130045f, -0.068067f, -0.080138f, -0.038029f, -0.031941f, 0.015847f, -0.038158f, -0.031443f, -0.030723f, -0.014460f, -0.174967f, -0.031946f, -0.009098f, -0.077128f, 0.106170f, 0.000114f, 0.048897f, 0.114878f, -0.009044f, 0.118410f, -0.070257f, -0.110867f, -0.110011f, -0.053123f, 0.074466f, -0.013428f, 0.086545f, -0.076309f, -0.035408f, 0.046556f, 0.030805f, -0.024265f, 0.176963f, -0.099871f, -0.027824f, -0.034057f, -0.042257f, -0.011819f, -0.027789f, -0.000147f, 0.006886f, 0.051463f, -0.042285f, -0.019352f, -0.060254f, 0.029312f, 0.013748f, -0.184554f, -0.021405f, 0.017686f, -0.017354f, 0.009838f, 0.025151f, 0.026109f, 0.016716f, 0.024263f, -0.091280f, -0.075657f, 0.076492f, -0.048504f, 0.115558f, 0.106859f, 0.021806f, 0.076085f, -0.177464f, 0.120638f, 0.094654f, -0.004167f, -0.135056f, 0.040694f, -0.015998f, 0.020180f, -0.023210f, -0.055729f, 0.063423f, -0.086648f, 0.083499f, 0.067736f, 0.047508f, 0.040206f, -0.016911f, -0.127351f, -0.062221f, 0.052409f, -0.002595f, 0.033008f, 0.037650f, -0.034938f, -0.013231f, 0.088166f, 0.154838f, -0.013672f, 0.058761f, 0.083096f, 0.055973f, 0.036849f, -0.060622f, 0.038953f, -0.033871f, -0.082056f, -0.060855f, 0.006907f, -0.016307f, 0.130522f, -0.086643f, -0.081506f, -0.044818f, 0.059211f, 0.017219f, 0.028927f, -0.056819f, -0.003797f, 0.196463f, -0.048790f, 0.058133f, 0.004247f, -0.073926f, -0.147022f, 0.031406f, -0.087904f, -0.091910f, 0.078955f, -0.031921f, -0.040762f, -0.012316f, 0.048827f, 0.248279f, -0.037510f, -0.035967f, -0.027783f, -0.062430f, -0.026863f, 0.052085f, -0.071685f, 0.029977f, 0.071762f, -0.039163f, 0.107349f, 0.116661f, 0.064701f, 0.060872f, 0.062620f, -0.141854f, 0.024685f, -0.088547f, -0.124046f, -0.007818f, -0.069406f, 0.063203f, 0.177619f, 0.074741f, 0.051136f, -0.079294f, -0.111184f, -0.016741f, 0.153948f, 0.103736f, 0.027331f, -0.100407f, 0.005877f, -0.053087f, 0.130885f, 0.026115f, 0.031185f, 0.018647f, 0.078574f, 0.102456f, 0.021437f, 0.094201f, -0.029040f, 0.055645f, -0.067454f, -0.023194f, 0.004415f, -0.028115f, 0.162902f, -0.045749f, 0.120868f, 0.053756f, 0.013647f, 0.050395f, 0.066008f, -0.023683f, 0.030907f, 0.197240f, 0.022004f, 0.031353f, -0.038176f, -0.043208f, -0.077117f, 0.005034f, -0.024828f, 0.210386f, -0.075203f, -0.163910f, 0.064748f, 0.195110f, -0.059626f, -0.108413f, -0.018701f, -0.058269f, 0.006945f, -0.053322f, 0.113925f, -0.077391f, -0.066851f, -0.062889f, 0.021306f, 0.110817f, 0.145273f, -0.034190f, 0.065582f, 0.034124f, -0.043322f, -0.019868f, -0.058364f, 0.028378f, 0.106785f, -0.120726f, 0.042466f, 0.056270f, -0.091011f, -0.146294f, -0.052863f, -0.093518f, -0.048626f, -0.019874f, 0.057267f, 0.083459f, 0.070518f, -0.015753f, -0.029812f, -0.041542f, -0.088945f, -0.047116f, -0.018827f, 0.057486f, -0.052097f, -0.018704f, 0.070998f, -0.046011f, -0.010744f, -0.061966f, -0.038515f, 0.014412f, 0.054585f, -0.081755f, -0.035221f, -0.026125f, -0.015571f, -0.036248f, -0.059034f, -0.089866f, 0.060902f, 0.071852f, -0.070834f, 0.040499f, 0.035933f, 0.070299f, 0.018478f, -0.054313f, -0.062602f, 0.113511f, -0.009763f, -0.010794f, 0.004088f, -0.013203f, 0.046044f, -0.090645f, 0.033667f, -0.058989f, -0.023318f, -0.003123f, -0.084799f, 0.000497f, -0.083380f, 0.043201f, 0.038276f, 0.076876f, -0.040517f, 0.062040f, -0.042687f, 0.072703f, -0.087906f, -0.033369f, 0.060525f, 0.043665f, 0.001113f, -0.045951f, -0.087645f, 0.052320f, -0.064102f, 0.044654f, -0.021923f, 0.042206f, 0.021068f, -0.003948f, -0.031220f, 0.056284f, 0.007561f, -0.014961f, 0.036947f, 0.014980f, 0.022073f, -0.016178f, -0.051223f, 0.002441f, 0.031942f, 0.051433f, 0.070614f, -0.024081f, 0.024058f, 0.042607f, -0.051868f, 0.062251f, -0.000944f, 0.054057f, -0.040650f, -0.085609f, -0.096760f, -0.046668f, -0.002736f, -0.073578f, -0.012388f, -0.077605f, 0.042303f, -0.011657f, -0.015381f, -0.098014f, -0.067486f, 0.074506f, -0.010353f, -0.071135f, -0.083509f, -0.042098f, -0.005203f, 0.029697f, -0.038347f, 0.049807f, -0.055358f, -0.062945f, -0.037631f, -0.053684f, 0.039485f, 0.049069f, 0.079071f, -0.057910f, -0.009360f, 0.011731f, -0.029598f, 0.009390f, 0.054535f, 0.026877f, 0.031088f, -0.009805f, -0.004892f, -0.080420f, 0.009568f, 0.008184f, -0.024026f, -0.013485f, 0.030891f, -0.017483f, 0.007845f, -0.006322f, -0.030812f, 0.072975f, 0.007819f, -0.006392f, -0.093100f, 0.007017f, 0.114707f, -0.061354f, -0.121393f, 0.199659f, -0.035223f, 0.029466f, -0.061297f, 0.117308f, -0.063937f, -0.099663f, 0.109575f, 0.052882f, -0.094144f, -0.022810f, -0.097172f, -0.063315f, -0.028806f, -0.111088f, -0.021349f, 0.062639f, -0.023113f, -0.094608f, 0.015110f, 0.130653f, 0.161206f, 0.037316f, -0.080023f, -0.003408f, 0.035623f, -0.030025f, -0.018568f, 0.003527f, 0.019923f, 0.012404f, 0.128758f, -0.014222f, 0.047371f, 0.049267f, -0.079144f, 0.048716f, -0.048606f, 0.076914f, -0.011025f, 0.042156f, -0.025426f, -0.122698f, 0.041539f, -0.055246f, 0.013829f, -0.002025f, 0.071774f, 0.092943f, -0.075843f, 0.140485f, 0.001878f, 0.061132f, 0.021131f, 0.009248f, -0.029734f, -0.056012f, 0.030764f, -0.012559f, 0.205703f, 0.019863f, -0.013641f, -0.019397f, -0.016071f, -0.050034f, -0.027200f, -0.182974f, 0.032872f, -0.097579f, 0.016978f, 0.017824f, -0.077418f, -0.126075f, -0.041647f, -0.003705f, -0.021580f, -0.001987f, 0.067033f, 0.012413f, -0.007678f, -0.029724f, -0.052424f, -0.022345f, -0.032342f, -0.102401f, 0.058037f, -0.083741f, -0.075594f, 0.024888f, -0.115980f, -0.038372f, 0.078354f, -0.071170f, 0.127383f, 0.100811f, -0.059138f, -0.145717f, -0.084838f, 0.035570f, 0.001366f, -0.101898f, -0.116308f, 0.068224f, 0.012749f, 0.067158f, 0.123716f, -0.056602f, -0.055778f, -0.005367f, 0.229607f, 0.076350f, -0.112446f, -0.005757f, -0.059088f, 0.019693f, 0.021070f, -0.062730f, 0.017803f, -0.036296f, 0.039535f, 0.078257f, -0.058877f, -0.054834f, 0.088785f, 0.056648f, -0.012210f, -0.090685f, -0.006237f, -0.036492f, -0.013612f, -0.072061f, 0.015995f, 0.060876f, -0.016631f, -0.081499f, 0.090599f, 0.038294f, -0.046199f, -0.092759f, -0.029922f, 0.006621f, -0.030913f, 0.022571f, -0.005487f, -0.046790f, 0.007491f, 0.035121f, 0.088006f, 0.052885f, 0.159017f, -0.010797f, 0.017559f, -0.068539f, 0.016241f, 0.021009f, 0.048426f, 0.016615f, 0.024960f, 0.079518f, 0.015852f, -0.023725f, -0.024311f, 0.046754f, -0.016118f, 0.044239f, -0.048875f, 0.034250f, 0.063736f, -0.006681f, -0.045696f, -0.128034f, 0.025421f, -0.042207f, -0.068247f, 0.083909f, 0.093353f, 0.047696f, 0.023468f, 0.044868f, 0.137947f, 0.011799f, 0.079294f, 0.061778f, 0.083100f, -0.069007f, 0.077263f, 0.078814f, -0.050932f, 0.013567f, -0.025581f, 0.021416f, 0.041181f, -0.035871f, 0.039026f, -0.071759f, 0.097497f, 0.068633f, 0.075299f, -0.074716f, 0.088178f, 0.009791f, -0.047122f, 0.151413f, -0.024331f, -0.070180f, 0.002100f, -0.007312f, -0.038462f, 0.004085f, 0.070945f, 0.000906f, -0.065697f, -0.002446f, -0.039395f, -0.018844f, -0.042505f, -0.021605f, -0.068754f, -0.062491f, 0.064082f, 0.021111f, 0.039729f, 0.080578f, -0.027163f, -0.024498f, 0.048102f, 0.012549f, 0.002652f, -0.076532f, 0.002766f, -0.071486f, 0.036452f, 0.115650f, 0.092129f, 0.078234f, 0.007147f, 0.065168f, 0.077171f, 0.099496f, -0.027564f, 0.038192f, -0.091442f, -0.095373f, -0.053504f, -0.056565f, -0.023998f, -0.085126f, -0.008006f, -0.015903f, 0.025253f, -0.012572f, -0.047984f, -0.000725f, -0.026724f, -0.038996f, 0.077530f, 0.033418f, -0.018800f, -0.033267f, 0.027865f, 0.044413f, 0.004406f, -0.085403f, -0.094819f, -0.014233f, -0.014374f, -0.061531f, -0.041722f, 0.015297f, -0.037113f, -0.059754f, 0.036797f, 0.010133f, 0.062819f, -0.015453f, -0.022050f, -0.051136f, -0.043596f, -0.050155f, -0.038244f, 0.015554f, 0.012676f, 0.012422f, 0.064208f, -0.063053f, -0.011028f, -0.034204f, -0.074932f, 0.005256f, 0.075077f, 0.075933f, 0.039457f, -0.098679f, -0.087628f, 0.065088f, 0.016143f, -0.050625f, -0.074469f, -0.073021f, -0.088828f, -0.093936f, -0.026768f, -0.026158f, 0.039235f, -0.009838f, 0.022202f, -0.016715f, -0.058374f, 0.003587f, 0.044694f, 0.021926f, -0.017811f, 0.046395f, 0.064572f, 0.037585f, 0.048976f, 0.035795f, -0.074711f, 0.035520f, 0.023459f, -0.022883f, -0.042522f, -0.073502f, -0.051175f, 0.027739f, 0.005911f, -0.032300f, -0.019590f, -0.067864f, -0.057864f, 0.053158f, 0.040835f, 0.003833f, 0.027709f, -0.013777f, 0.031280f, 0.042636f, -0.017590f, -0.089851f, -0.046073f, -0.021401f, -0.080217f, -0.082083f, -0.096562f, 0.009580f, 0.013919f, 0.030563f, -0.000861f, 0.008937f, -0.095480f, 0.026127f, 0.043245f, -0.004342f, 0.017985f, -0.030572f, 0.065361f, 0.041489f, -0.064044f, 0.041916f, 0.020196f, 0.076348f, -0.087399f, 0.071159f, 0.059356f, -0.002690f, -0.094070f, 0.051917f, 0.001170f, 0.018678f, -0.044282f, -0.086717f, -0.063921f, -0.225709f, -0.082284f, 0.046934f, 0.025825f, -0.031769f, -0.220551f, -0.000051f, 0.065221f, -0.036448f, -0.033023f, -0.127999f, 0.070490f, -0.052125f, -0.008144f, -0.005029f, -0.085978f, 0.117797f, 0.015839f, -0.032102f, 0.013963f, -0.019223f, 0.046703f, -0.017127f, -0.105164f, -0.015665f, -0.018871f, 0.086811f, -0.070974f, -0.127622f, 0.018106f, -0.024146f, -0.054874f, -0.076481f, 0.102767f, 0.020133f, -0.039533f, -0.043558f, -0.027415f, -0.052571f, -0.127709f, -0.001917f, 0.009400f, -0.030312f, -0.102107f, 0.125081f, 0.038905f, -0.013253f, -0.028390f, 0.062052f, 0.025450f, 0.054315f, 0.067372f, 0.079710f, 0.086133f, -0.035656f, -0.066553f, 0.055363f, 0.035049f, -0.018258f, 0.040270f, 0.059149f, -0.073117f, -0.019261f, 0.154218f, 0.115782f, -0.006424f, -0.035850f, 0.008769f, 0.121416f, -0.029126f, -0.016514f, -0.165735f, -0.055653f, 0.168052f, 0.011368f, 0.089407f, -0.012505f, 0.070674f, -0.038113f, -0.064175f, 0.080001f, 0.062221f, -0.130704f, 0.123030f, 0.058156f, 0.029367f, -0.016320f, 0.006523f, -0.026114f, 0.055689f, -0.007841f, -0.000880f, 0.087368f, 0.018651f, 0.029607f, -0.012057f, -0.009276f, -0.211203f, 0.025086f, 0.017075f, 0.118027f, -0.012785f, -0.053345f, -0.117577f, -0.102037f, 0.157014f, 0.082743f, 0.030469f, 0.055958f, 0.013313f, 0.016558f, -0.021829f, -0.119733f, -0.014062f, 0.003839f, 0.079725f, 0.156537f, -0.091644f, 0.059889f, 0.016814f, 0.020836f, 0.056075f, 0.075803f, -0.004593f, 0.038176f, -0.060670f, 0.026400f, 0.044542f, 0.043700f, 0.064408f, 0.084706f, -0.001648f, 0.009341f, 0.096787f, -0.031853f, 0.037137f, 0.025305f, -0.022535f, 0.068379f, 0.113119f, -0.152129f, 0.176797f, 0.087797f, -0.074648f, -0.086535f, -0.003819f, 0.076240f, -0.022552f, -0.100484f, 0.050656f, -0.023633f, -0.048374f, -0.077776f, -0.018090f, -0.035316f, -0.016042f, -0.097286f, 0.096711f, -0.047989f, 0.016587f, -0.105737f, -0.047118f, 0.054489f, 0.066959f, 0.049346f, -0.022316f, -0.052180f, 0.117458f, 0.049684f, 0.021881f, -0.011819f, -0.081857f, -0.115822f, -0.061875f, -0.000819f, 0.041919f, -0.017447f, 0.008888f, -0.159081f, 0.052816f, 0.041333f, 0.007693f, 0.115241f, -0.024283f, 0.000035f, -0.005596f, -0.039703f, 0.023721f, -0.059139f, 0.043964f, -0.070067f, -0.122592f, 0.029093f, 0.016925f, 0.073827f, 0.081636f, 0.035129f, -0.062985f, 0.037778f, 0.098951f, -0.027976f, 0.014964f, 0.105996f, -0.117403f, 0.007149f, -0.068316f, 0.053450f, -0.097694f, 0.010288f, -0.002694f, 0.088627f, 0.082879f, 0.005488f, 0.093896f, -0.154806f, -0.013656f, 0.121523f, 0.043840f, 0.011945f, 0.024153f, 0.151453f, 0.009269f, 0.077856f, -0.114197f, 0.068430f, -0.092250f, 0.072788f, 0.059870f, -0.024601f, -0.042826f, 0.071743f, -0.026062f, 0.014985f, -0.014439f, -0.108507f, 0.108070f, 0.016236f, -0.001060f, -0.063054f, -0.055152f, 0.070500f, 0.059335f, 0.000043f, -0.007415f, 0.088437f, -0.060059f, 0.025356f, -0.040460f, -0.083287f, 0.011918f, -0.087785f, 0.084304f, 0.025004f, 0.033645f, 0.040398f, -0.034152f, 0.076979f, 0.016958f, -0.050477f, 0.038204f, 0.025508f, -0.033309f, -0.011681f, 0.098612f, 0.083367f, -0.089100f, -0.025893f, 0.072797f, 0.005479f, 0.070030f, 0.017724f, 0.055019f, 0.026057f, 0.003423f, -0.000397f, -0.036939f, 0.047718f, 0.055458f, -0.014453f, -0.003727f, 0.037620f, 0.088990f, 0.078096f, -0.022494f, 0.030308f, -0.029903f, -0.000813f, 0.073268f, 0.047707f, -0.050369f, -0.067955f, 0.046802f, -0.001460f, -0.047321f, 0.017993f, 0.076210f, 0.078205f, 0.090525f, -0.012523f, 0.023023f, -0.077226f, 0.033195f, 0.013260f, -0.007422f, -0.069772f, -0.028743f, 0.039219f, -0.050581f, 0.075720f, -0.042046f, 0.183357f, 0.023749f, 0.025142f, 0.077544f, 0.010660f, -0.037993f, 0.007408f, 0.002453f, -0.054899f, 0.006354f, -0.005413f, 0.056953f, 0.038898f, -0.018865f, -0.045522f, -0.019936f, 0.016854f, -0.030943f, 0.076411f, -0.037339f, 0.030752f, -0.002954f, -0.058089f, 0.052230f, 0.107533f, 0.022911f, 0.091099f, -0.019061f, -0.002345f, 0.035100f, -0.052622f, 0.110257f, -0.085990f, -0.054801f, 0.076962f, -0.023888f, 0.103084f, 0.043795f, -0.033180f, 0.012760f, 0.066463f, 0.047649f, 0.014906f, 0.076355f, -0.012243f, 0.049617f, -0.022004f, -0.010335f, -0.014623f, -0.063714f, -0.031430f, -0.041773f, -0.064934f, -0.022766f, -0.028974f, -0.013492f, -0.034887f, -0.012076f, -0.026184f, 0.078509f, -0.039639f, 0.053810f, -0.056335f, 0.045849f, 0.040574f, 0.083252f, -0.047735f, -0.121236f, -0.063419f, 0.071758f, -0.071967f, -0.053058f, 0.042823f, 0.046516f, -0.035253f, -0.035285f, 0.040630f, -0.069685f, 0.066268f, -0.134030f, -0.072182f, 0.028011f, 0.067895f, 0.026742f, -0.057088f, 0.012029f, 0.050402f, 0.067272f, -0.009689f, 0.046057f, 0.024263f, -0.019627f, 0.043345f, 0.049480f, -0.069734f, 0.099536f, -0.222978f, -0.010857f, -0.071279f, 0.000810f, -0.037703f, 0.089308f, -0.157603f, 0.023655f, 0.064319f, -0.069657f, -0.045072f, 0.055647f, -0.095732f, 0.009609f, -0.052267f, 0.076424f, 0.097616f, -0.045466f, -0.034618f, 0.051417f, -0.109690f, -0.092163f, -0.020378f, 0.011621f, 0.058039f, 0.051354f, 0.036506f, 0.058578f, -0.005375f, -0.007105f, 0.072831f, -0.020766f, 0.108491f, -0.087490f, 0.090919f, 0.005145f, -0.040252f, 0.091816f, -0.038913f, 0.021216f, -0.006954f, -0.003577f, 0.086857f, -0.001258f, -0.044872f, 0.084752f, 0.027492f, 0.013314f, 0.059034f, 0.021566f, 0.003185f, 0.052753f, -0.014354f, 0.001817f, 0.001155f, -0.002473f, -0.070150f, -0.111256f, 0.001087f, -0.034272f, 0.084102f, -0.024347f, 0.081287f, -0.066105f, -0.027619f, -0.046965f, 0.016491f, -0.088779f, -0.123842f, 0.075708f, -0.023001f, 0.045142f, -0.100347f, -0.089067f, 0.091328f, -0.054309f, -0.031588f, 0.128562f, 0.100497f, 0.028531f, -0.109433f, 0.015397f, 0.035501f, -0.007023f, -0.028028f, 0.047716f, -0.011592f, 0.030743f, 0.011178f, 0.042295f, 0.049726f, 0.001485f, 0.079827f, 0.016141f, 0.041985f, -0.060947f, 0.002321f, 0.076695f, -0.011773f, -0.030506f, -0.025094f, 0.058694f, 0.000531f, -0.017824f, 0.005809f, -0.099656f, 0.051727f, -0.051359f, 0.048379f, 0.015483f, -0.076733f, -0.029987f, -0.083660f, -0.002489f, -0.061243f, 0.013132f, 0.024789f, 0.144625f, -0.058139f, 0.071464f, 0.024300f, -0.041391f, -0.007256f, -0.014481f, 0.098485f, -0.040480f, -0.091719f, -0.008523f, 0.043834f, 0.052492f, -0.022995f, 0.022129f, 0.057077f, 0.103770f, 0.041267f, 0.188245f, -0.044651f, -0.074760f, -0.152149f, 0.035773f, -0.057623f, -0.063826f, 0.093750f, -0.070190f, 0.100326f, 0.188918f, 0.045689f, 0.077798f, -0.093329f, -0.169067f, -0.157256f, -0.082647f, 0.035761f, 0.069873f, -0.027039f, -0.030183f, -0.167625f, 0.086035f, 0.094021f, 0.012235f, 0.130649f, -0.005351f, -0.064875f, -0.031733f, -0.147086f, -0.086149f, -0.072398f, 0.073154f, -0.048242f, -0.048657f, -0.072183f, 0.086164f, -0.030773f, 0.052298f, 0.084583f, -0.081756f, -0.031269f, 0.083125f, -0.104938f, -0.030175f, 0.013839f, -0.078235f, 0.038675f, -0.016119f, 0.055725f, -0.190729f, 0.039072f, -0.066005f, 0.059660f, -0.009423f, -0.015714f, -0.011405f, -0.110655f, 0.157415f, 0.110436f, -0.084170f, -0.052793f, 0.072971f, 0.051313f, 0.050998f, 0.048027f, -0.018123f, 0.018136f, -0.123396f, -0.033360f, 0.100270f, 0.021822f, 0.023522f, 0.049888f, -0.100022f, -0.048988f, -0.147171f, -0.118050f, -0.023076f, 0.076354f, 0.084096f, 0.029493f, -0.104002f, 0.046242f, -0.010957f, -0.050598f, 0.040174f, 0.071803f, -0.086690f, -0.068573f, -0.003535f, -0.053362f, -0.062618f, -0.091299f, -0.000030f, -0.023987f, 0.039796f, -0.031663f, -0.022611f, -0.051105f, -0.005756f, 0.031794f, 0.126305f, 0.009972f, -0.078718f, -0.019737f, 0.019924f, 0.012590f, -0.099269f, 0.093315f, -0.011304f, -0.035511f, -0.095951f, -0.007972f, 0.013520f, -0.026148f, 0.045671f, 0.013385f, 0.007815f, -0.102198f, -0.024298f, -0.023106f, 0.054926f, 0.002086f, 0.073895f, 0.027534f, -0.115085f, -0.142592f, -0.006329f, 0.067758f, 0.023810f, 0.005909f, 0.018986f, -0.049861f, 0.039854f, -0.054724f, 0.043381f, -0.024634f, 0.027507f, 0.086701f, 0.063953f, -0.021117f, -0.063320f, -0.043043f, -0.077872f, -0.028892f, 0.085923f, -0.041051f, 0.053475f, -0.115303f, 0.002718f, -0.023627f, -0.049460f, 0.039531f, 0.033425f, -0.059358f, 0.073561f, -0.072261f, -0.052916f, 0.077818f, 0.043436f, -0.104049f, -0.055430f, 0.044796f, -0.068608f, -0.038609f, 0.027106f, -0.080753f, -0.032138f, -0.043673f, -0.075727f, 0.013531f, -0.035008f, -0.024165f, 0.057164f, 0.031497f, 0.054696f, 0.172326f, 0.006141f, -0.014436f, -0.060714f, 0.046290f, -0.009010f, -0.030992f, 0.133165f, -0.079881f, -0.077711f, 0.015552f, -0.004837f, -0.033070f, -0.070495f, 0.053619f, -0.013953f, -0.038625f, 0.022389f, 0.037147f, 0.055324f, 0.077676f, 0.070790f, -0.037808f, 0.067074f, 0.042868f, -0.056634f, -0.039010f, -0.058107f, 0.006633f, -0.024457f, 0.035827f, -0.020686f, -0.052292f, 0.049096f, -0.002840f, 0.087417f, -0.028323f, 0.050104f, -0.088326f, 0.054837f, -0.012334f, -0.062051f, -0.058083f, -0.100005f, 0.014785f, -0.015833f, 0.072956f, -0.053969f, -0.029951f, -0.059373f, -0.089471f, -0.010449f, 0.061828f, -0.112715f, -0.079296f, 0.014886f, -0.052050f, 0.056519f, 0.065467f, -0.015307f, -0.087674f, 0.017058f, -0.042463f, -0.092540f, -0.039957f, -0.069033f, -0.060335f, -0.067462f, -0.063943f, 0.058785f, 0.002356f, -0.053785f, -0.057463f, -0.062919f, -0.077184f, -0.018175f, -0.041802f, -0.024555f, -0.065629f, -0.040522f, 0.072446f, -0.072647f, -0.060890f, -0.003616f, -0.037304f, 0.034693f, -0.088998f, -0.070527f, -0.089981f, -0.053704f, 0.030500f, 0.017870f, 0.025910f, 0.022596f, 0.040296f, 0.074447f, 0.000778f, -0.078963f, -0.082548f, -0.015572f, -0.017287f, 0.037720f, 0.064500f, 0.037060f, 0.051887f, 0.070467f, -0.051171f, -0.078211f, -0.033686f, -0.065164f, -0.057296f, 0.025524f, -0.006269f, 0.056497f, -0.007960f, -0.028682f, 0.030645f, 0.048809f, -0.042135f, -0.092133f, -0.016453f, 0.021664f, -0.013682f, 0.029043f, 0.069616f, -0.033423f, -0.010320f, -0.091230f, -0.022332f, -0.082007f, -0.000786f, -0.014203f, -0.001099f, 0.020895f, -0.087924f, -0.016635f, -0.056176f, -0.044295f, -0.026648f, 0.067083f, -0.094000f, -0.000844f, -0.008074f, 0.068187f, 0.010568f, -0.037569f, 0.076324f, 0.076796f, -0.007721f, -0.020419f, 0.061894f, -0.087293f, -0.029526f, 0.018661f, 0.051672f, 0.065481f, 0.030432f, -0.050001f, -0.044729f, -0.071406f, -0.011235f, -0.062653f, 0.047504f, -0.024296f, 0.060893f, 0.040610f, -0.060067f, -0.022059f, -0.027913f, 0.052499f, -0.089292f, 0.006277f, -0.094998f, -0.028036f, -0.028566f, 0.023353f, -0.082157f, -0.018034f, -0.009061f, 0.041233f, 0.012007f, -0.085778f, -0.037482f, -0.035331f, 0.033068f, -0.038181f, 0.055554f, -0.092194f, -0.021687f, 0.068578f, -0.020262f, 0.025532f, -0.052019f, 0.002743f, -0.080467f, -0.081991f, -0.027256f, -0.058790f, 0.059720f, 0.010652f, -0.052159f, 0.053431f, 0.040691f, -0.082094f, -0.075277f, -0.030635f, -0.042181f, 0.012393f, -0.038798f, -0.094221f, -0.080199f, 0.073927f, -0.009430f, 0.014777f, -0.027667f, -0.082699f, -0.057091f, -0.058494f, 0.023130f, 0.011849f, 0.029827f, -0.085777f, 0.073168f, -0.089690f, 0.037754f, -0.092675f, 0.040744f, 0.012815f, 0.017005f, -0.012273f, -0.046215f, 0.027251f, -0.020470f, 0.072126f, 0.013606f, 0.039518f, 0.072265f, 0.030290f, -0.048956f, 0.048685f, 0.066431f, 0.037567f, -0.086313f, 0.061251f, 0.016819f, 0.064156f, 0.012574f, 0.046974f, 0.054695f, -0.027311f, 0.023546f, -0.026164f, 0.067772f, -0.096233f, -0.073172f, 0.039858f, -0.019655f, -0.012842f, 0.072847f, 0.064055f, 0.054689f, 0.009779f, -0.007015f, -0.019108f, 0.055563f, 0.018329f, -0.032183f, -0.045821f, 0.048975f, -0.006202f, 0.035839f, -0.076197f, -0.012898f, -0.085988f, -0.006938f, 0.004078f, -0.075887f, 0.048041f, -0.028365f, -0.073742f, -0.014607f, -0.015678f, -0.034411f, 0.041753f, 0.042905f, -0.060677f, 0.073584f, -0.086936f, 0.002598f, -0.059175f, 0.043349f, -0.057432f, -0.008168f, -0.044507f, -0.027626f, -0.063559f, -0.042384f, 0.061668f, -0.094020f, 0.015653f, -0.032150f, 0.030112f, -0.089036f, -0.034751f, -0.080295f, 0.012193f, 0.053642f, 0.008004f, -0.026577f, -0.031429f, 0.065753f, 0.064276f, -0.051364f, 0.028418f, -0.082705f, -0.081643f, -0.064945f, 0.056075f, 0.031517f, -0.042826f, 0.082519f, -0.022599f, 0.039350f, -0.057200f, -0.061615f, 0.054887f, -0.023903f, -0.058991f, -0.080416f, 0.011279f, 0.063211f, -0.075885f, -0.010177f, -0.023656f, -0.003140f, 0.042606f, 0.014948f, -0.011656f, 0.061171f, 0.019243f, 0.051412f, -0.055065f, -0.068889f, -0.011407f, -0.085014f, 0.034593f, 0.038653f, 0.064525f, 0.039895f, -0.086548f, -0.040494f, 0.095374f, -0.014417f, 0.071245f, -0.059662f, -0.040168f, 0.058833f, 0.021103f, 0.001099f, 0.062313f, 0.034348f, -0.005057f, 0.038616f, -0.030679f, -0.084557f, -0.025900f, -0.101608f, 0.047076f, 0.072272f, 0.011747f, -0.069999f, -0.074475f, -0.000976f, -0.011436f, 0.068112f, 0.031719f, 0.025134f, -0.001355f, 0.065115f, -0.062970f, 0.005422f, -0.046144f, -0.013390f, -0.033002f, 0.067309f, 0.010711f, 0.080060f, 0.032802f, 0.026631f, -0.031705f, -0.011125f, -0.091083f, 0.019218f, -0.084137f, 0.050868f, 0.055416f, -0.077621f, 0.129609f, 0.052732f, 0.053230f, 0.070083f, -0.070225f, 0.024069f, -0.028442f, -0.070344f, 0.016008f, -0.078213f, 0.077881f, -0.043496f, -0.066645f, 0.057692f, -0.041076f, -0.041376f, 0.056205f, 0.030252f, 0.059607f, -0.067922f, -0.091266f, -0.038639f, 0.077363f, -0.023796f, -0.055551f, 0.076763f, -0.079494f, 0.050314f, 0.049654f, -0.001328f, 0.054377f, -0.064405f, -0.025459f, 0.039718f, 0.056085f, -0.059973f, 0.025912f, 0.010964f, 0.061089f, 0.045168f, 0.003079f, 0.072438f, 0.083490f, -0.017877f, 0.108355f, -0.008913f, -0.240647f, 0.002247f, 0.058799f, -0.030678f, 0.017359f, -0.008491f, -0.116537f, -0.018646f, -0.001857f, -0.016692f, -0.164157f, -0.068654f, -0.052257f, 0.073642f, -0.038167f, 0.041605f, -0.060978f, -0.057367f, 0.049306f, -0.127820f, 0.024815f, -0.063600f, -0.098923f, -0.062196f, -0.053201f, -0.017950f, -0.023122f, 0.076910f, -0.087199f, 0.039110f, 0.032903f, 0.073815f, 0.022824f, -0.043320f, 0.046761f, -0.020369f, -0.055170f, 0.033137f, 0.052232f, 0.103768f, 0.068654f, 0.011277f, 0.006305f, 0.049749f, -0.148019f, 0.126067f, 0.069741f, 0.085533f, 0.090248f, -0.040284f, -0.026388f, 0.071554f, -0.068088f, -0.027479f, -0.005504f, -0.075508f, -0.059170f, -0.072680f, -0.063091f, -0.223778f, -0.001930f, 0.111133f, -0.271743f, -0.012888f, 